3.518961071968078613e-01
2.258590608835220337e-01
-3.973941504955291748e-02
4.649809300899505615e-01
4.346743524074554443e-01
2.672983407974243164e-01
2.453141212463378906e-01
2.491693496704101562e-01
4.284162223339080811e-01
-2.178781777620315552e-01
3.903285861015319824e-01
3.346073031425476074e-01
-8.329614996910095215e-03
-4.048604071140289307e-01
-3.310665786266326904e-01
-2.445015162229537964e-01
-4.182891845703125000e-01
-2.506815195083618164e-01
2.866662144660949707e-01
2.663921117782592773e-01
2.447720021009445190e-01
4.309860169887542725e-01
-5.639978125691413879e-02
-1.448062807321548462e-02
2.543968260288238525e-01
-8.606880158185958862e-02
1.950474828481674194e-01
1.069021970033645630e-01
-2.401944398880004883e-01
-2.627536654472351074e-02
-5.594155937433242798e-02
-4.127748906612396240e-01
2.438835054636001587e-01
3.242036998271942139e-01
4.460710883140563965e-01
-1.591425016522407532e-02
-2.956324517726898193e-01
-3.790374398231506348e-01
4.189231991767883301e-01
4.070540666580200195e-01
-4.384929686784744263e-02
-9.689091145992279053e-02
-1.017179563641548157e-01
-5.098284780979156494e-02
2.971610426902770996e-01
-1.792880147695541382e-01
-2.848514914512634277e-01
2.283600866794586182e-01
3.402540087699890137e-01
-2.712952494621276855e-01
-2.908371388912200928e-01
2.953736484050750732e-01
4.776767492294311523e-01
1.015574559569358826e-01
-1.874681562185287476e-01
-3.653941154479980469e-01
4.677081406116485596e-01
-1.220953911542892456e-01
4.915429055690765381e-01
1.940016597509384155e-01
-3.357257544994354248e-01
-1.701414287090301514e-01
1.251792907714843750e-02
3.492318689823150635e-01
4.176479279994964600e-01
1.022360697388648987e-01
1.704830862581729889e-02
-8.304519206285476685e-02
2.516849935054779053e-01
3.842987716197967529e-01
1.749960780143737793e-01
2.684378325939178467e-01
3.382101953029632568e-01
4.918339475989341736e-02
2.513404488563537598e-01
1.768069267272949219e-01
-2.966783344745635986e-01
4.755701422691345215e-01
4.042749702930450439e-01
7.553250342607498169e-02
3.836666345596313477e-01
4.814118891954421997e-02
-1.524974256753921509e-01
1.023403257131576538e-01
8.195913583040237427e-02
3.031314909458160400e-01
2.466767095029354095e-03
-4.630399495363235474e-02
1.784714013338088989e-01
-1.936025768518447876e-01
-1.452507376670837402e-01
1.076455041766166687e-01
-4.460149705410003662e-01
-1.926309615373611450e-01
-4.501185715198516846e-01
-1.215183138847351074e-01
4.407115653157234192e-02
-4.316385388374328613e-01
-3.908790349960327148e-01
-1.915175914764404297e-01
