-3.865557610988616943e-01
7.064094394445419312e-02
2.674439251422882080e-01
3.782275617122650146e-01
1.083925291895866394e-01
4.673711359500885010e-01
2.190443575382232666e-01
5.523531436920166016e-01
-4.039713442325592041e-01
4.699265956878662109e-01
2.341997623443603516e-02
-1.018669307231903076e-01
-4.385531246662139893e-01
-3.067917525768280029e-01
2.924890518188476562e-01
1.909261047840118408e-01
1.082653403282165527e-01
-2.125506848096847534e-02
5.413733306340873241e-04
3.970099687576293945e-01
4.686416089534759521e-01
5.660236477851867676e-01
6.047618761658668518e-02
2.312243282794952393e-01
-2.020531445741653442e-01
-1.693089604377746582e-01
6.312878727912902832e-01
3.845930695533752441e-01
-3.366669714450836182e-01
1.904638558626174927e-01
4.117104709148406982e-01
-3.551526665687561035e-01
3.007693290710449219e-01
-4.059304893016815186e-01
-4.412099123001098633e-01
2.824046015739440918e-01
-7.649222761392593384e-02
-1.958358138799667358e-01
1.840757280588150024e-01
1.223666593432426453e-01
-4.379573464393615723e-01
-1.066077202558517456e-01
-4.735752344131469727e-01
-5.322476848959922791e-02
2.357273250818252563e-01
-3.674597740173339844e-01
-2.214764356613159180e-01
-3.613037467002868652e-01
3.561693131923675537e-01
-1.089739352464675903e-01
3.839946091175079346e-01
-2.667778432369232178e-01
-2.495578257367014885e-03
-1.266804486513137817e-01
5.215784907341003418e-01
-3.419771194458007812e-01
3.870535790920257568e-01
3.069576621055603027e-01
1.538373380899429321e-01
-1.901784092187881470e-01
1.771965175867080688e-01
-6.282445508986711502e-03
1.357091777026653290e-02
8.219950646162033081e-02
1.600476354360580444e-01
5.367273092269897461e-01
-1.774897724390029907e-01
-3.808929026126861572e-01
-1.275630388408899307e-02
-4.602256715297698975e-01
-3.250736743211746216e-02
-3.902000188827514648e-01
-3.529613018035888672e-01
3.579103052616119385e-01
-2.945400178432464600e-01
-3.526901304721832275e-01
1.042935624718666077e-01
1.049493323080241680e-03
4.642800688743591309e-01
2.340180799365043640e-03
-1.375975012779235840e-01
-2.099963873624801636e-01
4.946486055850982666e-01
-2.004928886890411377e-01
3.408654332160949707e-01
7.886352390050888062e-02
5.062512755393981934e-01
4.381563961505889893e-01
1.536161154508590698e-01
5.383985042572021484e-01
2.374138832092285156e-01
-2.657321691513061523e-01
1.316261664032936096e-02
1.096670031547546387e-01
-2.119185179471969604e-01
-2.604757249355316162e-01
3.325712978839874268e-01
3.625464439392089844e-01
1.747715920209884644e-01
-4.236823618412017822e-01
