-4.900647997856140137e-01
1.132081728428602219e-02
1.226862072944641113e-01
-2.708502858877182007e-02
-4.732629060745239258e-01
-1.200423017144203186e-01
-2.959646880626678467e-01
-3.726568520069122314e-01
-4.300705492496490479e-01
-4.479186534881591797e-01
-3.274901583790779114e-02
1.380630135536193848e-01
4.741322398185729980e-01
-4.533254802227020264e-01
-3.627676665782928467e-01
-1.311271786689758301e-01
5.267434120178222656e-01
9.111504256725311279e-02
5.361352562904357910e-01
2.646315097808837891e-01
-2.407152205705642700e-02
2.650060951709747314e-01
-7.362377643585205078e-02
2.493612654507160187e-02
5.936877056956291199e-02
-1.656616330146789551e-01
7.058575004339218140e-02
3.386113941669464111e-01
1.787645667791366577e-01
2.206798046827316284e-01
-1.930638402700424194e-01
-1.902656704187393188e-01
2.166622579097747803e-01
-3.961254656314849854e-01
-4.495018720626831055e-01
-2.435358464717864990e-01
-5.884367972612380981e-02
-3.136090040206909180e-01
-1.321881562471389771e-01
2.268854975700378418e-01
-2.895630337297916412e-02
-2.606074512004852295e-01
4.171172678470611572e-01
-4.413139820098876953e-02
-3.864285647869110107e-01
3.553712740540504456e-02
-4.557998478412628174e-02
3.839856982231140137e-01
-2.153149098157882690e-01
-4.312486648559570312e-01
-3.602608442306518555e-01
-1.688488721847534180e-01
-4.551661014556884766e-01
5.453363060951232910e-02
3.116285800933837891e-01
3.775157630443572998e-01
5.220794081687927246e-01
3.404601514339447021e-01
-8.650299906730651855e-02
-1.667070090770721436e-01
2.280732095241546631e-01
4.043305218219757080e-01
9.145524352788925171e-02
2.203668951988220215e-01
-3.226637542247772217e-01
2.779933810234069824e-01
4.408675730228424072e-01
1.140449345111846924e-01
-4.188599064946174622e-03
-1.494592726230621338e-01
-2.689442336559295654e-01
-1.760888397693634033e-01
-6.657763570547103882e-02
-2.581324875354766846e-01
3.138796687126159668e-01
-1.520178318023681641e-01
-7.072114944458007812e-02
3.749087154865264893e-01
-2.950021810829639435e-02
-3.115234076976776123e-01
3.611692488193511963e-01
3.964611291885375977e-01
5.401482582092285156e-01
2.326641082763671875e-01
-2.091233059763908386e-02
3.340381383895874023e-02
1.993913203477859497e-01
3.036597073078155518e-01
2.072784751653671265e-01
4.160415232181549072e-01
-9.130259603261947632e-02
2.436746507883071899e-01
-2.855418920516967773e-01
-3.937250077724456787e-01
-4.310146272182464600e-01
-4.842742085456848145e-01
4.091665148735046387e-01
1.603438556194305420e-01
3.417267203330993652e-01
1.202485635876655579e-01
