-3.802718818187713623e-01,4.190340638160705566e-01,4.848433732986450195e-01,-9.883659332990646362e-02,-3.860574066638946533e-01,4.359939396381378174e-01,4.807855784893035889e-01,2.395370304584503174e-01,2.574968636035919189e-01,-2.300917915999889374e-02,-5.193241238594055176e-01,-4.485434889793395996e-01,2.944122552871704102e-01,9.348189830780029297e-02,-1.984502673149108887e-01,4.809452891349792480e-01,-2.682667076587677002e-01,3.364622294902801514e-01,1.942391246557235718e-01,1.811394393444061279e-01,2.629225850105285645e-01,2.521319091320037842e-01,4.711924791336059570e-01,-3.601047769188880920e-02,3.874151706695556641e-01,1.507185995578765869e-01,-8.181773126125335693e-02,-3.145312666893005371e-01,-2.770607769489288330e-01,-1.724128723144531250e-01,-3.317076563835144043e-01,-1.830140203237533569e-01,1.864757575094699860e-02,-3.393680751323699951e-01,4.578854143619537354e-01,2.712138295173645020e-01,-4.756870269775390625e-01,4.801552891731262207e-01,-2.309686243534088135e-01,-2.470914423465728760e-01,-1.303400099277496338e-01,1.164719015359878540e-01,4.144993126392364502e-01,-1.444320231676101685e-01,4.268487691879272461e-01,-2.338829487562179565e-01,-2.271528095006942749e-01,-2.265578061342239380e-01,-4.747596383094787598e-01,2.248334884643554688e-01,-3.004203140735626221e-01,-1.409425586462020874e-01,4.975058436393737793e-01,-3.896625041961669922e-01,2.905421555042266846e-01,3.339586555957794189e-01,3.601205646991729736e-01,1.452461183071136475e-01,-3.679402172565460205e-01,1.374296396970748901e-01,3.354245424270629883e-01,-1.894192211329936981e-02,-4.958696067333221436e-01,-2.104244530200958252e-01,-5.032276511192321777e-01,3.012381494045257568e-01,-2.150996401906013489e-02,4.014063477516174316e-01,-1.177121773362159729e-01,2.277903109788894653e-01,-3.378435373306274414e-01,4.059459567070007324e-01,-3.599782884120941162e-01,2.339833825826644897e-01,-2.326717376708984375e-01,1.352112889289855957e-01,-4.294207319617271423e-02,-2.054350823163986206e-01,2.001366913318634033e-01,2.048948407173156738e-01,1.898409575223922729e-01,-4.139694869518280029e-01,2.645358443260192871e-01,3.842816948890686035e-01,-1.340973675251007080e-01,3.228496909141540527e-01,2.866360843181610107e-01,-1.881759166717529297e-01,-4.481805860996246338e-01,1.952503025531768799e-01,-3.629813790321350098e-01,-3.662857711315155029e-01,4.872857034206390381e-02,2.819691598415374756e-01,-2.546986341476440430e-01,2.584325969219207764e-01,4.766173660755157471e-01,1.230480223894119263e-01,-3.221864402294158936e-01,2.373082190752029419e-01
5.082953572273254395e-01,-2.402423769235610962e-01,-7.088574767112731934e-02,-3.466641306877136230e-01,-2.422862648963928223e-01,7.748951017856597900e-02,-2.831027507781982422e-01,2.071190327405929565e-01,-1.786082088947296143e-01,4.712390601634979248e-01,3.130475282669067383e-01,-2.582776546478271484e-01,-1.459660232067108154e-01,-2.712393701076507568e-01,-5.092027783393859863e-01,1.876474618911743164e-01,7.333108037710189819e-02,3.216272220015525818e-02,-1.162312105298042297e-01,1.930078715085983276e-01,1.767179556190967560e-02,-4.243588745594024658e-01,-4.190144240856170654e-01,-2.348546236753463745e-01,-3.525980710983276367e-01,3.165848553180694580e-01,-4.949272572994232178e-01,2.315721958875656128e-01,-1.475528180599212646e-01,-1.722969412803649902e-01,-1.124759092926979065e-01,-4.146226346492767334e-01,-3.369326293468475342e-01,-4.255377650260925293e-01,-1.692974567413330078e-01,3.516660630702972412e-01,-4.637413322925567627e-01,-3.403180465102195740e-02,2.094658911228179932e-01,-3.204503953456878662e-01,2.528288066387176514e-01,2.084518969058990479e-01,-4.847648143768310547e-01,-4.841567277908325195e-01,-3.845841884613037109e-01,-5.078101754188537598e-01,3.176493942737579346e-02,-2.222045809030532837e-01,-1.811534464359283447e-01,-1.599034070968627930e-01,3.059579730033874512e-01,-1.379273533821105957e-01,1.602335721254348755e-01,-4.465715289115905762e-01,-3.212826251983642578e-01,-4.566923975944519043e-01,-2.526321113109588623e-01,4.987029731273651123e-01,1.404198110103607178e-01,4.254153966903686523e-01,-4.456996023654937744e-01,-1.032090559601783752e-01,-2.016193568706512451e-01,2.405532300472259521e-01,-4.415256977081298828e-01,-3.359932303428649902e-01,3.486226871609687805e-02,1.180542558431625366e-01,-3.242692053318023682e-01,2.590233683586120605e-01,4.023909270763397217e-01,-2.189161926507949829e-01,-4.562862515449523926e-01,7.676409184932708740e-02,-4.822785854339599609e-01,-4.477914869785308838e-01,-3.781477510929107666e-01,3.289729356765747070e-01,-2.479403764009475708e-01,2.565956413745880127e-01,4.543989896774291992e-01,-1.971421837806701660e-01,2.770883440971374512e-01,3.398262262344360352e-01,-4.712113440036773682e-01,-2.535045742988586426e-01,2.011744230985641479e-01,-1.253266781568527222e-01,-3.144293129444122314e-01,3.209009170532226562e-01,2.381719499826431274e-01,2.886477708816528320e-01,3.507008850574493408e-01,-4.038393795490264893e-01,1.644662320613861084e-01,-3.729916214942932129e-01,-1.073470860719680786e-01,-1.235396116971969604e-01,-4.981218576431274414e-01,-2.642996609210968018e-01
-7.432456314563751221e-02,-5.019812583923339844e-01,2.741483747959136963e-01,4.567342698574066162e-01,-3.476150333881378174e-01,6.269738078117370605e-02,-1.391617953777313232e-01,-1.741266548633575439e-01,3.426268100738525391e-01,-2.307437956333160400e-01,-4.758563041687011719e-01,3.741526603698730469e-01,2.087541371583938599e-01,-8.955046534538269043e-02,3.503955006599426270e-01,-4.103393256664276123e-01,5.390478298068046570e-02,2.686647474765777588e-01,4.572590291500091553e-01,-2.559253275394439697e-01,-2.792837023735046387e-01,-4.104050099849700928e-01,-3.388682901859283447e-01,-2.518510222434997559e-01,-3.722601234912872314e-01,-4.421769678592681885e-01,3.860564827919006348e-01,4.837602972984313965e-01,-6.933286786079406738e-02,1.781915128231048584e-01,-6.701908260583877563e-02,-3.250749707221984863e-01,-1.503650695085525513e-01,-3.702471405267715454e-02,3.357558250427246094e-01,1.883383840322494507e-01,-2.878678403794765472e-02,3.328707516193389893e-01,-7.359972689300775528e-03,1.378555148839950562e-01,6.393050402402877808e-02,-1.314390450716018677e-01,3.206654265522956848e-02,-3.354966044425964355e-01,-4.526802301406860352e-01,1.421092450618743896e-01,-3.302477598190307617e-01,9.893869608640670776e-02,4.978452920913696289e-01,5.157340168952941895e-01,1.354021579027175903e-01,1.031793281435966492e-02,2.825342416763305664e-01,-4.321118593215942383e-01,8.207333087921142578e-02,2.642925977706909180e-01,4.606520533561706543e-01,1.556963287293910980e-02,3.323265314102172852e-01,2.112219333648681641e-01,-1.632939130067825317e-01,4.060951769351959229e-01,1.218314841389656067e-01,-4.510917067527770996e-01,2.365507781505584717e-01,-2.162172496318817139e-01,4.033609926700592041e-01,-3.471379280090332031e-01,4.031656682491302490e-01,1.524239182472229004e-01,-3.549435436725616455e-01,4.596060812473297119e-01,-3.123632371425628662e-01,-2.772618830204010010e-01,2.741580903530120850e-01,-8.444643020629882812e-02,7.311532646417617798e-02,-5.131839513778686523e-01,8.737345784902572632e-02,1.235970854759216309e-01,-4.931119084358215332e-01,1.187310218811035156e-01,4.422384202480316162e-01,-4.904818534851074219e-01,2.718808948993682861e-01,-3.465136289596557617e-01,-1.206890046596527100e-01,-4.901287555694580078e-01,-5.081829428672790527e-01,7.130796462297439575e-02,-5.857404321432113647e-02,-3.751608729362487793e-01,-2.199842184782028198e-01,-2.455452680587768555e-01,2.510078437626361847e-02,-3.140927851200103760e-01,-4.338528513908386230e-01,3.245283067226409912e-01,3.106422424316406250e-01,3.859160244464874268e-01
-1.377821415662765503e-01,2.670143917202949524e-02,-2.641496658325195312e-01,3.267097473144531250e-02,-1.599012464284896851e-01,-1.194822490215301514e-01,-1.617705374956130981e-01,-5.218480825424194336e-01,1.583728194236755371e-01,1.996378749608993530e-01,4.774360451847314835e-03,2.719508111476898193e-01,-3.763827979564666748e-01,-2.115574330091476440e-01,3.241196870803833008e-01,5.004654526710510254e-01,-3.320620059967041016e-01,8.755908161401748657e-02,-4.367443621158599854e-01,-1.695994436740875244e-01,4.081524312496185303e-01,-2.352002775296568871e-03,1.881218552589416504e-01,2.305756509304046631e-01,-2.232274711132049561e-01,-3.870354294776916504e-01,2.393373399972915649e-01,-5.022596120834350586e-01,-5.060298442840576172e-01,-3.817261382937431335e-02,6.153958663344383240e-02,-3.287798166275024414e-01,3.772649765014648438e-01,7.121271640062332153e-02,-3.844361007213592529e-01,-3.514785319566726685e-02,-2.910033240914344788e-02,2.539954781532287598e-01,-3.783318102359771729e-01,2.441381216049194336e-01,5.064248442649841309e-01,-2.267504036426544189e-01,-1.514180302619934082e-01,1.887505203485488892e-01,-3.805987909436225891e-02,-2.903264760971069336e-01,4.508953988552093506e-01,1.668960154056549072e-01,2.159026265144348145e-01,-2.568788477219641209e-04,-7.356111705303192139e-02,1.018419042229652405e-01,4.469877779483795166e-01,-5.263904333114624023e-01,2.633829116821289062e-01,-1.029158383607864380e-01,4.354954063892364502e-01,-3.302262723445892334e-01,-1.095459703356027603e-02,-1.353807300329208374e-01,9.385479241609573364e-02,-4.103909060359001160e-02,-1.327349692583084106e-01,3.378209173679351807e-01,-2.772668898105621338e-01,4.632597565650939941e-01,-9.215456992387771606e-02,-4.165081772953271866e-03,4.831557348370552063e-02,4.964245855808258057e-01,1.418174654245376587e-01,-6.807444244623184204e-02,3.405137658119201660e-01,1.369023229926824570e-03,2.365253567695617676e-01,-2.697133421897888184e-01,-3.247051537036895752e-01,-3.030735850334167480e-01,-1.794780641794204712e-01,-3.263255357742309570e-01,-4.268903136253356934e-01,-2.366143018007278442e-01,-5.315217003226280212e-02,2.507167458534240723e-01,-2.669598758220672607e-01,-6.185172870755195618e-02,4.700529854744672775e-03,-1.138418838381767273e-01,3.124139010906219482e-01,1.179080158472061157e-01,1.910764910280704498e-02,4.289347827434539795e-01,-1.867798119783401489e-01,-1.609264165163040161e-01,2.709836512804031372e-02,-1.680273860692977905e-01,-2.745056450366973877e-01,4.055697321891784668e-01,4.400524795055389404e-01,5.123093724250793457e-01
