-1.788484007120132446e-01,-1.668941229581832886e-01,2.246868163347244263e-01,4.300685226917266846e-01,3.265243172645568848e-01,4.033138453960418701e-01,-4.070649445056915283e-01,-3.802419602870941162e-01,4.438956975936889648e-01,1.759568899869918823e-01,-3.452715277671813965e-01,-2.280051819980144501e-02,-9.618537127971649170e-02,-2.429632246494293213e-01,2.355940043926239014e-01,1.493778228759765625e-01,4.486797749996185303e-02,-4.808883368968963623e-02,-9.912287816405296326e-03,-3.690655529499053955e-01,7.767542451620101929e-02,-3.256065249443054199e-01,-1.332655549049377441e-01,-3.343384265899658203e-01,-3.326340317726135254e-01,3.580421805381774902e-01,1.184962019324302673e-01,4.530065953731536865e-01,-4.820564687252044678e-01,-3.118025958538055420e-01,-8.802904933691024780e-02,-3.712109029293060303e-01,-2.274539470672607422e-01,4.043464958667755127e-01,-4.776912331581115723e-01,2.466858625411987305e-01,-1.286826934665441513e-02,2.372809350490570068e-01,3.812058568000793457e-01,1.875891834497451782e-01,3.565083146095275879e-01,-2.691559679806232452e-02,4.636970758438110352e-01,2.394132018089294434e-01,2.038326710462570190e-01,-4.068776965141296387e-01,-4.123172760009765625e-01,-1.393115222454071045e-01,1.998314410448074341e-01,-2.997161448001861572e-01,2.085312157869338989e-01,-1.854421496391296387e-01,3.423536121845245361e-01,-2.383337169885635376e-02,-4.964936077594757080e-01,1.085601225495338440e-01,4.904613792896270752e-01,1.396799236536026001e-01,1.161016449332237244e-01,-1.076858043670654297e-01,3.238566517829895020e-01,1.050752103328704834e-01,-3.636489510536193848e-01,-2.747893333435058594e-01,4.354469180107116699e-01,4.027612507343292236e-01,-1.117577105760574341e-01,3.069389164447784424e-01,-2.531713247299194336e-01,-3.686062693595886230e-01,-2.413392625749111176e-02,2.803381979465484619e-01,-3.954237997531890869e-01,1.686344146728515625e-01,3.530942201614379883e-01,2.981968820095062256e-01,2.742883861064910889e-01,-3.148118555545806885e-01,-2.923970520496368408e-01,-4.087700545787811279e-01,-4.323860108852386475e-01,4.890345633029937744e-01,-1.487208604812622070e-01,-3.528074026107788086e-01,2.873325943946838379e-01,2.696759067475795746e-02,1.950575858354568481e-01,3.774008452892303467e-01,-2.709478698670864105e-02,9.306023269891738892e-02,-2.147841304540634155e-01,-3.956473171710968018e-01,3.350818157196044922e-01,4.172300398349761963e-01,4.102925956249237061e-01,4.707985743880271912e-02,-3.637090325355529785e-02,2.543182810768485069e-03,3.426459431648254395e-02,-2.142446786165237427e-01
1.805267184972763062e-01,-1.979590654373168945e-01,2.754756510257720947e-01,3.722198680043220520e-02,1.396518945693969727e-01,1.642953045666217804e-02,-2.782251834869384766e-01,3.250409364700317383e-01,4.863482415676116943e-01,4.184795618057250977e-01,4.604001343250274658e-01,5.580348894000053406e-02,-4.115544855594635010e-01,-4.385234117507934570e-01,1.778837591409683228e-01,-1.576187163591384888e-01,2.511876225471496582e-01,2.095213830471038818e-01,-3.588947951793670654e-01,4.602289795875549316e-01,-3.772713840007781982e-01,-1.456681191921234131e-01,-1.845123171806335449e-01,3.004319667816162109e-01,4.529997408390045166e-01,-3.003928661346435547e-01,-4.485076963901519775e-01,3.298157155513763428e-01,-2.441743761301040649e-01,-1.594472378492355347e-01,3.346056342124938965e-01,-3.291787812486290932e-03,9.008653461933135986e-02,-2.644783258438110352e-02,-4.233517218381166458e-03,-1.872922927141189575e-01,4.401265680789947510e-01,4.614820331335067749e-02,4.841882586479187012e-01,-4.407203495502471924e-01,4.607346653938293457e-01,1.134688705205917358e-01,4.332140684127807617e-01,3.190401792526245117e-01,1.556997001171112061e-02,-4.212703108787536621e-01,1.984604746103286743e-01,-2.666502892971038818e-01,6.631047278642654419e-02,-1.823362559080123901e-01,4.222083985805511475e-01,-4.775145351886749268e-01,1.863128691911697388e-02,4.873961806297302246e-01,-2.659827284514904022e-02,-3.185994625091552734e-01,1.744596958160400391e-01,-1.530981212854385376e-01,-9.505927562713623047e-02,-1.375022232532501221e-01,-4.265219271183013916e-01,3.498848155140876770e-02,2.282351441681385040e-02,1.717310845851898193e-01,3.336550295352935791e-01,2.736227810382843018e-01,-4.903283119201660156e-01,-3.678408563137054443e-01,-5.133325457572937012e-01,-2.751449048519134521e-01,3.202006816864013672e-01,2.119546830654144287e-01,-1.811228543519973755e-01,3.891304731369018555e-01,-3.272072672843933105e-01,-8.781653642654418945e-02,4.917700886726379395e-01,7.257203012704849243e-02,3.359396457672119141e-01,-3.642841475084424019e-04,-3.985268175601959229e-01,2.800358235836029053e-01,-2.775935232639312744e-01,-8.235666900873184204e-02,8.086968213319778442e-02,3.662272989749908447e-01,4.555838406085968018e-01,-4.785025417804718018e-01,7.240946590900421143e-02,-4.200708866119384766e-01,4.673806130886077881e-01,3.761059343814849854e-01,3.200139701366424561e-01,-4.302520751953125000e-01,5.011517405509948730e-01,-1.103443130850791931e-01,1.055261678993701935e-02,1.102518141269683838e-01,1.913089603185653687e-01,1.993536055088043213e-01
-1.058545336127281189e-01,-2.496163696050643921e-01,1.653937436640262604e-02,-1.132591739296913147e-01,3.437396138906478882e-02,-2.992992103099822998e-02,4.142171740531921387e-01,-7.874996215105056763e-02,2.220391184091567993e-01,-2.102837413549423218e-01,-4.309609532356262207e-02,4.980973899364471436e-01,5.647280812263488770e-02,4.568801447749137878e-02,-4.770585596561431885e-01,7.386582344770431519e-02,-2.481840997934341431e-01,-2.413257807493209839e-01,-3.170923590660095215e-01,7.547903805971145630e-02,-4.151568710803985596e-01,4.666172266006469727e-01,-3.825995028018951416e-01,-2.300896793603897095e-01,-2.152773141860961914e-01,3.431744873523712158e-01,2.908462882041931152e-01,5.777734890580177307e-02,3.629311919212341309e-01,-1.582593768835067749e-01,-1.274017095565795898e-01,-5.123950242996215820e-01,-1.744133383035659790e-01,6.462559849023818970e-02,-2.742741703987121582e-01,2.995995804667472839e-02,-4.649090170860290527e-01,3.722215890884399414e-01,3.767979145050048828e-01,-3.904508352279663086e-01,3.501375615596771240e-01,-2.308028042316436768e-01,-7.248076796531677246e-02,5.286164879798889160e-01,-4.900813400745391846e-01,2.071943432092666626e-01,-3.281278610229492188e-01,3.284115493297576904e-01,3.544266521930694580e-01,4.894194900989532471e-01,2.982563711702823639e-02,2.326916754245758057e-01,2.117307484149932861e-01,-5.054398179054260254e-01,-3.490710258483886719e-01,-1.531246006488800049e-01,-8.862089365720748901e-03,-2.995401620864868164e-01,1.637247204780578613e-01,4.815587699413299561e-01,-4.238291084766387939e-01,-1.601908169686794281e-02,-3.591997623443603516e-01,4.906215965747833252e-01,6.471548229455947876e-02,1.485271900892257690e-01,-1.344681233167648315e-01,4.715127646923065186e-01,3.616758584976196289e-01,-1.294845435768365860e-02,-4.998620599508285522e-02,-7.481867074966430664e-02,4.929913282394409180e-01,4.396658241748809814e-01,-2.708120942115783691e-01,-3.076568432152271271e-02,4.505386576056480408e-02,3.777672052383422852e-01,4.240386933088302612e-02,-1.246173083782196045e-01,-9.095484018325805664e-02,5.160791873931884766e-01,3.982367366552352905e-02,8.298351429402828217e-03,-1.052532047033309937e-01,-4.992018938064575195e-01,-2.012006938457489014e-01,1.549395173788070679e-01,-3.220878243446350098e-01,3.196629881858825684e-01,-2.732226550579071045e-01,3.091236390173435211e-02,3.737018704414367676e-01,-1.383672803640365601e-01,-3.205156922340393066e-01,1.681164503097534180e-01,-9.814152121543884277e-02,-2.600539326667785645e-01,-2.063912898302078247e-01,4.801239073276519775e-02
-2.587266564369201660e-01,-4.904737770557403564e-01,2.750509679317474365e-01,1.401447355747222900e-01,4.306895732879638672e-01,-2.813714146614074707e-01,-2.490286380052566528e-01,4.785564839839935303e-01,2.095051556825637817e-01,1.050065159797668457e-01,-3.488319814205169678e-01,5.903744101524353027e-01,4.950028955936431885e-01,1.738635301589965820e-01,-2.867503464221954346e-01,-3.881042078137397766e-02,-9.938951581716537476e-02,3.382910043001174927e-02,-3.911689519882202148e-01,-2.389172166585922241e-01,-1.343828290700912476e-01,-3.777537345886230469e-01,2.174314409494400024e-01,4.717986881732940674e-01,-4.394248127937316895e-01,-1.763734370470046997e-01,-4.201087951660156250e-01,-3.075224459171295166e-01,-1.700792610645294189e-01,-4.016516208648681641e-01,-4.579708576202392578e-01,8.241047710180282593e-02,4.903763234615325928e-01,5.326579213142395020e-01,-4.756632552016526461e-04,-1.822787374258041382e-01,-5.067485570907592773e-01,-2.872836291790008545e-01,2.354164123535156250e-01,2.768982052803039551e-01,-2.936266660690307617e-01,-2.674388289451599121e-01,2.573150396347045898e-01,1.664844155311584473e-01,-2.460041642189025879e-01,-1.886744648218154907e-01,-1.253613531589508057e-01,3.534726798534393311e-01,8.070344477891921997e-02,-3.253675997257232666e-02,-4.371369779109954834e-01,2.872221469879150391e-01,-2.441207170486450195e-01,2.508463263511657715e-01,-2.090191096067428589e-01,5.180373787879943848e-01,-2.144347429275512695e-01,2.026379704475402832e-01,-4.228450655937194824e-01,-1.342404186725616455e-01,2.109693735837936401e-02,9.025620669126510620e-02,4.142222404479980469e-01,-6.953043397516012192e-03,-2.703509628772735596e-01,-3.084357082843780518e-01,-5.315379500389099121e-01,4.562344551086425781e-01,5.502114295959472656e-01,-1.175616309046745300e-01,9.936445951461791992e-02,-2.446532696485519409e-01,-4.166274368762969971e-01,-1.497904360294342041e-01,-3.679566681385040283e-01,3.368460237979888916e-01,-1.006149798631668091e-01,2.962977886199951172e-01,-5.366382002830505371e-01,9.550788253545761108e-02,3.528980771079659462e-03,-4.395092651247978210e-02,-2.172008156776428223e-01,-3.720917403697967529e-01,7.959356904029846191e-02,-4.285460710525512695e-01,-9.793947637081146240e-02,2.943574190139770508e-01,4.850364029407501221e-01,4.806138873100280762e-01,-1.288147717714309692e-01,4.640295803546905518e-01,-3.291476964950561523e-01,7.900645583868026733e-02,4.744731262326240540e-02,1.650984287261962891e-01,2.571293413639068604e-01,-5.199164152145385742e-01,-1.759945303201675415e-01,2.257909178733825684e-01
