0.000000000000000000e+00,9.777092188596725464e-02,9.964894503355026245e-02,7.529640197753906250e-02,5.280386656522750854e-02,6.160912662744522095e-02,-3.774442523717880249e-02,6.750439107418060303e-02,-4.411123320460319519e-02,-2.793527022004127502e-02,-8.319818973541259766e-02,-3.527110815048217773e-02,9.147737920284271240e-02,-4.449298232793807983e-02,-4.336769506335258484e-02,-6.748590618371963501e-02,-9.948860853910446167e-02,5.951424315571784973e-02,7.462658733129501343e-02,-1.001440435647964478e-01,-5.667569860816001892e-02,9.627461433410644531e-02,1.544443890452384949e-02,-5.537087470293045044e-02,-9.139146655797958374e-02,5.818621441721916199e-02,-8.211470395326614380e-02,-7.415141910314559937e-02,-4.992132261395454407e-02,-2.497423626482486725e-02,-4.184575006365776062e-02,6.839988380670547485e-02,1.177450269460678101e-02,-1.873365836217999458e-03,9.546221047639846802e-02,3.914692625403404236e-02,4.434468282852321863e-04,1.717151887714862823e-02,-6.331432610750198364e-02,-2.677766233682632446e-02,3.708590567111968994e-02,6.738850474357604980e-02,-9.361034631729125977e-02,-1.772241108119487762e-02,-6.673429906368255615e-02,7.379660755395889282e-02,4.059145599603652954e-02,1.727952808141708374e-02,6.514523923397064209e-02,2.860936149954795837e-02,9.409911930561065674e-02
1.000000000000000000e+00,5.640908703207969666e-02,5.988100916147232056e-02,7.258852571249008179e-02,1.825119182467460632e-02,-2.183966338634490967e-02,1.195512712001800537e-02,2.874036878347396851e-02,-3.364471346139907837e-02,5.352969095110893250e-02,-4.484180361032485962e-02,2.827678062021732330e-02,-3.249156475067138672e-02,6.087668612599372864e-02,-7.096585631370544434e-02,-2.720135636627674103e-02,-9.819483757019042969e-02,9.849665313959121704e-02,8.020956814289093018e-02,9.110265970230102539e-02,-1.666985079646110535e-02,1.500976551324129105e-02,-4.877111315727233887e-02,-8.776693791151046753e-02,-6.640496850013732910e-02,5.704950168728828430e-02,-5.230816453695297241e-02,9.824984520673751831e-02,2.773188613355159760e-02,-6.630158424377441406e-02,5.592947080731391907e-02,9.099035710096359253e-02,4.535594582557678223e-02,1.260093748569488525e-01,6.923989206552505493e-02,9.263493120670318604e-03,1.102567836642265320e-01,-5.421893298625946045e-02,-1.978396251797676086e-02,-1.348475459963083267e-02,-1.955445483326911926e-02,-8.500569313764572144e-02,5.206769704818725586e-02,-7.710051536560058594e-02,-1.365069299936294556e-02,-6.711091101169586182e-02,-7.051084935665130615e-02,-7.381650060415267944e-02,6.840559840202331543e-02,2.084276452660560608e-02,2.486794628202915192e-02
2.000000000000000000e+00,-6.065442785620689392e-02,1.707545481622219086e-03,8.952245116233825684e-02,6.708196550607681274e-02,6.933792680501937866e-02,7.062333077192306519e-02,-2.683339267969131470e-02,-5.961082875728607178e-02,1.731299608945846558e-02,3.708866983652114868e-02,8.432696014642715454e-02,-1.050674989819526672e-01,7.438873499631881714e-02,4.847782477736473083e-02,2.695789001882076263e-02,1.926044933497905731e-02,6.437981873750686646e-02,3.031483478844165802e-02,-8.981658518314361572e-02,5.213576927781105042e-02,-5.519436206668615341e-03,-4.032576456665992737e-03,2.597232721745967865e-02,8.244567550718784332e-03,4.343576356768608093e-02,9.147554636001586914e-02,4.180144146084785461e-02,-5.428148061037063599e-02,-5.638280510902404785e-02,-1.685593836009502411e-02,7.295934483408927917e-03,-6.630925089120864868e-02,7.507310062646865845e-02,1.975884661078453064e-02,-2.270907722413539886e-02,3.539266437292098999e-02,-8.053395152091979980e-02,6.763206422328948975e-02,7.468745857477188110e-02,5.645545199513435364e-02,-1.850037486292421818e-03,-2.382422611117362976e-02,-8.816048502922058105e-02,6.132699549198150635e-02,-3.857976198196411133e-02,-3.173331543803215027e-02,-9.672456234693527222e-02,-4.338204115629196167e-02,1.176766399294137955e-02,4.502105340361595154e-02
3.000000000000000000e+00,8.460193872451782227e-02,6.869339197874069214e-02,5.528970807790756226e-02,6.360828131437301636e-02,-7.025265693664550781e-02,6.149488687515258789e-02,-1.250995974987745285e-02,8.305273950099945068e-02,4.219371825456619263e-02,8.258015662431716919e-02,9.282766841351985931e-03,1.004218459129333496e-01,4.339956864714622498e-02,3.752930834889411926e-02,-1.039572432637214661e-02,-8.374911732971668243e-03,-2.213440462946891785e-02,-1.302594970911741257e-02,8.122611790895462036e-02,1.082396041601896286e-02,8.344760537147521973e-02,-1.263372004032135010e-01,-2.205129945650696754e-03,-8.221504837274551392e-02,-7.280297577381134033e-02,-4.684823378920555115e-02,-1.336279092356562614e-04,-4.219977185130119324e-02,-9.085355699062347412e-02,-4.441237822175025940e-02,-3.363940492272377014e-02,4.677236825227737427e-02,-3.209507837891578674e-02,-6.399594247341156006e-02,-7.646061480045318604e-03,9.461183845996856689e-02,1.025699749588966370e-01,-2.880371548235416412e-02,9.692917764186859131e-02,-7.399506866931915283e-02,2.099403366446495056e-02,2.649155259132385254e-02,-6.498412694782018661e-03,-8.147903531789779663e-02,-6.353612244129180908e-02,2.487583644688129425e-02,4.979380965232849121e-02,6.244918704032897949e-02,9.219520725309848785e-03,5.376172065734863281e-02
4.000000000000000000e+00,1.153180003166198730e-01,-1.480932440608739853e-02,-3.927543386816978455e-02,-3.252268955111503601e-02,3.330560773611068726e-02,3.302726894617080688e-02,9.052591025829315186e-02,2.834890596568584442e-02,9.078865498304367065e-02,-4.867507144808769226e-02,-4.326738044619560242e-02,1.110921949148178101e-01,-4.305573552846908569e-02,-1.675013825297355652e-02,-1.039235889911651611e-01,-8.677844703197479248e-02,-3.173314407467842102e-02,3.380634635686874390e-02,6.266502290964126587e-02,5.383106321096420288e-02,1.016623824834823608e-01,-3.248900547623634338e-02,-1.350098662078380585e-02,4.747943207621574402e-02,4.437306523323059082e-02,7.175724022090435028e-03,-7.912719994783401489e-02,-5.524013563990592957e-02,5.285330861806869507e-02,-1.032511051744222641e-02,-7.906574010848999023e-02,-7.122229784727096558e-02,-4.690455645322799683e-02,-5.833080410957336426e-02,1.087170019745826721e-01,-1.084231305867433548e-02,8.283600211143493652e-02,1.032501533627510071e-01,4.241991043090820312e-02,6.097606569528579712e-02,-8.008339256048202515e-02,4.564982280135154724e-02,-2.321776933968067169e-03,4.160546138882637024e-02,6.947728991508483887e-02,6.838374584913253784e-02,-9.688325971364974976e-02,7.946241647005081177e-02,-1.620052941143512726e-02,-9.067204594612121582e-02
5.000000000000000000e+00,7.378649711608886719e-02,9.258854389190673828e-02,-1.277312543243169785e-02,1.019847169518470764e-01,-5.181571468710899353e-02,3.959466889500617981e-02,-6.830835714936256409e-03,-4.343197867274284363e-02,8.130363188683986664e-03,2.597368508577346802e-02,-4.077467694878578186e-02,8.803166449069976807e-02,4.484999924898147583e-02,-7.653368264436721802e-02,-5.338127166032791138e-02,-2.009863732382655144e-03,-6.179207935929298401e-02,1.083581671118736267e-01,8.053878322243690491e-03,-2.942319586873054504e-02,-6.754598766565322876e-02,1.246498897671699524e-01,-7.433740049600601196e-02,-2.363004162907600403e-02,2.205129340291023254e-02,3.318216186016798019e-03,-3.858024254441261292e-02,-7.022819481790065765e-04,-3.816353157162666321e-02,-1.031090393662452698e-01,-1.004060283303260803e-01,-4.892363213002681732e-03,2.011430710554122925e-01,-1.607522740960121155e-02,5.489945039153099060e-02,7.239342480897903442e-02,-5.964652821421623230e-02,1.700521409511566162e-01,-7.964927703142166138e-02,3.515535965561866760e-02,5.765579640865325928e-02,-3.509001061320304871e-02,-6.269129365682601929e-02,2.065082266926765442e-02,3.436839580535888672e-02,5.144647508859634399e-02,-2.348740771412849426e-02,-9.139139205217361450e-02,3.029573522508144379e-02,-9.825645014643669128e-03
6.000000000000000000e+00,-1.049056276679039001e-01,9.842872619628906250e-03,9.188338369131088257e-02,-1.184129342436790466e-02,-1.461781561374664307e-03,6.688315421342849731e-02,1.370503660291433334e-02,-2.639700286090373993e-02,9.587606042623519897e-02,5.584347993135452271e-02,-4.756445810198783875e-02,2.407852932810783386e-02,-8.504999428987503052e-02,-4.597128927707672119e-02,1.255824565887451172e-01,-5.653486400842666626e-02,-7.482133805751800537e-03,1.748686097562313080e-02,-7.940320670604705811e-02,2.033422701060771942e-02,-2.320101484656333923e-02,-4.927305877208709717e-02,6.309797614812850952e-02,2.878049015998840332e-02,6.349505856633186340e-03,-6.629990786314010620e-02,-3.299953788518905640e-02,9.879276901483535767e-02,2.683519572019577026e-02,-5.552108585834503174e-02,3.704679757356643677e-02,8.572570234537124634e-02,2.905112877488136292e-02,7.199031859636306763e-02,1.107888072729110718e-01,8.271858096122741699e-02,1.011268645524978638e-01,3.219835087656974792e-02,8.893451094627380371e-02,5.215014889836311340e-02,-1.765633933246135712e-02,-8.317774534225463867e-02,9.549544006586074829e-02,-8.173568546772003174e-02,1.004743054509162903e-01,2.351003885269165039e-02,6.066486705094575882e-03,4.077133163809776306e-02,1.903809793293476105e-02,1.190599426627159119e-01
7.000000000000000000e+00,2.072720080614089966e-01,-6.063533574342727661e-02,-6.792362034320831299e-02,5.580668896436691284e-02,-3.872442245483398438e-02,-5.983462557196617126e-02,3.113174624741077423e-02,9.641073644161224365e-02,5.932312086224555969e-02,7.399068027734756470e-02,-1.019358932971954346e-01,-6.323192268610000610e-02,4.500077292323112488e-02,-1.101214215159416199e-01,3.431729599833488464e-02,-5.818048864603042603e-02,-3.669049963355064392e-02,-7.076054811477661133e-03,7.773850858211517334e-02,4.071019217371940613e-02,-7.501279562711715698e-02,6.605668924748897552e-03,-1.958840526640415192e-03,-1.057682209648191929e-03,6.419222801923751831e-02,1.002073809504508972e-01,-4.557636752724647522e-02,7.205098867416381836e-02,1.237601637840270996e-01,-6.229925528168678284e-02,-1.654795184731483459e-02,7.918393611907958984e-02,5.476628616452217102e-02,-3.135036304593086243e-02,-5.315702036023139954e-02,7.256998121738433838e-02,8.495915681123733521e-02,1.599078476428985596e-01,-1.050141756422817707e-03,-8.102329075336456299e-02,-3.409538790583610535e-02,-1.034394651651382446e-01,4.536584019660949707e-02,-7.287710905075073242e-02,6.187542527914047241e-02,1.784913800656795502e-02,8.382467553019523621e-03,1.020390689373016357e-01,8.988384157419204712e-02,6.986401975154876709e-02
8.000000000000000000e+00,7.561785727739334106e-02,7.503920048475265503e-02,-6.461593322455883026e-03,1.494448538869619370e-02,-9.483029693365097046e-02,-5.371372401714324951e-02,-1.131037175655364990e-01,-3.155930340290069580e-02,-2.260908484458923340e-02,-4.765678569674491882e-02,-3.384719369933009148e-03,3.778417408466339111e-02,4.793679714202880859e-02,-6.910480558872222900e-03,8.250456303358078003e-03,5.801583454012870789e-02,3.341173380613327026e-02,-5.376720428466796875e-02,6.393574923276901245e-02,1.222868449985980988e-02,-2.063172683119773865e-02,1.493546366691589355e-01,8.138607442378997803e-02,-4.138548672199249268e-02,-9.528891742229461670e-02,-2.440800704061985016e-02,-9.054260700941085815e-02,-6.216641142964363098e-02,1.550356745719909668e-01,3.441466391086578369e-02,3.234781324863433838e-02,-2.126492001116275787e-02,6.791040301322937012e-02,-9.419268369674682617e-02,-3.040047921240329742e-02,-2.557327738031744957e-03,1.143437623977661133e-02,1.227858364582061768e-01,3.447378799319267273e-02,-8.123265951871871948e-02,8.798199146986007690e-02,-7.905914634466171265e-02,1.231939252465963364e-02,-1.816681586205959320e-02,-6.861931830644607544e-02,8.103394508361816406e-02,9.899931401014328003e-02,4.849102348089218140e-02,-3.680167347192764282e-02,-5.585263296961784363e-02
9.000000000000000000e+00,1.695685833692550659e-02,5.694881454110145569e-02,8.081187307834625244e-02,5.444132536649703979e-02,-6.238340213894844055e-02,-8.932168595492839813e-03,5.525866523385047913e-02,-4.528076853603124619e-03,8.779382333159446716e-03,-4.498361423611640930e-02,-8.230088651180267334e-02,4.969937354326248169e-02,-3.782308846712112427e-02,-1.652209460735321045e-02,-9.377833455801010132e-02,-9.981082379817962646e-02,-1.123351790010929108e-02,-1.049808319658041000e-02,1.025791019201278687e-01,-1.355986576527357101e-02,7.102396339178085327e-02,5.227990914136171341e-03,-3.310117498040199280e-02,5.412343516945838928e-02,2.979437634348869324e-02,1.250138431787490845e-01,8.323498070240020752e-02,7.214292883872985840e-02,-8.996647596359252930e-02,-5.607021600008010864e-02,1.145642809569835663e-02,-3.947091847658157349e-02,6.581647694110870361e-02,2.601664699614048004e-02,-1.782337576150894165e-02,8.188119530677795410e-02,1.293178834021091461e-02,6.386230140924453735e-02,7.493348419666290283e-02,7.082293741405010223e-03,-2.325865812599658966e-02,9.046139568090438843e-02,-9.425659477710723877e-02,9.526307135820388794e-02,7.579309493303298950e-02,2.089183963835239410e-02,-2.968168351799249649e-03,1.903656683862209320e-02,9.559269994497299194e-02,3.303217887878417969e-02
1.000000000000000000e+01,9.002028405666351318e-02,2.569984272122383118e-02,2.975734695792198181e-02,8.176527917385101318e-02,-2.622628211975097656e-02,9.078367054462432861e-02,-4.472886770963668823e-02,-2.154121361672878265e-02,-1.309038326144218445e-02,-2.922196686267852783e-02,-4.403391480445861816e-02,-8.597450703382492065e-02,1.005224809050559998e-01,-2.480491437017917633e-02,-3.019970282912254333e-02,-8.738946169614791870e-03,-3.044534474611282349e-02,-2.576676383614540100e-02,-2.633758634328842163e-02,1.390935387462377548e-02,-3.381677437573671341e-03,1.143702566623687744e-01,-1.225486304610967636e-02,8.352751284837722778e-02,2.978316275402903557e-03,4.031346365809440613e-02,4.737741127610206604e-02,1.057629287242889404e-01,-9.039973840117454529e-03,4.069818556308746338e-02,-1.625380292534828186e-02,9.436570107936859131e-02,-2.347091771662235260e-02,-7.452058792114257812e-02,4.821812361478805542e-02,7.034333795309066772e-02,-4.149895906448364258e-02,-2.478633262217044830e-02,-9.944202750921249390e-02,9.672067314386367798e-02,-3.046892024576663971e-02,2.801338955760002136e-02,-1.032299026846885681e-01,7.180166989564895630e-02,4.115881025791168213e-02,8.380222320556640625e-02,9.643869102001190186e-02,7.737480103969573975e-02,-5.396531522274017334e-02,1.548538822680711746e-02
1.100000000000000000e+01,8.983504958450794220e-03,-8.161456137895584106e-02,-9.231809526681900024e-02,9.113258123397827148e-02,-6.983336061239242554e-02,-6.394761800765991211e-02,-8.962024003267288208e-02,-1.018792688846588135e-01,3.666406497359275818e-02,-6.954835355281829834e-02,1.202108897268772125e-02,-6.663788110017776489e-02,1.303800940513610840e-02,2.976871468126773834e-02,-4.717676714062690735e-02,5.208595842123031616e-02,7.624185830354690552e-02,3.675407543778419495e-02,7.490207254886627197e-02,-1.209651585668325424e-02,-2.941365726292133331e-02,1.480176746845245361e-01,2.899039164185523987e-02,-3.054328821599483490e-02,2.952880412340164185e-02,-7.114873826503753662e-02,-7.130501419305801392e-02,-9.376335144042968750e-02,-2.602587454020977020e-02,3.501191362738609314e-02,-8.115835487842559814e-02,4.103753715753555298e-02,9.820305556058883667e-02,5.290003493428230286e-02,3.949698805809020996e-02,8.830985985696315765e-03,-3.721705079078674316e-02,8.453239500522613525e-02,-7.560613751411437988e-02,-3.666488826274871826e-02,-1.290106400847434998e-02,3.433537483215332031e-02,-5.792747437953948975e-02,-1.072863023728132248e-02,-2.973164618015289307e-02,-1.638698019087314606e-02,4.781180620193481445e-02,-4.246962815523147583e-02,-2.340004593133926392e-02,3.329027444124221802e-02
1.200000000000000000e+01,4.714238271117210388e-02,-5.279351398348808289e-02,-3.909156098961830139e-02,-6.439466029405593872e-02,6.748909503221511841e-02,4.532611742615699768e-02,-6.388409435749053955e-02,-1.008324995636940002e-01,9.907892346382141113e-02,-6.613794714212417603e-02,-2.009174786508083344e-02,-7.520446181297302246e-02,7.198894023895263672e-02,7.798167318105697632e-02,1.443141102790832520e-01,-4.058639332652091980e-02,-8.504479378461837769e-02,1.730899326503276825e-02,-6.964935362339019775e-02,-4.252082109451293945e-02,-1.002013459801673889e-01,4.995914921164512634e-02,1.744456123560667038e-03,-1.064786128699779510e-02,6.911906599998474121e-02,-1.501500420272350311e-02,-1.613032817840576172e-02,5.981551483273506165e-02,7.875801995396614075e-03,2.896750904619693756e-02,-6.806037575006484985e-02,5.063574016094207764e-02,6.103377416729927063e-02,-4.755346849560737610e-02,7.986620813608169556e-02,-9.583948552608489990e-02,-8.331570029258728027e-02,-1.172345504164695740e-02,-4.647899791598320007e-02,9.186700731515884399e-02,-4.384039342403411865e-02,2.852648613043129444e-04,5.819199234247207642e-02,-7.305246591567993164e-02,3.143063560128211975e-02,-7.831792533397674561e-02,7.411912083625793457e-02,-4.356873780488967896e-02,6.340883672237396240e-02,1.340047568082809448e-01
1.300000000000000000e+01,6.703131645917892456e-02,-1.434485800564289093e-02,6.867251545190811157e-02,-4.268644750118255615e-02,-2.274360507726669312e-02,5.174741148948669434e-02,1.321641802787780762e-01,-1.915594562888145447e-02,-8.102299645543098450e-03,-4.648296907544136047e-02,-5.448454990983009338e-02,2.061744779348373413e-02,-7.782675325870513916e-02,1.309809237718582153e-01,-6.494315713644027710e-02,9.922847151756286621e-02,1.388367265462875366e-02,1.094745378941297531e-02,6.166651472449302673e-02,6.394534558057785034e-02,5.589006002992391586e-03,-8.998317271471023560e-02,-7.008410245180130005e-02,-3.743954002857208252e-02,7.847512513399124146e-02,1.885243505239486694e-02,-6.533490121364593506e-02,-5.646407231688499451e-02,3.386577963829040527e-02,-5.231036990880966187e-02,8.623918890953063965e-02,2.881582453846931458e-02,-5.336321517825126648e-02,6.717918813228607178e-02,6.526862084865570068e-02,7.767323404550552368e-02,5.116465315222740173e-02,9.183548390865325928e-02,-4.284380469471216202e-03,-8.586416020989418030e-03,-6.714320927858352661e-02,-2.069897018373012543e-02,2.193124219775199890e-02,4.926332458853721619e-02,4.433386027812957764e-02,-7.020641351118683815e-04,-7.539451122283935547e-02,1.451792865991592407e-01,2.353591099381446838e-02,-8.227765560150146484e-02
1.400000000000000000e+01,3.179074823856353760e-02,-6.977879256010055542e-02,-9.841464459896087646e-03,-1.450684200972318649e-02,-1.766015589237213135e-02,-1.628890261054039001e-02,3.097990155220031738e-02,-2.691144496202468872e-02,-6.940537691116333008e-02,-6.387071311473846436e-02,4.932196810841560364e-02,1.712782494723796844e-02,-5.946736410260200500e-02,-8.544526249170303345e-02,-8.683901280164718628e-02,8.741082996129989624e-02,-6.972129642963409424e-02,-4.126113653182983398e-02,6.665433198213577271e-02,8.312253654003143311e-02,1.512436196208000183e-02,-3.210403397679328918e-02,-3.498447826132178307e-03,5.911644548177719116e-02,4.135847464203834534e-02,-1.001187562942504883e-01,-7.330228388309478760e-02,1.436094660311937332e-02,2.553988993167877197e-02,6.824950128793716431e-02,-9.462003409862518311e-02,-1.546495128422975540e-02,8.104727417230606079e-02,9.711806476116180420e-02,-6.330032646656036377e-02,-5.311527848243713379e-02,7.897620089352130890e-03,8.550491929054260254e-02,3.739950805902481079e-02,1.604735478758811951e-02,-1.644090935587882996e-02,8.227495849132537842e-02,6.134987249970436096e-02,2.076101861894130707e-02,-6.739503890275955200e-02,-8.356569707393646240e-02,-8.113821968436241150e-03,4.062250256538391113e-02,-3.845033794641494751e-02,-7.826218754053115845e-02
1.500000000000000000e+01,5.149919539690017700e-02,-1.394699513912200928e-02,9.256095439195632935e-02,-2.928884327411651611e-02,4.390008002519607544e-02,-6.582935899496078491e-02,-6.842451542615890503e-02,-3.629051148891448975e-02,4.605054482817649841e-02,-2.199435234069824219e-02,-4.052511975169181824e-02,7.302283495664596558e-02,-8.180439472198486328e-02,-3.959634527564048767e-02,-6.275332719087600708e-02,1.010529324412345886e-02,9.294711053371429443e-02,7.744833081960678101e-02,-7.399667054414749146e-02,-7.313705235719680786e-02,1.102250367403030396e-01,-1.288360450416803360e-02,2.386766485869884491e-02,-7.534968107938766479e-02,-5.567836388945579529e-02,-3.475410491228103638e-02,9.212733060121536255e-02,-8.461648970842361450e-02,2.497216314077377319e-02,4.816484637558460236e-03,4.725785553455352783e-02,3.229989111423492432e-02,4.808518663048744202e-02,-9.616749361157417297e-03,4.580446518957614899e-03,4.595189914107322693e-02,-6.046005059033632278e-03,-4.593965038657188416e-02,1.029940787702798843e-02,1.449275878258049488e-03,6.782378256320953369e-02,1.046929042786359787e-02,4.205051809549331665e-02,-6.447457522153854370e-02,2.908027917146682739e-02,-6.402482092380523682e-02,-6.204025819897651672e-02,2.068689838051795959e-02,1.034072488546371460e-01,2.557135932147502899e-02
1.600000000000000000e+01,1.830106973648071289e-01,9.740501642227172852e-02,-8.776557445526123047e-02,9.352726489305496216e-02,6.152022629976272583e-02,3.130880743265151978e-02,-1.896673627197742462e-02,4.200014844536781311e-02,-1.090331003069877625e-01,-8.510278910398483276e-02,2.042492851614952087e-02,-2.737689204514026642e-02,1.187645569443702698e-01,-3.963557258248329163e-02,-1.765225455164909363e-02,2.927415445446968079e-02,-6.111147627234458923e-02,1.344863232225179672e-02,9.559003263711929321e-02,-1.907255314290523529e-02,-3.869235981255769730e-03,1.177424564957618713e-02,-6.295248121023178101e-02,-7.085789740085601807e-02,4.719750490039587021e-03,-2.091589383780956268e-02,7.122933864593505859e-02,-6.857503205537796021e-02,1.178565919399261475e-01,-4.739428311586380005e-02,-8.129528909921646118e-02,4.420434683561325073e-02,1.072564199566841125e-01,-6.419170647859573364e-02,-1.045163050293922424e-01,-1.790210045874118805e-02,-1.992031373083591461e-02,3.138563409447669983e-02,6.479725986719131470e-02,-2.041801810264587402e-02,6.886814534664154053e-02,-8.881706744432449341e-02,3.290325403213500977e-02,-1.038398072123527527e-01,-1.083282474428415298e-02,-3.706482425332069397e-02,4.454818740487098694e-02,-8.285125344991683960e-02,-6.794384121894836426e-02,-8.959677070379257202e-02
1.700000000000000000e+01,-1.861462742090225220e-02,6.713113933801651001e-02,2.744704298675060272e-02,4.424115270376205444e-02,-2.847100794315338135e-02,-7.109848782420158386e-03,6.527138501405715942e-02,1.577855497598648071e-01,-1.825264655053615570e-02,-5.700322613120079041e-02,-6.787673383951187134e-02,9.314938634634017944e-02,6.270231306552886963e-02,1.080676242709159851e-01,-1.871254481375217438e-02,4.815281555056571960e-02,-3.106400556862354279e-02,-9.281937777996063232e-02,-7.171921432018280029e-02,2.018875442445278168e-02,6.545638293027877808e-02,-1.282033622264862061e-01,1.851308718323707581e-02,-1.095907539129257202e-01,1.417008489370346069e-01,2.061772625893354416e-03,-4.019952565431594849e-02,-4.083767533302307129e-02,4.151733964681625366e-02,-6.718590855598449707e-02,2.079106681048870087e-02,-1.817861013114452362e-02,2.574296109378337860e-02,-8.910666406154632568e-02,1.319363117218017578e-01,1.587034389376640320e-02,1.139593869447708130e-01,2.911794185638427734e-02,2.168244309723377228e-02,-4.544678330421447754e-02,-6.390858441591262817e-02,7.000526785850524902e-02,-8.365125395357608795e-03,-3.339840471744537354e-02,1.167411878705024719e-01,9.106442332267761230e-02,7.298143464140594006e-04,4.592019319534301758e-02,6.465689092874526978e-02,-4.007830098271369934e-02
1.800000000000000000e+01,8.478601276874542236e-02,-7.253465801477432251e-02,-8.680522441864013672e-02,2.361012436449527740e-02,3.501936793327331543e-03,9.174702316522598267e-02,-3.167195012792944908e-03,-1.154540926218032837e-01,7.005500607192516327e-03,-1.103516668081283569e-02,3.648682683706283569e-02,-1.193409636616706848e-01,-6.105408817529678345e-02,-1.034962013363838196e-01,5.471612513065338135e-02,3.033748641610145569e-02,-6.965483725070953369e-02,-6.953467428684234619e-02,-1.020746678113937378e-01,-3.229425847530364990e-02,-2.481394819915294647e-02,-3.464816138148307800e-03,-1.483661215752363205e-02,-8.435350656509399414e-02,-1.208607256412506104e-01,6.906000524759292603e-02,-2.798306941986083984e-02,-2.206527628004550934e-02,2.627738937735557556e-02,6.598625332117080688e-02,1.738791912794113159e-02,1.585395820438861847e-02,3.952896967530250549e-02,-3.079474531114101410e-02,8.777824230492115021e-03,-4.034448042511940002e-02,5.884858220815658569e-02,6.681377440690994263e-02,2.748060971498489380e-03,-1.553998328745365143e-02,-1.986977877095341682e-03,-7.167770713567733765e-02,1.659944839775562286e-02,5.846813693642616272e-02,-9.269373118877410889e-02,4.534485563635826111e-02,-6.980403512716293335e-02,-1.113860830664634705e-01,6.109825521707534790e-02,1.830986700952053070e-02
1.900000000000000000e+01,5.296093225479125977e-02,5.481707048602402210e-04,-8.568507432937622070e-02,1.020865067839622498e-01,1.109527051448822021e-02,6.132395565509796143e-02,4.384810850024223328e-02,-8.869554102420806885e-02,-4.431993514299392700e-02,-9.057828038930892944e-02,-6.588428467512130737e-02,-1.172452718019485474e-01,1.332525759935379028e-01,-4.702227935194969177e-02,-7.429776014760136604e-04,-6.605038791894912720e-02,-6.674003601074218750e-02,3.834128379821777344e-02,8.918097615242004395e-02,-8.089023083448410034e-02,1.442110631614923477e-02,4.687592759728431702e-02,6.519202142953872681e-03,3.287769854068756104e-02,-1.071149036288261414e-01,-7.332121580839157104e-02,9.901990741491317749e-02,9.136019647121429443e-02,1.258194148540496826e-01,8.935270458459854126e-02,2.788891084492206573e-02,2.819339744746685028e-02,1.341520696878433228e-01,-4.646231420338153839e-03,-7.030478119850158691e-02,-5.346712190657854080e-03,2.304462157189846039e-02,2.419185638427734375e-02,-1.337493583559989929e-02,-7.874256931245326996e-03,1.247526183724403381e-01,6.467430293560028076e-02,5.201522260904312134e-02,-9.787124581634998322e-03,-1.553694456815719604e-01,-9.440913796424865723e-02,1.057669427245855331e-02,-9.971372038125991821e-02,-5.887212231755256653e-02,8.963648974895477295e-02
2.000000000000000000e+01,3.764787688851356506e-02,5.296618118882179260e-02,-2.211788296699523926e-02,-6.504347920417785645e-02,4.113433510065078735e-02,1.876592519693076611e-03,-7.755505293607711792e-02,2.754087001085281372e-02,-4.021022096276283264e-02,-4.769737645983695984e-02,2.616373449563980103e-02,-7.784028351306915283e-02,-8.285415917634963989e-02,7.800857722759246826e-02,-3.003408201038837433e-02,-1.470429543405771255e-02,-6.919455528259277344e-02,8.812397718429565430e-02,2.207830175757408142e-02,-6.137960590422153473e-03,8.620923757553100586e-02,5.681133642792701721e-02,-2.956492826342582703e-02,5.551101267337799072e-02,-1.153342798352241516e-02,-6.044243648648262024e-02,1.318506617099046707e-02,7.773961871862411499e-02,-6.601147353649139404e-02,-3.966429457068443298e-02,-6.063899770379066467e-02,-7.961252704262733459e-03,-7.076721638441085815e-02,7.307837903499603271e-02,3.400439023971557617e-02,9.439475834369659424e-02,4.566329717636108398e-02,-4.592680186033248901e-02,1.131948083639144897e-02,4.681866243481636047e-02,-5.472410097718238831e-02,-6.305088102817535400e-02,-5.101833958178758621e-03,5.277928709983825684e-02,5.886531900614500046e-03,8.098580688238143921e-02,-9.678744524717330933e-02,5.651473253965377808e-02,-9.534857422113418579e-02,5.305274203419685364e-02
2.100000000000000000e+01,-1.549652591347694397e-02,1.141504384577274323e-02,8.478087931871414185e-02,-7.999132387340068817e-03,3.555113822221755981e-02,7.635700702667236328e-02,-2.394612133502960205e-02,2.835612744092941284e-02,-1.533715426921844482e-02,-4.657064750790596008e-02,1.541794985532760620e-01,-6.675714626908302307e-03,8.135492913424968719e-03,1.195717155933380127e-01,6.606405973434448242e-02,6.045806407928466797e-02,8.809354156255722046e-02,6.305658817291259766e-02,-1.349910534918308258e-02,-6.326433736830949783e-03,-4.053714126348495483e-02,-9.444522857666015625e-02,1.021225843578577042e-02,7.010129094123840332e-02,1.229821890592575073e-01,1.544539332389831543e-01,-7.757680863142013550e-02,-4.298895224928855896e-02,-5.136426538228988647e-02,-9.439913928508758545e-02,6.676010042428970337e-02,4.626749083399772644e-02,-9.058738499879837036e-02,6.362783163785934448e-02,1.134700551629066467e-01,-5.359029769897460938e-02,1.832099398598074913e-03,-5.689225345849990845e-02,1.179953962564468384e-01,1.073655486106872559e-01,-8.493109792470932007e-02,-2.432497590780258179e-02,-6.734642386436462402e-02,-7.193727791309356689e-02,9.320153295993804932e-02,6.214490905404090881e-02,-3.202510997653007507e-02,2.313573099672794342e-02,7.092414796352386475e-02,2.394650131464004517e-01
2.200000000000000000e+01,7.376920431852340698e-02,8.814921230077743530e-02,-2.141620032489299774e-02,3.142961487174034119e-02,-3.291038423776626587e-02,-8.941641449928283691e-02,1.127741411328315735e-01,3.630065545439720154e-02,-8.660101890563964844e-02,1.179131120443344116e-02,9.809017181396484375e-02,9.232416749000549316e-02,4.695460945367813110e-02,1.038952614180743694e-03,-1.615529693663120270e-02,-6.242329254746437073e-02,-7.286676764488220215e-02,3.762494027614593506e-02,2.300452627241611481e-02,2.350021339952945709e-02,-1.520832069218158722e-02,-1.028869226574897766e-01,9.465224295854568481e-02,6.653017830103635788e-03,-5.746505036950111389e-02,2.707307785749435425e-02,5.730030685663223267e-02,6.319447606801986694e-02,-6.418477743864059448e-02,-1.439762767404317856e-02,7.547440379858016968e-02,-7.855773717164993286e-02,3.009619191288948059e-02,-5.643554404377937317e-02,6.313325464725494385e-02,5.727109685540199280e-02,3.058084473013877869e-02,2.232198417186737061e-02,8.362409472465515137e-02,-6.640420854091644287e-02,7.480255514383316040e-02,8.990414440631866455e-03,4.335638508200645447e-02,-7.343323528766632080e-02,-3.667687997221946716e-02,5.393527820706367493e-02,-4.611819982528686523e-02,1.220679357647895813e-01,7.771430164575576782e-02,-6.754387170076370239e-02
2.300000000000000000e+01,1.060321629047393799e-01,2.200947515666484833e-02,-5.851146951317787170e-02,3.596489876508712769e-02,2.321948111057281494e-02,7.315342128276824951e-02,2.798344753682613373e-02,-5.847423151135444641e-02,-8.202386647462844849e-02,-8.183781802654266357e-02,8.671995997428894043e-02,-9.242294728755950928e-02,-1.837426796555519104e-02,-1.177870035171508789e-01,-3.668865561485290527e-02,3.527726233005523682e-02,6.976343691349029541e-03,-6.434027850627899170e-02,-5.340176867321133614e-04,-2.036942914128303528e-02,1.675468171015381813e-03,-3.940181061625480652e-02,1.449109148234128952e-02,9.989618510007858276e-02,-1.249384954571723938e-01,-8.789227157831192017e-02,-9.895038604736328125e-02,-1.926738023757934570e-02,-2.800508774816989899e-02,8.417767286300659180e-02,-9.717057645320892334e-02,7.664042711257934570e-02,5.418396368622779846e-02,-6.631007790565490723e-02,4.450727626681327820e-02,1.979522779583930969e-02,-5.115091055631637573e-02,-3.257451206445693970e-02,-8.271245658397674561e-02,8.011456578969955444e-02,3.528819605708122253e-02,6.345362961292266846e-02,-3.426336124539375305e-02,-1.791438646614551544e-02,4.162469878792762756e-02,6.887452304363250732e-02,6.184415146708488464e-02,-1.220777332782745361e-01,-6.811168044805526733e-02,5.236395820975303650e-02
2.400000000000000000e+01,-7.675964385271072388e-02,-7.481169700622558594e-02,-3.920667618513107300e-02,7.836339622735977173e-02,-5.389012023806571960e-02,-9.524106234312057495e-02,-1.765036210417747498e-02,-2.234170585870742798e-02,-6.369040906429290771e-02,-2.318310737609863281e-02,9.842881560325622559e-02,-6.707832962274551392e-02,9.199775755405426025e-02,3.517112135887145996e-02,3.988820314407348633e-02,-6.456881295889616013e-03,-1.060088630765676498e-03,-3.648778051137924194e-02,-2.708777040243148804e-02,6.542961299419403076e-02,-2.558929659426212311e-02,3.851505741477012634e-02,-4.564366117119789124e-02,-6.815448403358459473e-02,4.750252515077590942e-02,-4.538745060563087463e-02,-8.758347481489181519e-02,7.806642353534698486e-02,3.351882565766572952e-03,5.712248757481575012e-02,-5.105330422520637512e-02,-9.398792684078216553e-02,-4.286083206534385681e-02,-9.742420911788940430e-02,-7.904290221631526947e-03,-3.722658846527338028e-03,1.769680157303810120e-02,1.358691137284040451e-02,5.627597868442535400e-02,-4.028956964612007141e-02,4.846409335732460022e-02,-1.219151914119720459e-02,-5.031701922416687012e-02,6.872977316379547119e-02,3.013168275356292725e-02,5.385076999664306641e-02,-8.060094714164733887e-02,7.192885968834161758e-03,3.343522548675537109e-02,6.543732434511184692e-02
2.500000000000000000e+01,5.130907520651817322e-02,-8.565302938222885132e-02,-2.298636920750141144e-02,-7.584182918071746826e-02,-8.495636284351348877e-02,3.892482072114944458e-02,5.062931776046752930e-02,3.791630268096923828e-02,6.972319632768630981e-02,-8.588254451751708984e-02,1.179344300180673599e-02,4.385835304856300354e-02,-4.149263724684715271e-02,3.383960202336311340e-02,1.290266364812850952e-01,-1.729295402765274048e-02,1.632639393210411072e-02,-1.235087867826223373e-02,-7.920597493648529053e-02,-8.560079336166381836e-02,1.140394732356071472e-01,-7.089680433273315430e-02,4.278032109141349792e-02,9.835787117481231689e-02,1.151515468955039978e-01,9.916957467794418335e-02,3.558096289634704590e-02,-7.452040910720825195e-02,7.069637626409530640e-02,1.074914075434207916e-02,8.281718939542770386e-02,4.643516987562179565e-02,-3.234459087252616882e-02,-2.507077157497406006e-02,2.568627335131168365e-02,5.130089819431304932e-02,1.168136149644851685e-01,3.279562667012214661e-02,-7.232133299112319946e-02,9.566352702677249908e-03,4.851965978741645813e-02,-1.419702079147100449e-02,7.760502398014068604e-02,5.655484274029731750e-02,6.505783647298812866e-02,8.687606453895568848e-02,-7.534920424222946167e-02,-5.184758920222520828e-03,4.823409393429756165e-02,-2.245462127029895782e-02
2.600000000000000000e+01,1.497697979211807251e-01,4.361490905284881592e-02,-1.014123484492301941e-01,-5.365524068474769592e-02,6.398563832044601440e-02,6.303477287292480469e-02,5.021649599075317383e-02,2.400358207523822784e-03,-9.915895015001296997e-02,6.598419696092605591e-02,-8.510025590658187866e-02,5.348226800560951233e-02,-4.615818150341510773e-03,4.310895502567291260e-02,5.034722015261650085e-02,6.579136103391647339e-02,3.509867936372756958e-02,1.034346148371696472e-01,-7.516557723283767700e-02,9.059577435255050659e-02,-6.168641895055770874e-02,8.091399818658828735e-02,-7.456178963184356689e-02,-7.455404847860336304e-02,6.869529932737350464e-02,2.367216721177101135e-02,-7.986413687467575073e-02,9.337808191776275635e-02,9.691464155912399292e-02,2.075208537280559540e-02,5.512792989611625671e-02,9.746775776147842407e-02,1.518095582723617554e-01,2.785646170377731323e-02,-2.382131665945053101e-02,7.629046589136123657e-02,-2.584164962172508240e-02,1.130379736423492432e-01,-8.157909661531448364e-02,6.507247686386108398e-02,6.850422173738479614e-02,-9.266907349228858948e-03,7.213793694972991943e-02,5.341201648116111755e-02,8.594794571399688721e-02,-3.907423838973045349e-02,-9.240303933620452881e-02,-2.595510892570018768e-02,2.855915203690528870e-02,-8.813271671533584595e-02
2.700000000000000000e+01,-5.540783330798149109e-02,1.682770252227783203e-02,1.898467727005481720e-02,-9.590963833034038544e-03,-6.346777081489562988e-03,6.477088481187820435e-02,4.969387128949165344e-02,1.680125482380390167e-02,-3.773335739970207214e-02,4.426307231187820435e-02,7.795538008213043213e-02,7.468331605195999146e-02,-5.784866958856582642e-02,1.059527844190597534e-01,7.941481471061706543e-02,2.681086957454681396e-02,6.179057061672210693e-02,-1.884461194276809692e-02,7.038516551256179810e-02,-4.744672775268554688e-02,-2.300722151994705200e-02,1.745802350342273712e-02,6.767074763774871826e-02,7.440061122179031372e-02,-2.543403767049312592e-02,-2.666908130049705505e-02,3.522960841655731201e-02,8.584457635879516602e-02,-9.958513081073760986e-02,7.777799665927886963e-02,-5.143306404352188110e-02,-1.085538789629936218e-01,3.081656061112880707e-02,-3.669866593554615974e-03,-9.038071148097515106e-03,5.458393692970275879e-02,6.154199596494436264e-03,4.251813888549804688e-02,4.091123491525650024e-02,7.892876118421554565e-02,8.028644323348999023e-02,-7.597618550062179565e-02,5.925269052386283875e-02,-3.615935146808624268e-02,-3.295133635401725769e-02,-9.523950517177581787e-02,-1.119905849918723106e-03,7.385340332984924316e-02,-7.428647577762603760e-02,9.152909740805625916e-03
2.800000000000000000e+01,3.895518183708190918e-02,-6.145908311009407043e-02,-7.454521209001541138e-02,-2.098965272307395935e-02,4.764857143163681030e-02,-1.040212213993072510e-01,-5.993382260203361511e-02,-9.441557340323925018e-04,6.315629929304122925e-02,-8.762659877538681030e-02,-3.896076604723930359e-02,4.311035200953483582e-02,2.493125759065151215e-02,3.543421626091003418e-02,-1.181131228804588318e-01,2.829216420650482178e-03,9.765526652336120605e-02,-6.125574558973312378e-02,-4.980591684579849243e-02,-1.596525870263576508e-02,8.576229214668273926e-02,1.202007606625556946e-01,8.717416971921920776e-02,-8.540225028991699219e-02,7.704575359821319580e-02,2.414354868233203888e-02,5.217664688825607300e-02,-6.473757326602935791e-02,7.783363573253154755e-03,1.537506002932786942e-02,6.142955645918846130e-02,1.253760606050491333e-01,1.646552234888076782e-01,-6.059135496616363525e-02,-5.875790864229202271e-02,8.872863650321960449e-02,2.024559071287512779e-03,1.397110968828201294e-01,8.645690977573394775e-02,-5.563466250896453857e-02,1.315047144889831543e-01,6.754461675882339478e-02,1.347918249666690826e-02,-5.492781102657318115e-02,-3.288479894399642944e-02,-1.078870426863431931e-02,-2.032415242865681648e-03,8.778795599937438965e-02,9.198031574487686157e-02,-1.325577050447463989e-01
2.900000000000000000e+01,-4.753171652555465698e-02,-3.020339086651802063e-02,3.401800245046615601e-02,9.117897599935531616e-02,-9.630712121725082397e-02,-6.176843121647834778e-02,2.628762274980545044e-02,1.400230336003005505e-03,-6.560642272233963013e-02,-9.224372357130050659e-02,9.628213196992874146e-02,2.025138400495052338e-02,-5.126190558075904846e-02,3.914651274681091309e-02,8.169025182723999023e-03,-1.997917145490646362e-02,-7.451982051134109497e-02,3.618628159165382385e-02,-5.661932379007339478e-02,9.931010007858276367e-02,6.057938560843467712e-02,-5.796724930405616760e-02,-6.078265234827995300e-02,-2.657116204500198364e-02,7.213702052831649780e-02,9.134008735418319702e-02,-7.923563569784164429e-02,1.161191146820783615e-02,-8.811791241168975830e-02,-2.797754667699337006e-02,9.174212068319320679e-02,-7.981514185667037964e-02,4.419353604316711426e-02,-4.106403514742851257e-02,8.318583667278289795e-02,5.922614783048629761e-02,1.441884413361549377e-02,-2.213675342500209808e-02,-6.254280451685190201e-03,-2.951447386294603348e-04,-1.121036261320114136e-01,2.306992001831531525e-02,-4.553688224405050278e-03,8.714519441127777100e-02,1.096489131450653076e-01,8.160895109176635742e-02,-8.974476903676986694e-02,6.517066806554794312e-02,-8.264872431755065918e-02,-2.779776602983474731e-02
3.000000000000000000e+01,-9.600680321455001831e-02,-3.801251575350761414e-02,7.363926619291305542e-02,-1.341422051191329956e-01,5.336178094148635864e-02,-5.993375554680824280e-02,3.908000513911247253e-02,1.302006393671035767e-01,-6.094633042812347412e-02,6.569132208824157715e-03,1.190029755234718323e-01,-2.501659467816352844e-02,-1.271322518587112427e-01,8.270604163408279419e-02,4.683046042919158936e-02,-9.369678795337677002e-02,-5.862746387720108032e-02,-9.740790724754333496e-02,-1.116749178618192673e-02,7.856813818216323853e-02,1.234586164355278015e-01,-8.108586072921752930e-02,-6.002630293369293213e-02,-9.409918636083602905e-02,2.795776538550853729e-02,6.799355149269104004e-02,-7.753906399011611938e-02,-2.040138281881809235e-02,4.020487889647483826e-02,-7.812134921550750732e-02,5.457326024770736694e-02,-1.467738896608352661e-01,5.018971487879753113e-02,2.701172046363353729e-02,8.352646976709365845e-02,6.601107865571975708e-02,-2.052375860512256622e-02,-1.709183491766452789e-02,5.762624740600585938e-02,-6.443092972040176392e-02,-8.880170062184333801e-03,-1.792971417307853699e-02,-1.971517875790596008e-02,-1.536001916974782944e-02,1.805676072835922241e-01,-4.685610532760620117e-02,1.176925096660852432e-02,6.458746269345283508e-03,6.268397718667984009e-02,4.014071077108383179e-03
3.100000000000000000e+01,1.134001463651657104e-01,4.190787672996520996e-02,3.107487782835960388e-02,-7.103663682937622070e-02,-9.633395820856094360e-02,2.146775275468826294e-02,-9.834501147270202637e-02,4.399606212973594666e-02,5.208889022469520569e-02,8.037246763706207275e-03,2.451104111969470978e-02,5.229555442929267883e-02,9.132314473390579224e-02,6.976671516895294189e-02,-1.449804101139307022e-02,-6.468401104211807251e-02,-8.294220268726348877e-02,-7.845797389745712280e-02,8.495765179395675659e-02,-5.290964990854263306e-02,-4.078706353902816772e-02,6.097430828958749771e-03,-2.459788508713245392e-02,6.980586796998977661e-02,9.166605025529861450e-02,-1.079526729881763458e-02,5.489715188741683960e-02,1.646414957940578461e-02,-5.769889429211616516e-02,1.332384999841451645e-02,-8.109995163977146149e-03,9.963643737137317657e-03,8.261126279830932617e-02,9.170956909656524658e-02,4.538603872060775757e-02,6.216051056981086731e-03,8.263522386550903320e-02,9.031108021736145020e-02,1.293823239393532276e-03,-9.948165714740753174e-02,6.952646374702453613e-02,-1.794729178072884679e-04,-5.656211078166961670e-02,-6.807995587587356567e-02,7.527855783700942993e-02,-1.170486491173505783e-02,-6.421332061290740967e-02,4.729698598384857178e-02,-9.405443072319030762e-02,-1.057830378413200378e-01
3.200000000000000000e+01,5.328977480530738831e-02,8.182405680418014526e-02,4.409278277307748795e-03,6.956255435943603516e-02,-2.965535968542098999e-02,-9.174236655235290527e-02,9.311520308256149292e-02,1.122071519494056702e-01,8.734042942523956299e-02,4.020782560110092163e-02,-7.033511996269226074e-02,-4.095645621418952942e-02,-3.299770876765251160e-02,1.361388619989156723e-02,3.881506249308586121e-02,2.206514030694961548e-02,7.779195159673690796e-02,1.880728453397750854e-02,-2.860014140605926514e-02,-2.630399167537689209e-02,-7.039793580770492554e-02,-2.677988074719905853e-02,-1.613933034241199493e-02,5.885369330644607544e-02,9.889393299818038940e-02,5.723716691136360168e-02,-2.504960261285305023e-02,-7.404952496290206909e-02,2.416518889367580414e-02,3.598885610699653625e-02,-4.783575236797332764e-02,-7.131060957908630371e-02,3.626172244548797607e-02,-6.982412189245223999e-02,-1.891900203190743923e-03,-3.097864426672458649e-02,6.330866366624832153e-02,-4.830966144800186157e-02,7.261445373296737671e-02,-8.872703462839126587e-02,2.698802947998046875e-02,5.103995651006698608e-02,6.755266338586807251e-02,-5.728004500269889832e-02,6.282231956720352173e-02,1.677376963198184967e-02,2.691878192126750946e-02,-2.403068356215953827e-02,4.303427878767251968e-03,-1.705794036388397217e-02
3.300000000000000000e+01,-3.999961540102958679e-02,-7.440312206745147705e-02,-7.336938381195068359e-02,-6.623574346303939819e-02,9.379073232412338257e-02,5.602746736258268356e-03,-9.547528624534606934e-02,1.734622754156589508e-02,-5.063556134700775146e-03,5.119107663631439209e-03,-8.799319714307785034e-02,4.440446570515632629e-02,-6.340294331312179565e-02,3.625620529055595398e-02,-6.106211617588996887e-02,8.572933077812194824e-02,4.981372505426406860e-02,7.183916866779327393e-02,-4.430872574448585510e-02,1.962909847497940063e-02,-2.514473907649517059e-02,6.924667209386825562e-02,-1.760926097631454468e-02,7.460435479879379272e-02,1.478585507720708847e-02,5.530453473329544067e-02,-8.487641811370849609e-02,7.896666973829269409e-02,-6.924305856227874756e-02,6.355184316635131836e-02,5.847895890474319458e-02,7.383927586488425732e-04,-6.449156999588012695e-02,6.411754339933395386e-02,7.953798770904541016e-02,1.603435352444648743e-02,-6.333159655332565308e-02,7.396697252988815308e-02,-4.822363704442977905e-02,-5.379214882850646973e-02,-7.114976178854703903e-03,1.822699047625064850e-02,7.185814529657363892e-02,-7.486816029995679855e-03,-1.053330674767494202e-01,7.640672475099563599e-02,5.360882729291915894e-02,8.722994476556777954e-02,-4.474384244531393051e-03,9.815270453691482544e-02
3.400000000000000000e+01,-6.634867191314697266e-02,-1.718746125698089600e-02,5.108203366398811340e-02,8.178728818893432617e-02,5.628115683794021606e-02,-4.019225016236305237e-02,3.210046561434864998e-03,7.997211813926696777e-02,-6.537163257598876953e-02,4.417730122804641724e-02,-3.053675964474678040e-02,-8.355793356895446777e-02,6.360550224781036377e-02,-3.718840330839157104e-02,6.615389883518218994e-02,8.649067021906375885e-03,8.891902118921279907e-02,1.597902178764343262e-02,-7.402119226753711700e-03,-1.013647532090544701e-03,-3.549306467175483704e-02,1.049730926752090454e-02,4.439534991979598999e-02,4.614966921508312225e-03,-7.351338863372802734e-02,5.329292640089988708e-02,-7.270194590091705322e-02,2.795108035206794739e-02,7.552143186330795288e-02,6.540926545858383179e-02,-1.264707744121551514e-02,-5.786852538585662842e-02,-3.584373742341995239e-02,-9.369617700576782227e-02,1.999579742550849915e-02,-8.963815122842788696e-02,-7.391767948865890503e-02,3.786538913846015930e-02,9.307361394166946411e-02,5.661177262663841248e-02,8.422930538654327393e-02,6.785850971937179565e-02,1.356715988367795944e-02,-1.264536753296852112e-02,-5.355553701519966125e-02,9.254214912652969360e-02,7.096275221556425095e-03,-1.036054381984286010e-04,-8.487800508737564087e-02,-6.152408197522163391e-02
3.500000000000000000e+01,-3.331142663955688477e-02,2.576887048780918121e-02,8.444634824991226196e-02,9.747180342674255371e-02,2.732872962951660156e-04,-3.387041017413139343e-02,7.805668562650680542e-02,-7.981479912996292114e-02,-5.801869556307792664e-02,5.292279273271560669e-02,6.108006834983825684e-02,7.748062163591384888e-02,-6.582956016063690186e-02,8.548989146947860718e-02,-8.736199140548706055e-02,-8.332046121358871460e-02,-7.513951510190963745e-02,-8.298451453447341919e-02,5.222848802804946899e-02,7.541684061288833618e-02,-9.896398987621068954e-04,4.965462908148765564e-02,1.008080318570137024e-01,-7.141551375389099121e-02,-9.714274853467941284e-02,-9.431866556406021118e-02,-7.578444480895996094e-02,-8.661927282810211182e-02,-9.476419654674828053e-04,-9.955859184265136719e-02,8.790698647499084473e-02,6.509210169315338135e-02,-4.103890061378479004e-02,-2.081765979528427124e-02,-8.411853760480880737e-02,6.086688488721847534e-03,-3.182600811123847961e-02,-1.618303125724196434e-03,6.919225305318832397e-02,2.633968926966190338e-02,-4.079612717032432556e-02,-7.060399651527404785e-02,-5.420785024762153625e-02,7.570552080869674683e-02,8.226984180510044098e-03,-7.411570101976394653e-02,-5.092970281839370728e-02,-9.330215305089950562e-02,-9.862980246543884277e-02,-4.032903909683227539e-02
3.600000000000000000e+01,9.718162566423416138e-02,-2.901314571499824524e-02,-3.800511360168457031e-02,7.705841679126024246e-03,5.373572558164596558e-02,1.504271570593118668e-02,-3.431988880038261414e-03,1.433770358562469482e-01,-2.468928880989551544e-02,5.813098698854446411e-02,-9.690468013286590576e-02,-5.263376981019973755e-02,-9.502131491899490356e-02,8.852205425500869751e-02,4.829150438308715820e-02,-7.238447200506925583e-03,9.902389347553253174e-02,1.061198189854621887e-01,4.006453230977058411e-02,-7.391258329153060913e-02,-2.902474952861666679e-03,-1.231830939650535583e-01,-3.899525105953216553e-02,-3.691861033439636230e-02,-2.272682823240756989e-02,-4.633507877588272095e-02,-5.201844498515129089e-03,-6.727799028158187866e-02,-1.012640148401260376e-01,-3.907585144042968750e-02,1.190047431737184525e-02,-9.659004956483840942e-02,8.694707602262496948e-02,-2.452878840267658234e-02,9.767144173383712769e-02,-6.062767002731561661e-03,9.024478495121002197e-02,1.328066885471343994e-01,1.073089838027954102e-01,-3.547430783510208130e-02,3.798548877239227295e-02,-3.373354300856590271e-02,-8.658473193645477295e-02,-1.864025183022022247e-02,-3.274329006671905518e-02,8.092818409204483032e-02,9.733141213655471802e-02,1.340494453907012939e-01,7.266183197498321533e-02,-1.069033369421958923e-01
3.700000000000000000e+01,-4.281270503997802734e-02,-1.493629626929759979e-02,-3.131052479147911072e-02,3.358864411711692810e-02,4.597678035497665405e-02,-3.655572980642318726e-02,1.210800721310079098e-03,3.251151368021965027e-02,5.810917913913726807e-02,-3.536194562911987305e-02,8.219162374734878540e-02,3.188353776931762695e-02,7.528125494718551636e-02,-6.814150512218475342e-02,6.595525145530700684e-02,-6.866301596164703369e-02,2.756943553686141968e-02,1.962252194061875343e-03,5.427489429712295532e-02,-9.646245092153549194e-02,-1.119515160098671913e-03,8.182410150766372681e-02,9.211321920156478882e-02,-5.783552303910255432e-02,-9.990332275629043579e-02,-8.563817292451858521e-02,2.505251020193099976e-02,-3.475953266024589539e-02,3.547800332307815552e-02,4.956741631031036377e-02,-6.505277752876281738e-02,-7.657047361135482788e-02,-5.265524610877037048e-02,-9.479843080043792725e-03,7.125325500965118408e-02,-8.490439504384994507e-02,-8.171782642602920532e-02,4.139054939150810242e-02,-9.507897496223449707e-02,8.068732172250747681e-02,-3.637883439660072327e-02,-7.076179143041372299e-03,6.334500014781951904e-02,5.588522180914878845e-02,-4.051791504025459290e-02,5.577554553747177124e-02,-4.368916898965835571e-02,5.385225638747215271e-02,-3.833927959203720093e-02,8.849746733903884888e-02
3.800000000000000000e+01,-2.032332681119441986e-02,1.132778450846672058e-01,3.158018365502357483e-02,3.591166436672210693e-02,-7.648829370737075806e-02,8.433901518583297729e-02,2.811324223875999451e-02,-1.307615935802459717e-01,5.505066737532615662e-02,9.200372546911239624e-02,3.458892926573753357e-03,-1.056628376245498657e-01,1.188355162739753723e-01,-1.108237951993942261e-01,-6.009911373257637024e-02,-4.742922261357307434e-02,-9.875903278589248657e-02,-3.722516447305679321e-02,-6.633100658655166626e-02,-4.157366976141929626e-02,-4.998230189085006714e-02,1.255628168582916260e-01,-6.468947231769561768e-02,-2.360024489462375641e-02,-1.332535594701766968e-01,-1.524068880826234818e-02,-9.506105631589889526e-02,1.123682223260402679e-02,1.682529747486114502e-01,2.480526268482208252e-02,-2.177595160901546478e-03,2.488753013312816620e-02,6.250520795583724976e-02,8.515347540378570557e-02,-1.083520986139774323e-02,2.637030556797981262e-02,-1.063687577843666077e-01,-1.498220022767782211e-02,-4.328022897243499756e-02,8.625777810811996460e-02,1.053592190146446228e-01,8.146667852997779846e-03,6.142821907997131348e-02,-8.342708647251129150e-02,-1.516086459159851074e-01,-8.260381408035755157e-03,-3.864381462335586548e-02,-1.393957436084747314e-01,1.800012029707431793e-02,1.873659156262874603e-02
3.900000000000000000e+01,-2.357822097837924957e-02,9.600030630826950073e-02,-2.192674390971660614e-02,-5.567720532417297363e-02,-5.757234245538711548e-02,-3.034034557640552521e-02,5.923947319388389587e-02,-1.799301803112030029e-02,-1.733622699975967407e-02,9.668204933404922485e-02,4.785395786166191101e-02,8.745019137859344482e-02,-9.433588385581970215e-02,9.811915457248687744e-02,-3.732266277074813843e-02,6.406255066394805908e-02,4.076265171170234680e-02,-1.946269720792770386e-02,3.338320925831794739e-02,6.505285948514938354e-02,-2.526242844760417938e-02,3.765339776873588562e-02,5.141182243824005127e-02,2.183760888874530792e-02,-2.653842419385910034e-02,7.021278887987136841e-02,-3.999035060405731201e-02,7.002496719360351562e-02,-9.957684203982353210e-03,2.762537915259599686e-04,-1.515832170844078064e-02,-6.271173804998397827e-02,-2.785887010395526886e-02,-8.962666988372802734e-02,-1.002321951091289520e-02,1.184294968843460083e-01,8.212090283632278442e-02,5.001361295580863953e-02,-3.469909355044364929e-02,-3.025137074291706085e-02,5.273122712969779968e-02,-6.109863147139549255e-02,4.592578113079071045e-02,3.306892514228820801e-02,9.727969765663146973e-02,-2.019121870398521423e-02,4.041755944490432739e-02,9.796150028705596924e-02,7.438450306653976440e-02,1.175056844949722290e-01
4.000000000000000000e+01,1.524074822664260864e-01,-2.741895429790019989e-02,8.880152553319931030e-02,-5.994649231433868408e-02,2.544403821229934692e-02,-6.868012994527816772e-02,6.773830950260162354e-02,-7.842502743005752563e-02,-1.025476530194282532e-01,-2.084867656230926514e-02,5.227274447679519653e-02,1.590558141469955444e-02,6.595160067081451416e-02,-3.687967360019683838e-02,8.788406848907470703e-03,-9.493932127952575684e-02,-9.221041575074195862e-03,7.489953935146331787e-02,7.501415908336639404e-02,-5.235729739069938660e-03,6.771363317966461182e-02,9.873898699879646301e-03,-2.955153957009315491e-02,-9.629581868648529053e-02,1.293235737830400467e-02,-4.437604174017906189e-02,-8.300204575061798096e-02,1.946623064577579498e-02,-6.952014565467834473e-02,-5.549448076635599136e-03,7.326537370681762695e-02,9.531952440738677979e-02,5.804365873336791992e-02,-9.972070157527923584e-02,6.829763948917388916e-02,-6.170573458075523376e-02,4.247334226965904236e-02,3.645642846822738647e-02,3.283677995204925537e-02,8.671090751886367798e-02,9.652276337146759033e-02,-1.140489010140299797e-03,-8.731413632631301880e-02,7.116908580064773560e-02,-5.359861254692077637e-02,4.883333109319210052e-03,2.791245654225349426e-02,-6.955221295356750488e-02,-5.025340616703033447e-02,9.193215519189834595e-02
4.100000000000000000e+01,1.723476350307464600e-01,3.663416951894760132e-02,-1.816789805889129639e-02,1.409179996699094772e-02,-7.703189551830291748e-02,-3.882615640759468079e-02,-1.469261571764945984e-02,3.636299073696136475e-02,6.664893031120300293e-02,1.968719810247421265e-02,-1.014240458607673645e-02,-7.101464271545410156e-02,4.478912428021430969e-02,2.453476190567016602e-02,-8.795150206424295902e-04,3.836524859070777893e-02,-5.035713687539100647e-02,1.583635434508323669e-02,-5.977519787847995758e-03,-4.543041810393333435e-02,-9.319420903921127319e-02,5.892103165388107300e-02,-9.425505995750427246e-02,7.729847729206085205e-02,-6.823018938302993774e-02,7.174023240804672241e-02,-8.055399358272552490e-02,6.136564910411834717e-02,1.587781496345996857e-02,-5.928466469049453735e-02,4.714851081371307373e-02,-3.966781497001647949e-02,-2.667016349732875824e-02,5.420923978090286255e-02,-2.987952670082449913e-03,-6.320693343877792358e-02,4.994706064462661743e-02,8.613169938325881958e-02,-5.338182300329208374e-02,3.536578267812728882e-02,9.770338237285614014e-02,-5.168449133634567261e-02,3.418657183647155762e-02,7.750371843576431274e-02,-5.450531467795372009e-02,-4.022826999425888062e-02,8.389167487621307373e-02,-1.563918404281139374e-02,-4.923324286937713623e-02,-4.041616618633270264e-02
4.200000000000000000e+01,7.553142309188842773e-02,1.663584262132644653e-02,5.541477818042039871e-03,5.508143454790115356e-02,3.679610788822174072e-03,9.609811007976531982e-02,9.096898883581161499e-02,4.886830225586891174e-02,8.362048864364624023e-02,1.592133194208145142e-02,-5.849434062838554382e-02,5.210055038332939148e-02,-6.700170040130615234e-02,5.436588078737258911e-02,4.721632599830627441e-02,1.022730022668838501e-02,2.125240303575992584e-02,-2.831704728305339813e-02,-7.112645357847213745e-02,-8.295726962387561798e-03,-5.633620172739028931e-02,-1.424854993820190430e-02,5.158155225217342377e-03,5.980941653251647949e-02,-3.078768402338027954e-02,2.937263622879981995e-02,-8.085870742797851562e-02,-5.014393478631973267e-02,-1.213699392974376678e-02,5.352582037448883057e-02,-5.361833795905113220e-02,-2.356998249888420105e-02,-3.040702780708670616e-03,3.818020969629287720e-02,-9.136739373207092285e-02,-6.023669987916946411e-02,5.574121326208114624e-02,1.565634505823254585e-03,2.727351710200309753e-02,5.716656520962715149e-02,2.506780251860618591e-02,5.973603948950767517e-02,-1.454416196793317795e-02,4.024104401469230652e-02,-8.006951957941055298e-02,9.795190766453742981e-03,4.213340952992439270e-02,9.036708623170852661e-02,-7.387115061283111572e-02,8.435793966054916382e-02
4.300000000000000000e+01,-1.319000571966171265e-01,-9.961141645908355713e-02,-2.405497245490550995e-02,-1.008559837937355042e-01,-6.282342970371246338e-02,9.105362743139266968e-02,5.500157549977302551e-02,3.300771862268447876e-02,-5.625915527343750000e-02,-3.137733787298202515e-02,1.049078851938247681e-01,-6.266498565673828125e-02,-1.913477294147014618e-02,3.004253096878528595e-02,4.365381598472595215e-02,-1.002993807196617126e-01,8.887831121683120728e-02,-1.010156981647014618e-02,-8.548974245786666870e-02,1.038811653852462769e-01,-5.360623355954885483e-03,-1.225486025214195251e-01,4.673205781728029251e-03,7.291707396507263184e-02,1.905347965657711029e-02,9.252013266086578369e-02,-8.950192481279373169e-02,7.753106951713562012e-02,-1.008142828941345215e-01,-1.074876114726066589e-01,7.749392092227935791e-02,5.562327802181243896e-02,-1.580544188618659973e-02,1.861591637134552002e-02,8.047986775636672974e-02,-1.166773885488510132e-01,1.022202894091606140e-01,1.899295113980770111e-02,-7.395591586828231812e-02,-1.608284190297126770e-02,-1.077807322144508362e-01,8.134143054485321045e-02,6.605923175811767578e-02,-6.392906885594129562e-03,8.844873309135437012e-02,5.562222376465797424e-02,-1.975057646632194519e-02,-1.276089623570442200e-02,-8.910310268402099609e-02,1.042110249400138855e-01
4.400000000000000000e+01,1.989667713642120361e-01,-8.301931619644165039e-02,9.908168762922286987e-02,1.725605502724647522e-02,-7.906650006771087646e-02,-1.354051101952791214e-02,2.437104471027851105e-02,1.008143723011016846e-01,-3.017997369170188904e-02,5.840502679347991943e-03,-7.086842507123947144e-02,1.049157232046127319e-01,7.933776825666427612e-02,9.477209299802780151e-02,5.349353700876235962e-02,8.466681838035583496e-02,-2.503709122538566589e-02,-3.307121992111206055e-02,9.241087734699249268e-02,5.673822760581970215e-02,-1.477483473718166351e-02,2.286206372082233429e-02,3.383981296792626381e-03,-2.127627283334732056e-02,9.016693383455276489e-02,-6.402768939733505249e-02,-2.737735025584697723e-02,-9.622433036565780640e-02,1.758841425180435181e-02,3.524061664938926697e-02,-4.195920377969741821e-02,-5.350642278790473938e-02,7.278176397085189819e-02,-6.885590404272079468e-02,1.721320301294326782e-02,-2.374299429357051849e-02,2.001714147627353668e-02,9.451281279325485229e-02,-6.909770518541336060e-02,-6.702991575002670288e-02,7.338086515665054321e-02,4.050595313310623169e-02,-2.969561330974102020e-02,6.155715510249137878e-02,6.983839720487594604e-02,3.441952913999557495e-02,3.594231675378978252e-04,7.837759703397750854e-02,6.856475956737995148e-03,-9.419101476669311523e-02
4.500000000000000000e+01,2.110637724399566650e-03,-1.017872393131256104e-01,7.615932822227478027e-02,2.555712871253490448e-02,-1.287546008825302124e-02,8.713085204362869263e-02,-1.959832012653350830e-02,6.649640202522277832e-02,-2.272788807749748230e-02,2.748877555131912231e-02,8.981515467166900635e-02,-1.822329685091972351e-02,1.536773703992366791e-02,1.617315709590911865e-01,2.052015513181686401e-01,5.975048989057540894e-02,3.794829361140727997e-03,-6.456932425498962402e-02,-2.970851399004459381e-02,-4.932243376970291138e-02,5.232900753617286682e-02,-1.373420059680938721e-01,-2.575786970555782318e-02,-4.847922921180725098e-02,1.830147765576839447e-02,6.607148051261901855e-02,-3.759483993053436279e-02,2.933792397379875183e-02,-6.247196346521377563e-02,7.601465284824371338e-02,-4.552999138832092285e-02,-7.865917682647705078e-02,8.196884766221046448e-03,-5.827683210372924805e-02,1.915961802005767822e-01,-8.399526029825210571e-02,2.867659181356430054e-02,-5.738355219364166260e-02,8.061551302671432495e-02,-4.221608489751815796e-02,-1.531980931758880615e-01,-4.899883270263671875e-02,-7.264865934848785400e-02,-8.367089182138442993e-02,6.580513715744018555e-02,9.701005765236914158e-04,-1.007239706814289093e-02,1.354065090417861938e-01,8.777977526187896729e-02,2.008543312549591064e-01
4.600000000000000000e+01,1.980146914720535278e-01,3.657307475805282593e-02,3.990493714809417725e-03,5.227860435843467712e-02,3.323341161012649536e-02,-1.813807897269725800e-02,1.228593941777944565e-02,-8.431217074394226074e-02,-1.616644673049449921e-02,9.146741777658462524e-02,-1.137396097183227539e-01,-2.365163527429103851e-02,1.192606911063194275e-01,-9.836122393608093262e-02,-1.040366757661104202e-02,-8.915349841117858887e-03,2.277930639684200287e-02,1.151312068104743958e-01,3.007718361914157867e-02,-3.569087758660316467e-02,-5.481829494237899780e-02,1.801420003175735474e-01,-5.196241289377212524e-02,-6.018703058362007141e-02,-1.130303516983985901e-01,-4.135300219058990479e-02,6.847252696752548218e-02,6.893976777791976929e-02,1.681420505046844482e-01,-9.507395327091217041e-03,-6.066432222723960876e-03,7.417652755975723267e-02,1.602151244878768921e-01,-3.523016348481178284e-02,-1.532688438892364502e-01,7.368803769350051880e-02,-9.318315237760543823e-02,1.122864037752151489e-01,3.532032482326030731e-03,-1.329015940427780151e-03,1.779301315546035767e-01,-2.308816649019718170e-02,-4.691183194518089294e-02,-2.242172323167324066e-02,-6.522336043417453766e-03,8.966771513223648071e-02,4.394419118762016296e-02,1.576013304293155670e-02,-6.361083686351776123e-02,-1.082477644085884094e-01
4.700000000000000000e+01,3.991832584142684937e-02,-3.121104463934898376e-02,7.407924532890319824e-02,5.065635591745376587e-02,-4.906126484274864197e-02,-1.060684677213430405e-02,9.551484137773513794e-03,6.884563714265823364e-03,-9.941755235195159912e-02,-7.629499584436416626e-02,-9.200141578912734985e-02,-6.649422645568847656e-02,9.658868610858917236e-02,3.257678076624870300e-02,2.784827910363674164e-02,-7.041743025183677673e-03,9.311360865831375122e-02,7.629273086786270142e-02,8.033163845539093018e-03,4.671434313058853149e-02,9.648651629686355591e-02,2.189227938652038574e-02,-5.195000395178794861e-02,8.481901884078979492e-02,-3.644528239965438843e-02,6.051931530237197876e-02,-9.271170198917388916e-02,-3.967006877064704895e-02,1.036670655012130737e-01,-2.546555362641811371e-02,-1.278685312718153000e-02,7.940471917390823364e-02,-1.670076325535774231e-02,-1.510643959045410156e-02,-1.377168018370866776e-02,-8.120343089103698730e-02,-6.476891040802001953e-02,9.273087978363037109e-02,5.674295127391815186e-02,2.999442256987094879e-02,8.450900204479694366e-03,4.555881768465042114e-02,-2.122747153043746948e-02,1.836393028497695923e-02,1.052735280245542526e-02,-1.753739267587661743e-02,-7.048572599887847900e-02,-2.796966023743152618e-02,5.467056855559349060e-02,9.337781369686126709e-02
4.800000000000000000e+01,-1.179191283881664276e-02,-7.181243598461151123e-02,7.089559920132160187e-03,7.763186097145080566e-02,3.649974614381790161e-02,4.278785362839698792e-02,-7.876695692539215088e-02,-4.587099701166152954e-02,6.450792402029037476e-02,-4.513124376535415649e-02,-6.175434216856956482e-03,-5.153805017471313477e-02,-1.770327240228652954e-02,2.653601765632629395e-02,1.041136309504508972e-01,5.071115493774414062e-02,-7.365158200263977051e-02,4.796563461422920227e-02,9.008275717496871948e-02,9.516930580139160156e-02,-2.095940522849559784e-02,6.523147225379943848e-03,7.514896988868713379e-02,9.977570921182632446e-02,3.670699521899223328e-02,3.638111799955368042e-02,2.221982181072235107e-02,-5.836580693721771240e-02,-9.009168297052383423e-02,-7.602730300277471542e-03,1.105950772762298584e-02,-4.721883684396743774e-02,-4.895366262644529343e-03,4.848887771368026733e-02,-5.724638327956199646e-02,4.172947630286216736e-02,-2.207867242395877838e-02,-4.593751952052116394e-02,-1.004009507596492767e-03,-4.208746552467346191e-02,-1.299401978030800819e-03,-2.786171436309814453e-02,-2.243079990148544312e-02,4.154665023088455200e-02,5.219431594014167786e-02,5.935203656554222107e-02,-6.833778321743011475e-02,1.019277796149253845e-02,-9.069317579269409180e-02,7.424212247133255005e-02
4.900000000000000000e+01,-1.051975041627883911e-02,-7.069523632526397705e-02,6.531412154436111450e-02,6.760103255510330200e-02,6.555934995412826538e-02,-3.359277267009019852e-03,4.931669309735298157e-02,-1.094695832580327988e-02,-2.173568867146968842e-02,-7.744337618350982666e-02,1.293284296989440918e-01,9.472921490669250488e-02,-5.314544960856437683e-02,1.424278616905212402e-01,2.427971363067626953e-01,7.017082720994949341e-02,-2.651674300432205200e-02,9.660729020833969116e-02,-5.619636178016662598e-02,2.322180382907390594e-02,-3.534354618750512600e-04,-1.201382949948310852e-01,6.629990041255950928e-02,-1.578103983774781227e-03,-3.028788790106773376e-02,6.344121694564819336e-02,6.528615951538085938e-02,-6.551587022840976715e-03,4.976582899689674377e-02,7.168729603290557861e-02,-9.918203949928283691e-02,3.748166188597679138e-02,-6.357039511203765869e-02,-5.140648037195205688e-02,6.223763898015022278e-02,6.317831575870513916e-02,-7.732281088829040527e-02,1.281088311225175858e-02,2.910368889570236206e-02,1.025038808584213257e-01,-1.275931000709533691e-01,-6.893197540193796158e-03,-6.284941732883453369e-02,4.448673874139785767e-02,4.497563466429710388e-02,-3.727598860859870911e-02,-2.793812938034534454e-02,1.069963052868843079e-01,-9.153401106595993042e-02,1.399791538715362549e-01
5.000000000000000000e+01,-1.004822775721549988e-01,7.187127321958541870e-02,4.852189123630523682e-02,-6.946758180856704712e-02,-2.511340379714965820e-02,2.316286973655223846e-02,4.502740874886512756e-02,5.152448639273643494e-02,9.598771110177040100e-03,-3.415813297033309937e-02,8.047524839639663696e-02,6.173485890030860901e-02,7.456469535827636719e-02,-2.183602936565876007e-02,-6.346363574266433716e-02,9.742467105388641357e-02,-3.910372406244277954e-02,-9.893067181110382080e-02,-7.777647674083709717e-02,9.373011440038681030e-02,-6.317637395113706589e-03,6.338876485824584961e-02,-1.936681009829044342e-02,3.306660801172256470e-02,2.685718797147274017e-02,7.672965526580810547e-02,-7.643114775419235229e-02,-7.310620695352554321e-02,1.496103871613740921e-02,-7.505457103252410889e-02,-5.608772113919258118e-02,1.093441154807806015e-02,5.556747689843177795e-02,3.956161066889762878e-02,-2.517244964838027954e-02,1.419928576797246933e-02,7.624370604753494263e-02,-1.029154434800148010e-01,4.182958230376243591e-02,-2.898691035807132721e-02,7.630489766597747803e-02,-2.685396932065486908e-03,8.104688674211502075e-02,5.799787119030952454e-02,9.438643604516983032e-02,-2.640103176236152649e-02,6.745771318674087524e-02,-6.487299501895904541e-02,-2.359207905828952789e-02,2.773746661841869354e-02
5.100000000000000000e+01,1.088793016970157623e-02,-9.781126677989959717e-02,4.859945178031921387e-02,7.181228697299957275e-02,3.356251865625381470e-02,-1.938458159565925598e-02,6.229398399591445923e-02,-1.319392700679600239e-03,8.980575203895568848e-02,-1.529502868652343750e-02,-4.556040838360786438e-02,1.938567380420863628e-03,-4.837197810411453247e-02,3.870471194386482239e-02,-2.496070228517055511e-02,-3.083370439708232880e-02,-1.385321840643882751e-02,-1.627791859209537506e-02,4.470084235072135925e-02,-4.390094056725502014e-02,-4.120225831866264343e-02,-3.708475455641746521e-02,7.629616558551788330e-02,1.503543462604284286e-03,6.835193186998367310e-02,-6.194857135415077209e-02,7.197804749011993408e-02,-1.530398847535252571e-03,2.615622431039810181e-02,2.043410018086433411e-02,2.793712913990020752e-02,1.976390555500984192e-02,4.344362020492553711e-02,-4.007903486490249634e-02,1.385574340820312500e-01,4.974554758518934250e-03,3.091351315379142761e-02,5.493224412202835083e-02,2.889516018331050873e-02,4.641454666852951050e-03,7.480347156524658203e-02,-2.569575794041156769e-02,-4.529710114002227783e-02,-4.352910816669464111e-02,6.181854382157325745e-02,1.771626621484756470e-02,-6.396890431642532349e-02,-7.063014898449182510e-03,-4.056991264224052429e-02,3.615882992744445801e-02
5.200000000000000000e+01,1.235592886805534363e-01,-1.361791137605905533e-02,-9.783452376723289490e-03,5.771290883421897888e-02,-1.341621577739715576e-02,-3.441451862454414368e-02,-4.980377107858657837e-02,-3.820162639021873474e-02,-1.051965355873107910e-01,6.238924711942672729e-02,-3.873911127448081970e-02,2.541667409241199493e-02,8.828196674585342407e-02,-7.844125479459762573e-02,-7.333820313215255737e-02,7.463941350579261780e-03,-3.659842535853385925e-02,-1.149252895265817642e-02,-1.300816237926483154e-02,1.625672355294227600e-02,2.228853851556777954e-02,1.685864292085170746e-02,-2.835655957460403442e-02,6.328069418668746948e-02,1.204243600368499756e-01,6.330986320972442627e-02,-9.754740446805953979e-02,-2.182511053979396820e-02,-8.934804797172546387e-02,-5.604055244475603104e-03,-2.501763217151165009e-02,-7.456098496913909912e-02,1.537139564752578735e-01,9.536010771989822388e-02,3.370915353298187256e-02,3.623868897557258606e-02,-8.044202812016010284e-03,1.090064272284507751e-01,3.836909309029579163e-02,3.055052459239959717e-02,-8.546228706836700439e-02,-9.905570000410079956e-02,-5.072135105729103088e-02,-3.759015351533889771e-02,1.305130720138549805e-01,-5.375224724411964417e-02,-8.206287771463394165e-02,1.045113801956176758e-01,5.283396691083908081e-02,5.303269997239112854e-02
5.300000000000000000e+01,9.644410014152526855e-02,6.513138115406036377e-02,-7.577970623970031738e-02,9.445365518331527710e-02,5.888398736715316772e-02,-1.693198923021554947e-03,1.348325423896312714e-02,-1.554180867969989777e-02,2.958748256787657738e-03,-7.810413837432861328e-03,-7.827182859182357788e-02,-2.588752424344420433e-03,2.600578218698501587e-02,-3.225959464907646179e-02,7.186998426914215088e-02,-5.448083952069282532e-02,-6.915343552827835083e-02,-8.549737930297851562e-02,6.224581226706504822e-02,-5.889862030744552612e-02,4.029104858636856079e-02,-7.078630477190017700e-02,7.324370741844177246e-02,-6.286159902811050415e-02,3.666263073682785034e-02,-5.400028079748153687e-03,-3.513810038566589355e-02,-2.707976289093494415e-02,-3.696297854185104370e-02,2.451366372406482697e-02,6.469017267227172852e-02,3.858535364270210266e-02,9.455280750989913940e-02,-6.671100854873657227e-02,-3.142897412180900574e-02,-4.339336976408958435e-02,6.857325136661529541e-02,7.814728468656539917e-02,-2.447540313005447388e-02,6.383015215396881104e-02,-5.425520241260528564e-02,-6.044506654143333435e-02,4.416775703430175781e-02,-5.149237066507339478e-02,1.239733118563890457e-02,-4.726470634341239929e-02,-1.964841037988662720e-02,2.646524272859096527e-02,-9.246936440467834473e-02,6.858353316783905029e-02
5.400000000000000000e+01,7.692395895719528198e-02,-6.603092700242996216e-02,-1.662837900221347809e-02,-5.116315186023712158e-02,8.392251282930374146e-02,2.321830205619335175e-02,5.540164187550544739e-02,5.551106110215187073e-02,4.724299907684326172e-02,5.695149302482604980e-03,-1.783900149166584015e-02,3.441244736313819885e-02,-3.922517970204353333e-02,-8.763607591390609741e-03,-1.075359899550676346e-02,9.217321872711181641e-02,6.093440949916839600e-02,6.693791598081588745e-02,6.660643219947814941e-02,5.086377635598182678e-02,8.455039560794830322e-02,6.214730814099311829e-02,-1.001639440655708313e-01,4.697466641664505005e-02,6.276268512010574341e-02,-9.658568352460861206e-02,-1.765872724354267120e-02,-7.041281461715698242e-02,7.223726809024810791e-02,6.863623112440109253e-02,1.414558943361043930e-02,1.100771315395832062e-02,5.867462605237960815e-02,5.418882891535758972e-02,-8.062566071748733521e-02,6.366895139217376709e-02,-2.063913643360137939e-02,1.375818997621536255e-01,5.003043916076421738e-04,-2.704269427340477705e-04,7.969628204591572285e-04,-3.024711273610591888e-02,-1.153745502233505249e-01,1.716631464660167694e-02,-9.849762171506881714e-02,4.729931801557540894e-02,5.491574108600616455e-02,2.951216883957386017e-02,-5.662659928202629089e-02,-1.012106463313102722e-01
5.500000000000000000e+01,1.178410723805427551e-01,-8.791399747133255005e-02,8.875698596239089966e-02,-2.478029206395149231e-02,-7.749797403812408447e-02,9.673670679330825806e-02,2.507869340479373932e-02,7.574474811553955078e-02,-6.628424674272537231e-02,-9.329008311033248901e-02,-1.033455580472946167e-01,-1.931106671690940857e-02,-8.759129047393798828e-02,1.057381834834814072e-02,7.375162676908075809e-04,-6.970535218715667725e-02,-5.571310408413410187e-03,9.284155070781707764e-02,-7.423123717308044434e-02,9.427894838154315948e-03,1.780309714376926422e-02,1.982375234365463257e-02,5.865588784217834473e-02,8.271636068820953369e-02,8.601879328489303589e-02,2.952260430902242661e-03,1.835878752171993256e-02,-2.134415693581104279e-02,2.458664029836654663e-02,3.801336511969566345e-02,8.116748183965682983e-02,-1.775469444692134857e-02,-2.009743265807628632e-02,-2.537707053124904633e-02,-9.021072834730148315e-02,-1.193132717162370682e-02,-6.887294352054595947e-02,1.046130582690238953e-01,7.860638201236724854e-02,-7.828995585441589355e-02,3.463582322001457214e-02,1.509575452655553818e-02,1.649185270071029663e-02,9.182660281658172607e-02,-6.279271841049194336e-02,-1.016867309808731079e-01,6.655808538198471069e-02,2.255844138562679291e-02,2.103381417691707611e-02,7.820072770118713379e-02
5.600000000000000000e+01,5.993485450744628906e-02,-6.319984793663024902e-02,3.104208037257194519e-03,-5.842495709657669067e-02,-8.672627061605453491e-02,3.492492809891700745e-02,1.943713426589965820e-02,5.125326290726661682e-02,-3.294437751173973083e-02,-1.747366040945053101e-02,1.809875480830669403e-02,1.049991846084594727e-01,2.371241524815559387e-02,3.423676639795303345e-02,4.604557063430547714e-03,-5.015011504292488098e-02,-9.098336100578308105e-02,8.910048007965087891e-02,9.515650570392608643e-02,-4.787135496735572815e-02,-6.594366580247879028e-02,9.498143941164016724e-02,5.846424959599971771e-03,-1.093571335077285767e-01,-6.740312278270721436e-02,-8.510663360357284546e-02,-8.395187556743621826e-02,2.790497848764061928e-03,-3.793537616729736328e-03,-3.414112702012062073e-02,5.556160956621170044e-02,2.206636965274810791e-02,3.758372366428375244e-02,9.167049080133438110e-03,-1.958245225250720978e-02,-6.463728100061416626e-02,-4.144998639822006226e-02,-3.677478805184364319e-02,1.255047973245382309e-02,2.717347070574760437e-02,7.420193403959274292e-02,5.145982652902603149e-02,8.335520327091217041e-02,9.578239172697067261e-02,1.040424108505249023e-01,-7.518020272254943848e-02,3.349890932440757751e-02,8.714913576841354370e-02,9.860612452030181885e-02,-2.955103479325771332e-02
5.700000000000000000e+01,1.108038797974586487e-01,-7.184215635061264038e-02,3.106262721121311188e-02,-3.858291357755661011e-02,1.445950567722320557e-02,-8.690329641103744507e-02,-6.767152994871139526e-02,-7.091925293207168579e-02,4.521068930625915527e-02,1.414613425731658936e-02,4.442388191819190979e-02,-1.698035374283790588e-02,3.012938052415847778e-02,8.076423406600952148e-02,4.686733335256576538e-02,7.006100565195083618e-02,-6.331495195627212524e-02,-4.528272151947021484e-02,1.187865436077117920e-02,-6.973505765199661255e-02,-2.754409238696098328e-02,-2.618930116295814514e-02,6.666338443756103516e-02,1.018732506781816483e-02,-2.456078492105007172e-02,4.735841974616050720e-02,-8.552109822630882263e-03,6.171154975891113281e-02,-4.713895916938781738e-02,-2.176525630056858063e-02,-8.068256825208663940e-02,7.582610100507736206e-02,3.989147394895553589e-02,-4.915793612599372864e-02,4.170791432261466980e-02,-5.935865268111228943e-02,-3.212352469563484192e-02,1.038190722465515137e-01,1.004226282238960266e-01,-2.933607064187526703e-02,5.018924921751022339e-02,7.820335775613784790e-02,-1.119364984333515167e-02,9.685648977756500244e-02,5.670747905969619751e-02,-6.084812805056571960e-02,3.434277698397636414e-02,-3.723263368010520935e-02,3.210826963186264038e-02,-8.677566796541213989e-02
5.800000000000000000e+01,-7.668557018041610718e-02,4.000656772404909134e-03,-3.631450608372688293e-02,8.070576936006546021e-03,-5.035081133246421814e-02,-4.535345360636711121e-02,-4.423033446073532104e-02,6.742083281278610229e-02,-1.807225868105888367e-02,2.605230361223220825e-02,-5.039361119270324707e-02,7.324994355440139771e-02,1.231200806796550751e-02,1.518832519650459290e-03,-2.642441773787140846e-03,6.035078689455986023e-02,-9.081583470106124878e-02,-5.075253546237945557e-02,8.345918357372283936e-02,-8.533604443073272705e-02,2.104945853352546692e-02,-4.288747534155845642e-02,9.988123923540115356e-02,8.465141803026199341e-02,1.877199485898017883e-02,1.093375496566295624e-02,4.425851255655288696e-02,1.013962551951408386e-01,-4.747119732201099396e-03,6.357251107692718506e-02,-5.179016292095184326e-02,-8.491683006286621094e-02,2.479633502662181854e-02,-8.666324615478515625e-02,7.774418592453002930e-02,8.987904340028762817e-02,1.123209372162818909e-01,3.504189429804682732e-03,2.595933526754379272e-02,-9.037508815526962280e-02,6.496792286634445190e-02,5.299070850014686584e-02,-6.154745817184448242e-02,4.781750589609146118e-02,7.823216170072555542e-02,1.027604937553405762e-01,-8.021744340658187866e-02,8.779221773147583008e-02,9.457929432392120361e-02,1.600020229816436768e-01
5.900000000000000000e+01,7.904804497957229614e-02,3.865282982587814331e-02,2.543716318905353546e-02,-7.074386626482009888e-02,7.660046219825744629e-03,3.034256957471370697e-02,8.830538392066955566e-02,1.502931565046310425e-01,6.605397164821624756e-02,8.463347703218460083e-02,1.035300865769386292e-01,3.309030458331108093e-02,-6.995479762554168701e-02,6.657223403453826904e-02,8.569613844156265259e-02,-4.240676388144493103e-02,8.040403574705123901e-02,-5.618168041110038757e-02,4.906957224011421204e-02,9.121105819940567017e-02,-9.720570407807826996e-03,-1.586196869611740112e-01,2.920474112033843994e-02,4.607382789254188538e-02,1.145589724183082581e-01,8.639700710773468018e-02,7.527076452970504761e-02,3.928651567548513412e-03,-4.723058268427848816e-02,5.622856318950653076e-03,6.224992126226425171e-02,-3.582567721605300903e-02,4.682644084095954895e-02,-8.090486377477645874e-02,1.941219568252563477e-01,8.813179284334182739e-02,-6.932765990495681763e-02,1.651988178491592407e-02,5.649983417242765427e-03,-1.064975839108228683e-02,-9.359356015920639038e-02,-1.034393999725580215e-02,-4.549274593591690063e-02,-5.436351522803306580e-02,1.392241269350051880e-01,8.613982796669006348e-02,2.310176379978656769e-02,-1.380855101160705090e-03,-6.251642107963562012e-02,1.030472218990325928e-01
6.000000000000000000e+01,9.076121449470520020e-02,-3.650688007473945618e-02,2.180244959890842438e-02,9.011552482843399048e-02,-8.335037529468536377e-02,-8.938149362802505493e-02,3.629200533032417297e-02,5.937712267041206360e-02,8.875006437301635742e-02,-8.987911045551300049e-02,4.645587503910064697e-02,8.649288117885589600e-02,-1.010026549920439720e-03,-4.010266810655593872e-02,-5.980191379785537720e-02,-7.528629899024963379e-02,3.301998972892761230e-02,-5.914408713579177856e-02,-4.678421095013618469e-02,1.063781827688217163e-01,9.855560958385467529e-02,-1.917854882776737213e-02,-9.229525178670883179e-02,-2.253578975796699524e-03,-2.127947472035884857e-02,1.067250296473503113e-01,7.414680719375610352e-02,-4.286625236272811890e-02,5.963150411844253540e-02,3.223480191081762314e-03,-3.785960748791694641e-02,-5.086933821439743042e-02,4.567573964595794678e-02,6.600629538297653198e-02,-5.493398010730743408e-02,1.012228503823280334e-01,-7.869303971529006958e-02,4.912737011909484863e-02,-8.497586473822593689e-03,-4.628982767462730408e-02,3.817446902394294739e-02,9.606151841580867767e-03,3.442227374762296677e-03,-5.930418148636817932e-02,3.811278194189071655e-02,-6.195026263594627380e-02,2.633196301758289337e-02,1.982800662517547607e-02,-7.864636182785034180e-02,1.660801470279693604e-03
6.100000000000000000e+01,7.708096876740455627e-03,-1.133832335472106934e-02,8.987753652036190033e-03,5.374097451567649841e-02,2.102392911911010742e-02,-5.949459597468376160e-02,2.116367407143115997e-02,5.796721577644348145e-02,-8.739250898361206055e-02,7.773914188146591187e-02,9.908540546894073486e-02,2.187869325280189514e-02,7.856871932744979858e-02,6.454848498106002808e-02,-5.859611555933952332e-02,1.081300899386405945e-02,3.723977878689765930e-02,4.550424590706825256e-02,6.157787516713142395e-03,5.356188490986824036e-02,7.466857135295867920e-02,3.468157351016998291e-02,-1.842671819031238556e-02,-6.467031780630350113e-04,-2.929471619427204132e-02,-2.039521001279354095e-02,-7.827785611152648926e-02,-2.411508758086711168e-04,-1.877449266612529755e-02,5.037847906351089478e-02,9.781313128769397736e-04,3.778244927525520325e-02,-3.582271188497543335e-02,-3.349724411964416504e-02,-2.902964770328253508e-04,9.561029076576232910e-02,7.014076411724090576e-02,-5.209001898765563965e-02,1.090038865804672241e-01,5.337572842836380005e-02,-1.334920674562454224e-01,6.840991228818893433e-02,-2.324523963034152985e-02,1.421146281063556671e-02,1.081430613994598389e-01,-2.949182130396366119e-02,-5.959872156381607056e-02,-2.659209445118904114e-02,-8.338722586631774902e-02,4.801342729479074478e-03
6.200000000000000000e+01,-4.942892119288444519e-02,4.228863120079040527e-02,1.246739365160465240e-02,-3.707839874550700188e-03,9.164022654294967651e-02,1.831194199621677399e-02,1.486711762845516205e-02,4.545285552740097046e-02,-1.001092866063117981e-01,-8.813641965389251709e-03,-3.051662072539329529e-02,9.001863747835159302e-02,-5.087392870336771011e-03,-6.602817680686712265e-03,6.151280924677848816e-02,3.624685108661651611e-02,1.553654111921787262e-02,-9.082938730716705322e-02,6.137001886963844299e-02,1.587310223840177059e-03,-7.266050577163696289e-02,-4.524615034461021423e-02,-4.954841732978820801e-02,-4.368269816040992737e-02,-2.625731006264686584e-02,3.615028783679008484e-02,6.961059570312500000e-02,-6.932982057332992554e-02,9.857245534658432007e-02,-6.749538332223892212e-02,8.796792477369308472e-02,-7.062969263643026352e-03,9.094514697790145874e-02,7.433027774095535278e-02,9.113392978906631470e-02,-6.893642246723175049e-02,7.949615269899368286e-02,4.106304794549942017e-02,6.541537493467330933e-02,-8.728266507387161255e-02,-3.619058430194854736e-02,6.282639503479003906e-02,-4.532197117805480957e-02,-9.424517303705215454e-02,1.982444152235984802e-02,9.145562350749969482e-02,-8.278695493936538696e-02,-1.006263419985771179e-01,4.173527657985687256e-02,-7.244708947837352753e-03
6.300000000000000000e+01,5.062921717762947083e-02,3.549054637551307678e-02,-7.895802706480026245e-02,-5.651050806045532227e-02,3.926120698451995850e-03,1.002391334623098373e-02,-6.889075040817260742e-02,2.472009696066379547e-02,9.831018745899200439e-02,-4.105516895651817322e-02,-3.653052449226379395e-02,-6.891787797212600708e-02,-6.774609535932540894e-02,9.581866115331649780e-02,3.636515513062477112e-02,-4.281796980649232864e-03,7.701162248849868774e-03,5.528365448117256165e-02,1.666821353137493134e-02,4.749305173754692078e-02,-6.259712576866149902e-02,3.629368543624877930e-02,3.309142589569091797e-02,2.337903156876564026e-02,2.651287987828254700e-02,1.144237220287322998e-01,6.764487922191619873e-02,8.110643923282623291e-02,5.236388742923736572e-02,1.971657574176788330e-02,-7.649232447147369385e-02,-3.822190687060356140e-02,-1.157716615125536919e-03,4.340945929288864136e-02,2.326484397053718567e-02,-9.198471903800964355e-02,-9.077797085046768188e-02,9.580343216657638550e-02,-7.176022231578826904e-02,1.023958325386047363e-01,-1.946911029517650604e-02,4.886842519044876099e-02,-9.518579393625259399e-02,1.009471639990806580e-01,-6.163734570145606995e-02,-6.940919160842895508e-02,1.137434318661689758e-02,-6.100361049175262451e-02,7.071217522025108337e-03,4.339486360549926758e-02
6.400000000000000000e+01,-2.583924680948257446e-03,-1.275990251451730728e-02,1.296920049935579300e-02,-2.213015593588352203e-02,-7.486321777105331421e-02,-3.342467546463012695e-02,5.804146453738212585e-02,6.249295920133590698e-02,7.865893840789794922e-02,-3.450521081686019897e-02,4.350879415869712830e-02,-9.410946071147918701e-02,-3.386928513646125793e-02,4.501660540699958801e-02,1.207885742187500000e-01,7.251115888357162476e-02,4.012758657336235046e-02,-1.021534483879804611e-02,-6.533636152744293213e-02,9.844186156988143921e-02,-9.604596346616744995e-02,-7.158948481082916260e-02,8.300995081663131714e-02,5.103929713368415833e-02,-5.808317661285400391e-02,5.609378218650817871e-02,3.436516970396041870e-02,-4.162600636482238770e-02,4.755001142621040344e-02,5.983647704124450684e-02,-8.102470636367797852e-02,1.177939469926059246e-03,-8.148251473903656006e-02,-8.597885817289352417e-02,6.614304333925247192e-02,4.045766964554786682e-02,9.931384772062301636e-02,9.805432707071304321e-02,-3.606424480676651001e-02,-2.845451049506664276e-02,2.357785217463970184e-02,7.339695841073989868e-02,5.553096905350685120e-02,-4.786361753940582275e-02,3.470499441027641296e-02,7.458327710628509521e-02,1.379976887255907059e-02,-5.877324566245079041e-02,8.254197984933853149e-02,3.046840615570545197e-02
6.500000000000000000e+01,8.689057826995849609e-02,2.791763097047805786e-02,-9.045571088790893555e-02,9.700476378202438354e-02,-7.708095014095306396e-03,4.685691092163324356e-03,5.545550957322120667e-02,-9.742602705955505371e-02,-3.589300066232681274e-02,5.998641997575759888e-02,-6.009661406278610229e-02,-3.712512552738189697e-03,1.582821481861174107e-03,7.558327168226242065e-02,5.735319107770919800e-02,3.143270686268806458e-02,-6.991638243198394775e-02,-2.013223245739936829e-02,-6.303705275058746338e-03,7.920735329389572144e-02,-5.836157500743865967e-02,-7.648916542530059814e-02,-2.822695299983024597e-02,8.929657191038131714e-02,1.745389588177204132e-02,7.024621218442916870e-02,5.221464484930038452e-02,1.407803688198328018e-02,9.861997514963150024e-02,9.731878340244293213e-02,-7.391975820064544678e-02,-2.903807163238525391e-02,9.474471211433410645e-02,2.984613925218582153e-02,3.167307376861572266e-02,1.901280251331627369e-03,6.126129254698753357e-02,1.983338221907615662e-02,-8.455264568328857422e-02,-3.919189330190420151e-03,6.022115051746368408e-02,7.125573605298995972e-02,4.231948405504226685e-02,-9.115482121706008911e-02,6.622479110956192017e-02,9.240006655454635620e-02,1.066663116216659546e-02,-4.168207943439483643e-02,8.581385761499404907e-02,3.705562651157379150e-02
6.600000000000000000e+01,-9.139551967382431030e-02,9.737148135900497437e-02,-6.252842396497726440e-02,-2.127155102789402008e-02,4.965806752443313599e-02,-9.082248806953430176e-02,4.200613871216773987e-02,5.817821621894836426e-02,4.463827982544898987e-02,-2.943371236324310303e-02,5.963411554694175720e-02,5.391536280512809753e-02,-8.805955946445465088e-02,-3.246754873543977737e-03,-2.064784243702888489e-02,-9.943834692239761353e-02,-8.667987585067749023e-02,9.641624242067337036e-02,1.639254949986934662e-02,1.602210476994514465e-02,8.961001783609390259e-02,-3.594841435551643372e-02,1.134786829352378845e-01,-9.655034542083740234e-02,-9.405887871980667114e-02,-4.874947294592857361e-02,-2.632117643952369690e-02,7.729671150445938110e-02,5.914625898003578186e-02,-4.778061434626579285e-02,-5.132063850760459900e-02,3.904891014099121094e-02,5.720860790461301804e-03,1.298250257968902588e-02,8.589207381010055542e-02,-8.989305049180984497e-02,3.194062411785125732e-02,-7.929071784019470215e-02,-4.743653535842895508e-02,9.416897594928741455e-02,-3.160136938095092773e-02,9.760754555463790894e-02,-3.707809746265411377e-02,1.014435216784477234e-01,-4.541784524917602539e-02,8.297970145940780640e-02,1.634499616920948029e-02,2.221499383449554443e-02,8.797481656074523926e-02,1.170391663908958435e-01
6.700000000000000000e+01,-6.553068757057189941e-02,6.379066966474056244e-03,6.763245165348052979e-02,5.241064354777336121e-02,-1.784016191959381104e-02,4.125187697354704142e-04,-8.408746868371963501e-02,-3.382970020174980164e-02,3.422405943274497986e-02,9.954071789979934692e-02,-2.835674583911895752e-02,-9.517768025398254395e-02,9.560778737068176270e-02,9.626972489058971405e-03,9.047200530767440796e-02,-9.001874178647994995e-02,5.263625830411911011e-02,-1.167138572782278061e-02,-6.841450184583663940e-02,4.621609300374984741e-02,5.407897010445594788e-02,3.467228263616561890e-02,7.285244017839431763e-02,-5.092458799481391907e-02,8.303683251142501831e-02,-2.300297841429710388e-03,5.245799571275711060e-02,-3.432072699069976807e-02,5.466293543577194214e-03,3.097348660230636597e-02,3.197685629129409790e-02,7.375678420066833496e-02,2.934711426496505737e-02,8.955258876085281372e-02,1.406054943799972534e-02,-6.668227165937423706e-02,2.977300435304641724e-02,-3.162412345409393311e-02,-7.682648301124572754e-02,-1.304282248020172119e-02,-6.982035189867019653e-02,9.516168385744094849e-02,-6.810176372528076172e-02,-7.630304247140884399e-02,-6.526568531990051270e-02,-7.245950400829315186e-02,-3.888271749019622803e-03,8.818938396871089935e-03,1.628244109451770782e-02,4.776239395141601562e-03
6.800000000000000000e+01,1.084823384881019592e-01,-5.254475772380828857e-02,7.967265322804450989e-03,5.551813915371894836e-02,1.377084106206893921e-02,-9.485267102718353271e-02,8.176374435424804688e-02,4.769640788435935974e-02,2.610206371173262596e-03,3.536619246006011963e-03,4.664341732859611511e-02,-1.297063380479812622e-02,3.737530484795570374e-02,-1.106036175042390823e-02,-7.938539981842041016e-02,-3.063541278243064880e-02,-7.816424965858459473e-02,5.330219119787216187e-02,6.924761831760406494e-02,-6.379209458827972412e-02,-6.329472362995147705e-02,1.112042143940925598e-01,2.365161851048469543e-02,-2.753350138664245605e-02,-7.788428664207458496e-02,-2.653210982680320740e-02,-7.427957653999328613e-02,4.740066826343536377e-02,-1.441062241792678833e-02,-8.884907513856887817e-02,1.894465647637844086e-02,-4.889473691582679749e-02,1.262097898870706558e-02,-2.274062484502792358e-02,2.952379733324050903e-02,2.857371978461742401e-02,-8.372701704502105713e-02,-8.377182483673095703e-02,-3.480510413646697998e-02,-6.250142306089401245e-02,-1.518944744020700455e-02,-6.214418262243270874e-02,1.276327669620513916e-02,-6.158522889018058777e-02,-1.891641877591609955e-02,-4.613080248236656189e-02,4.442688077688217163e-02,-5.858523398637771606e-02,2.620222792029380798e-02,9.871727786958217621e-03
6.900000000000000000e+01,6.559806317090988159e-02,2.955164201557636261e-02,-5.241814628243446350e-02,7.718384265899658203e-02,-2.890159189701080322e-02,2.335922047495841980e-02,-6.290001422166824341e-02,9.828214533627033234e-03,-4.176450427621603012e-03,7.451973855495452881e-03,6.805524975061416626e-02,-2.069281227886676788e-02,-5.680193006992340088e-02,-1.090178117156028748e-01,-5.021589621901512146e-02,-3.924275562167167664e-02,-7.046027481555938721e-02,8.221101015806198120e-02,-2.105208113789558411e-02,-9.616024047136306763e-02,8.077888935804367065e-02,2.391712367534637451e-02,-8.203923702239990234e-02,7.487327605485916138e-02,1.771060191094875336e-02,-5.685930326581001282e-02,8.258766680955886841e-02,5.813903361558914185e-02,9.973421692848205566e-02,-7.183630764484405518e-02,7.880080491304397583e-02,-1.635218411684036255e-02,8.237550407648086548e-02,-2.781462483108043671e-02,5.993728339672088623e-02,7.988139986991882324e-02,1.847922429442405701e-02,-5.147167481482028961e-03,-4.552826751023530960e-03,-6.036874279379844666e-02,7.362749427556991577e-02,-7.762254029512405396e-02,1.670109294354915619e-02,9.384149685502052307e-03,9.018898941576480865e-03,2.124151773750782013e-02,-5.547502264380455017e-02,-5.651973187923431396e-02,3.721663728356361389e-02,8.758611045777797699e-03
7.000000000000000000e+01,4.445933178067207336e-02,-7.902441173791885376e-02,1.119959428906440735e-01,-9.485212154686450958e-03,-2.410869300365447998e-02,4.354313015937805176e-02,9.827428311109542847e-02,-6.844691187143325806e-02,1.092442870140075684e-02,5.190248042345046997e-02,1.045336052775382996e-01,2.826224640011787415e-02,4.740042984485626221e-02,1.469245739281177521e-02,9.957183897495269775e-02,-3.146003559231758118e-02,-9.132706373929977417e-02,-8.441201597452163696e-02,1.972481794655323029e-02,-1.067757233977317810e-02,5.539491400122642517e-02,4.302344843745231628e-02,8.315932936966419220e-03,-4.322833195328712463e-02,-3.446267917752265930e-02,-7.336402684450149536e-02,6.739780306816101074e-02,-4.357659071683883667e-02,4.737355920951813459e-04,7.429061830043792725e-02,-5.086531862616539001e-02,2.444653026759624481e-02,-4.637328907847404480e-02,9.869407117366790771e-02,8.098097145557403564e-02,4.294773936271667480e-02,-9.278915077447891235e-02,-9.817707538604736328e-02,-6.790082901716232300e-02,1.376080140471458435e-02,-4.218523204326629639e-02,-8.655407279729843140e-02,8.924116194248199463e-02,-4.681676253676414490e-02,-3.084787353873252869e-02,5.878512561321258545e-02,2.690385840833187103e-02,1.202817261219024658e-01,5.233770236372947693e-02,-3.402054309844970703e-02
7.100000000000000000e+01,2.066296339035034180e-01,5.996463075280189514e-02,9.201779961585998535e-02,1.078848689794540405e-01,-8.643767982721328735e-02,4.740606993436813354e-02,5.988578498363494873e-02,2.427894854918122292e-03,-9.281774051487445831e-03,-5.869245529174804688e-02,7.164424657821655273e-02,7.780436426401138306e-02,-5.987312644720077515e-02,4.804648458957672119e-02,-1.031107828021049500e-01,-3.244267404079437256e-02,-5.767896398901939392e-02,-8.193966001272201538e-02,6.586600840091705322e-02,-4.688536003232002258e-02,1.024027839303016663e-01,2.473970130085945129e-02,-8.187881112098693848e-02,1.722650229930877686e-02,-4.958368837833404541e-02,9.073914587497711182e-02,6.187825277447700500e-02,9.993249550461769104e-03,2.035044506192207336e-02,5.218991637229919434e-02,-2.780196629464626312e-02,4.601210355758666992e-02,9.719412028789520264e-02,-7.928293943405151367e-02,8.842178434133529663e-02,6.596001982688903809e-02,6.500472873449325562e-02,4.881254956126213074e-02,1.045144870877265930e-01,-3.836778923869132996e-02,2.350744977593421936e-02,-4.184882342815399170e-02,7.065428793430328369e-02,3.888648375868797302e-02,1.134173944592475891e-01,-1.701735705137252808e-02,-2.639655396342277527e-02,-7.839379459619522095e-02,-6.071733310818672180e-02,-1.037979125976562500e-01
7.200000000000000000e+01,-6.541889160871505737e-02,-3.542130067944526672e-02,4.957308620214462280e-02,4.499396309256553650e-02,-7.829569280147552490e-02,-8.972296118736267090e-02,6.458182632923126221e-02,-1.806995272636413574e-02,-6.015507131814956665e-02,-7.088953256607055664e-02,1.273505482822656631e-02,-1.770406402647495270e-02,-1.293288543820381165e-02,-1.099695488810539246e-01,-8.829988539218902588e-02,5.210353806614875793e-02,2.015900798141956329e-02,-6.046552583575248718e-02,1.868367008864879608e-02,6.146907433867454529e-02,-9.597125649452209473e-02,2.104460448026657104e-02,-2.858539484441280365e-02,1.426286343485116959e-02,6.986863166093826294e-02,-2.877026423811912537e-02,5.086141638457775116e-03,-9.179463237524032593e-02,-6.310325115919113159e-02,-4.062044620513916016e-02,-3.788072615861892700e-02,7.363490760326385498e-02,-3.238971158862113953e-02,-8.800768852233886719e-02,-4.666841775178909302e-02,-2.440898679196834564e-02,4.348741844296455383e-02,-4.803639277815818787e-02,-5.299721960909664631e-04,4.694520961493253708e-03,-1.244841888546943665e-02,-1.052470505237579346e-02,7.101824879646301270e-02,-5.975934327580034733e-04,2.383586252108216286e-04,-1.722462475299835205e-02,-3.693762933835387230e-03,4.866135120391845703e-02,-6.720671802759170532e-02,5.202099215239286423e-03
7.300000000000000000e+01,1.059416867792606354e-02,-4.249668493866920471e-02,-5.972428992390632629e-02,4.364237189292907715e-02,-7.722910493612289429e-02,-3.760113194584846497e-02,2.666313434019684792e-03,3.037655539810657501e-02,-8.345147594809532166e-03,-4.131061956286430359e-02,1.177944466471672058e-01,5.160037428140640259e-02,-9.886682033538818359e-02,5.622116476297378540e-02,3.646364435553550720e-02,8.015216886997222900e-02,-1.673579961061477661e-02,7.750511169433593750e-02,-3.698011487722396851e-02,-8.508796244859695435e-02,5.939278379082679749e-02,8.285130560398101807e-02,7.978093624114990234e-02,9.368838369846343994e-02,8.779285103082656860e-02,-4.054821282625198364e-02,-3.297317400574684143e-02,1.016879305243492126e-01,-9.902061522006988525e-02,-4.065880924463272095e-02,8.089799433946609497e-02,-2.515378221869468689e-02,-1.011199653148651123e-01,8.618474006652832031e-03,2.521648071706295013e-02,-4.173568263649940491e-02,8.001268655061721802e-02,-7.782036066055297852e-02,3.339399769902229309e-02,-3.826469182968139648e-02,4.088481422513723373e-03,-8.148779720067977905e-02,6.011303141713142395e-02,-2.101236768066883087e-02,-7.692541182041168213e-02,-7.284294068813323975e-02,9.306016564369201660e-02,5.216994788497686386e-03,6.579522043466567993e-02,1.716654300689697266e-01
7.400000000000000000e+01,7.836290448904037476e-02,-1.060362346470355988e-02,-3.690890222787857056e-02,-1.321126054972410202e-02,6.304346770048141479e-02,-7.681597955524921417e-03,-7.098360452800989151e-03,6.089514121413230896e-02,7.716773450374603271e-02,6.271464377641677856e-02,-8.172892034053802490e-02,-1.137913018465042114e-02,-4.156391322612762451e-02,-3.628141433000564575e-02,2.967937849462032318e-02,6.184130907058715820e-02,-7.317823916673660278e-02,2.812809310853481293e-02,-3.266952931880950928e-02,6.430079787969589233e-02,6.446267664432525635e-02,1.424218714237213135e-01,-6.441577523946762085e-02,-2.431065030395984650e-02,-5.869864951819181442e-03,8.337402343750000000e-02,-9.848592430353164673e-02,-4.196175932884216309e-02,8.214460313320159912e-02,-4.514733795076608658e-03,2.653168328106403351e-02,8.966078609228134155e-02,1.932635754346847534e-01,5.142863094806671143e-02,1.371119543910026550e-02,1.154450774192810059e-01,3.753511607646942139e-02,1.168349161744117737e-01,-2.526224590837955475e-02,7.655043154954910278e-02,7.154752034693956375e-03,5.668786540627479553e-02,-8.887934684753417969e-02,-5.971988290548324585e-02,-9.058585017919540405e-02,-4.605639353394508362e-02,-8.673681318759918213e-02,-3.726564347743988037e-02,3.093871288001537323e-03,-1.091602668166160583e-01
7.500000000000000000e+01,1.672488301992416382e-01,-5.541881173849105835e-02,2.374033257365226746e-02,1.022057011723518372e-01,-7.781635224819183350e-02,8.192086219787597656e-02,-3.492739796638488770e-02,2.777326107025146484e-02,-1.907528005540370941e-02,-4.965286329388618469e-02,-3.087105415761470795e-02,-9.652499854564666748e-02,-3.753463551402091980e-02,4.704906418919563293e-02,-1.269808262586593628e-01,2.651438303291797638e-02,-8.022373914718627930e-02,-3.486372530460357666e-02,-7.248591631650924683e-02,-3.669200837612152100e-02,-6.642951816320419312e-02,1.703949719667434692e-01,-6.991475075483322144e-02,2.097352873533964157e-03,-1.109568104147911072e-01,-8.056174218654632568e-02,1.995467022061347961e-02,-1.064787805080413818e-02,8.061105012893676758e-02,-8.599517494440078735e-02,-7.211112976074218750e-02,1.331438124179840088e-01,1.142803654074668884e-01,-6.984709296375513077e-03,-4.180333390831947327e-02,9.000893682241439819e-02,-7.585372030735015869e-02,1.795619726181030273e-01,-8.164381980895996094e-02,-7.520555704832077026e-02,8.813107758760452271e-02,-5.107398331165313721e-02,2.972484380006790161e-02,7.510306686162948608e-02,-2.353247813880443573e-02,7.989779114723205566e-02,-7.325177639722824097e-02,-1.024863645434379578e-01,5.959721282124519348e-03,-2.754583396017551422e-02
7.600000000000000000e+01,1.405649036169052124e-01,8.868138492107391357e-02,-3.640907630324363708e-02,-4.008866846561431885e-02,6.996811181306838989e-02,7.197718322277069092e-02,1.109073907136917114e-01,3.005771338939666748e-02,-6.504072248935699463e-02,-2.459722757339477539e-02,-8.501300215721130371e-02,8.038552850484848022e-02,-4.776044189929962158e-02,9.753556549549102783e-02,-1.107914447784423828e-01,-1.511219050735235214e-02,3.800731152296066284e-02,3.013816848397254944e-02,-2.692800387740135193e-02,-2.772216871380805969e-02,-2.022044546902179718e-02,6.847888231277465820e-02,4.607709497213363647e-02,8.023412898182868958e-03,3.036032430827617645e-02,1.988475909456610680e-03,7.023406773805618286e-02,2.351364353671669960e-03,3.624224290251731873e-02,2.703387290239334106e-02,-5.820844322443008423e-02,-2.147636190056800842e-02,4.576716944575309753e-02,-5.250490456819534302e-02,-6.085819378495216370e-02,4.179270565509796143e-02,3.361738845705986023e-02,-1.749949529767036438e-02,1.450278330594301224e-02,4.410608485341072083e-02,7.033929228782653809e-03,7.577110081911087036e-02,3.784284368157386780e-02,-2.309704758226871490e-02,-8.857854641973972321e-03,7.992082834243774414e-02,-4.221352189779281616e-02,1.144402101635932922e-01,3.324811160564422607e-02,-1.592061109840869904e-02
