2.021395787596702576e-02
6.264654546976089478e-02
-1.203124299645423889e-01
3.702860698103904724e-02
-7.407958805561065674e-02
1.348807197064161301e-02
-4.856635257601737976e-02
-9.056543558835983276e-02
5.547937750816345215e-02
1.373221278190612793e-01
1.514986455440521240e-01
-5.919122695922851562e-02
1.213639378547668457e-01
1.097191050648689270e-01
-2.411218918859958649e-02
-6.665256619453430176e-02
-1.233732327818870544e-02
-6.441298872232437134e-02
7.495316118001937866e-02
-5.009124800562858582e-02
8.972420543432235718e-02
8.054087311029434204e-02
-6.995925307273864746e-02
2.046338021755218506e-01
-4.175485670566558838e-02
6.393944472074508667e-02
-4.249537736177444458e-02
9.160362184047698975e-02
-8.423060178756713867e-02
1.209762319922447205e-01
2.643227577209472656e-03
1.792011409997940063e-01
-1.603123731911182404e-02
4.801996517926454544e-03
8.975436538457870483e-02
-3.943248838186264038e-02
2.000176906585693359e-01
6.976983696222305298e-02
-8.373703062534332275e-02
1.337261050939559937e-01
-6.264223903417587280e-02
1.036196015775203705e-02
7.646609097719192505e-02
1.136361733078956604e-01
-7.082507014274597168e-02
-3.191412985324859619e-02
2.793128043413162231e-02
-1.220301389694213867e-01
1.189063563942909241e-01
-7.262898236513137817e-02
