1.298463530838489532e-02
-1.045586690306663513e-01
8.837585151195526123e-02
3.227477520704269409e-02
1.239455714821815491e-01
-7.328560203313827515e-02
1.255835890769958496e-01
1.501768827438354492e-02
7.924740761518478394e-02
-5.710655823349952698e-02
8.152597397565841675e-02
-4.570735991001129150e-02
2.911751717329025269e-02
9.061023592948913574e-02
1.004022657871246338e-01
2.421925030648708344e-02
7.111586630344390869e-02
-2.669618837535381317e-02
4.314005374908447266e-02
3.039644844830036163e-02
1.370511163258925080e-04
-8.323463052511215210e-02
-2.600025758147239685e-02
1.000628620386123657e-01
3.491910547018051147e-02
5.628640577197074890e-02
1.096773222088813782e-01
-1.351290196180343628e-02
-1.430676877498626709e-02
2.649467624723911285e-02
-7.644801586866378784e-02
9.904696792364120483e-02
-4.611686617136001587e-02
-2.447745017707347870e-02
-2.289627678692340851e-02
3.323247889056801796e-03
-5.060550197958946228e-02
-2.264489606022834778e-02
4.165005683898925781e-02
2.316876500844955444e-02
1.281655021011829376e-02
-1.625357009470462799e-02
-1.136651635169982910e-02
-5.195302516222000122e-02
-6.248646602034568787e-02
-1.738783530890941620e-02
8.300954103469848633e-02
1.610924005508422852e-01
-8.952812105417251587e-02
1.020786687731742859e-01
