9.669941663742065430e-02,1.562969293445348740e-03,4.419665038585662842e-02,8.921583741903305054e-02,7.779157161712646484e-02,-6.087846681475639343e-02,-7.147326320409774780e-02,-5.934069305658340454e-02,-5.467045307159423828e-02,-4.570951685309410095e-02,-5.009521916508674622e-02,4.770703241229057312e-02,-4.230904951691627502e-02,8.224493265151977539e-02,2.879824303090572357e-02,-5.847157165408134460e-02,1.981195807456970215e-02,1.958444714546203613e-03,-1.029825657606124878e-01,1.014729887247085571e-01,3.564120829105377197e-02,-5.379112809896469116e-02,-2.640590444207191467e-02,4.112106189131736755e-02,4.128833115100860596e-02,-4.417584836483001709e-02,8.903048932552337646e-02,1.687921700067818165e-03,-1.128574460744857788e-02,-5.565978214144706726e-02,-1.920055039227008820e-02,-3.135512396693229675e-02,-5.648885294795036316e-02,2.490767091512680054e-02,6.654231343418359756e-03,8.356823585927486420e-03,-4.177708551287651062e-02,1.001808792352676392e-02,5.178159847855567932e-02,2.618197724223136902e-02,-8.709070831537246704e-02,2.298428118228912354e-02,1.382965035736560822e-02,6.123184040188789368e-02,-8.057937771081924438e-02,4.241212457418441772e-02,-1.814721967093646526e-03,8.242920041084289551e-03,8.438754826784133911e-02,4.887429997324943542e-02
1.004785224795341492e-01,-8.285000175237655640e-02,-1.206465885043144226e-01,-6.903181783854961395e-03,-9.790324606001377106e-03,1.134494915604591370e-01,7.070916891098022461e-02,7.809162884950637817e-02,2.750252932310104370e-02,8.413358777761459351e-02,-3.132468834519386292e-02,2.927751839160919189e-02,1.325605958700180054e-01,8.690259419381618500e-03,3.305457159876823425e-02,7.884191721677780151e-02,-6.520234048366546631e-02,-5.172836780548095703e-02,-3.464038670063018799e-02,-7.891243696212768555e-02,-5.418952181935310364e-02,-1.046103909611701965e-01,7.147132605314254761e-02,1.596805267035961151e-02,-7.062388956546783447e-02,-3.796317055821418762e-02,-9.110076725482940674e-02,-2.439811080694198608e-02,-3.449156647548079491e-03,-6.366924196481704712e-02,1.867735572159290314e-02,-5.034003779292106628e-02,-7.091829180717468262e-02,2.949937060475349426e-02,-2.283920533955097198e-03,7.181023061275482178e-02,-4.527888260781764984e-03,-1.015189364552497864e-01,-1.069277338683605194e-02,-9.621508419513702393e-02,7.848400622606277466e-02,-6.633798032999038696e-02,5.412895698100328445e-03,-8.485268801450729370e-03,6.396416574716567993e-03,2.437354438006877899e-02,-7.917749881744384766e-02,-2.513817697763442993e-02,1.632491499185562134e-01,6.982046365737915039e-02
-8.350177854299545288e-02,-3.148626908659934998e-02,-2.958942390978336334e-02,1.895122975111007690e-02,-4.861804097890853882e-02,-5.547441542148590088e-02,7.276999950408935547e-02,5.732974782586097717e-02,-1.338911987841129303e-02,6.079898774623870850e-02,-9.333907626569271088e-03,6.733874976634979248e-02,1.163835288025438786e-03,-4.629949480295181274e-02,-3.625944256782531738e-02,-5.950468033552169800e-02,2.027896791696548462e-02,7.858812063932418823e-02,-4.969933629035949707e-02,3.766474500298500061e-02,5.397253971750615165e-06,-4.176878370344638824e-03,-5.507788434624671936e-02,-5.790213868021965027e-02,-8.198349736630916595e-03,2.460223995149135590e-02,2.161276526749134064e-02,5.997694656252861023e-02,-3.182062134146690369e-02,-2.810390107333660126e-02,8.825153112411499023e-02,7.274550199508666992e-02,9.335661679506301880e-02,3.102319873869419098e-02,-1.778455637395381927e-02,7.393538206815719604e-02,4.292053729295730591e-02,6.966874003410339355e-02,9.134612977504730225e-02,3.027010150253772736e-02,9.141931682825088501e-02,-2.985394373536109924e-02,-6.294210255146026611e-02,-9.924160689115524292e-02,3.054727800190448761e-02,-8.131364732980728149e-02,-6.812257319688796997e-02,1.099970377981662750e-02,-3.058447875082492828e-02,-4.475245252251625061e-02
2.246796386316418648e-03,5.400955677032470703e-02,-1.003077812492847443e-02,3.261688724160194397e-02,-4.156504943966865540e-02,-5.236936360597610474e-02,-8.353707194328308105e-02,-6.685903668403625488e-02,6.599035114049911499e-02,1.140530314296483994e-02,-6.379401683807373047e-02,8.354816585779190063e-03,3.532344475388526917e-02,-6.481052935123443604e-02,-3.170643746852874756e-02,-2.092365361750125885e-02,6.529654562473297119e-02,-3.263294696807861328e-03,2.426200173795223236e-02,5.566034000366926193e-03,-9.979686141014099121e-02,-7.068310678005218506e-02,-7.218769937753677368e-02,-2.100579813122749329e-02,8.602631092071533203e-02,-8.847990632057189941e-02,9.482523798942565918e-02,-7.980301976203918457e-03,-5.812856927514076233e-02,3.412451827898621559e-03,-5.265983194112777710e-02,-3.669395297765731812e-02,5.175633355975151062e-02,-1.037640031427145004e-02,-3.158380044624209404e-03,8.998249471187591553e-02,8.656784147024154663e-02,-6.208436936140060425e-02,-3.621139749884605408e-02,2.066663466393947601e-02,3.408397547900676727e-03,-2.989774802699685097e-03,-8.406831324100494385e-02,-2.256961911916732788e-02,6.911717355251312256e-02,8.175095170736312866e-02,3.732218220829963684e-02,7.904122024774551392e-02,-7.761131972074508667e-02,5.073023959994316101e-02
5.246062576770782471e-02,-4.553558304905891418e-02,1.060582846403121948e-01,8.548811078071594238e-02,5.813876166939735413e-02,-6.870660465210676193e-03,8.814121782779693604e-02,-1.796181872487068176e-02,2.982897311449050903e-02,-1.533157750964164734e-02,-8.831169456243515015e-02,-4.910646751523017883e-02,-1.097018248401582241e-03,4.136771336197853088e-02,9.110073000192642212e-02,-8.449557423591613770e-02,9.161118417978286743e-02,1.063598692417144775e-02,1.560327969491481781e-02,4.837191104888916016e-02,4.529850929975509644e-02,-5.423423275351524353e-02,-4.650694131851196289e-02,-1.890719123184680939e-02,3.302688896656036377e-02,-8.348575234413146973e-02,8.110462874174118042e-02,-1.482781022787094116e-02,4.034266248345375061e-02,-4.731599241495132446e-02,4.981712996959686279e-02,-4.091755673289299011e-02,1.142907068133354187e-01,-1.446370221674442291e-02,-1.939917914569377899e-02,-8.908415585756301880e-02,1.014216523617506027e-02,1.784208416938781738e-02,-6.659793201833963394e-03,-8.024768531322479248e-02,9.831444919109344482e-02,8.469358831644058228e-02,2.413926459848880768e-02,3.430689498782157898e-02,-4.875717312097549438e-02,-7.972983270883560181e-02,-6.068392097949981689e-02,-3.098588809370994568e-02,5.539481714367866516e-02,-5.802607163786888123e-02
-1.149624120444059372e-02,-1.637376099824905396e-02,6.836158689111471176e-03,-5.498061701655387878e-02,5.078584700822830200e-02,2.321463637053966522e-02,-7.208181172609329224e-02,-6.961771100759506226e-02,-7.687837630510330200e-02,6.166608631610870361e-02,7.789522409439086914e-02,9.003642201423645020e-02,9.120742231607437134e-02,4.671553894877433777e-02,-7.934029400348663330e-02,7.544254418462514877e-03,3.345401957631111145e-02,4.671359807252883911e-02,-8.271237462759017944e-02,-6.716790795326232910e-02,1.016956046223640442e-01,-7.048399187624454498e-03,7.997920736670494080e-03,-1.943146809935569763e-02,3.266619145870208740e-02,9.727724827826023102e-03,-7.361863553524017334e-02,-6.844795495271682739e-02,8.352244645357131958e-02,5.517291650176048279e-02,-9.266053885221481323e-02,1.163414213806390762e-02,7.519470155239105225e-02,-1.003308221697807312e-01,8.871782571077346802e-02,-3.033379791304469109e-03,-5.642189085483551025e-02,-8.753425627946853638e-02,-3.569606319069862366e-02,-8.048769831657409668e-02,5.928893759846687317e-02,3.151828795671463013e-02,-5.766126513481140137e-02,-4.719203338027000427e-02,3.244796395301818848e-02,5.510289594531059265e-02,-4.332322254776954651e-02,-1.019740551710128784e-01,-6.774982064962387085e-02,6.342449784278869629e-02
7.816968113183975220e-02,-8.956492692232131958e-02,-2.767469361424446106e-02,6.728204898536205292e-03,-3.154034912586212158e-02,-8.905182033777236938e-02,-8.245080709457397461e-02,-1.438482850790023804e-02,-1.532266940921545029e-02,-8.769728243350982666e-03,3.299244865775108337e-02,-8.771618455648422241e-02,8.444329351186752319e-02,-4.839320201426744461e-03,-7.094447314739227295e-02,-9.775771945714950562e-02,5.607826635241508484e-02,1.734991371631622314e-02,2.597705274820327759e-02,-6.463909149169921875e-02,7.183155417442321777e-02,8.672848343849182129e-02,-4.505326598882675171e-02,9.653770178556442261e-02,-1.108527835458517075e-02,-3.264520689845085144e-02,2.773913547571282834e-05,1.673775492236018181e-03,7.412478327751159668e-02,8.311270922422409058e-02,1.584845222532749176e-02,4.858401045203208923e-02,-6.228982657194137573e-02,1.069340622052550316e-03,-6.117628514766693115e-02,-4.968765377998352051e-02,-1.858829520642757416e-02,4.149498790502548218e-02,-8.562947064638137817e-02,-4.188728332519531250e-02,-2.179078524932265282e-03,9.751579910516738892e-02,3.094022907316684723e-02,1.631346764042973518e-03,1.825511828064918518e-02,2.490761131048202515e-02,5.162270739674568176e-02,6.740856915712356567e-02,-7.324776053428649902e-02,-6.853598356246948242e-02
7.884000241756439209e-02,6.879739463329315186e-02,-1.904985494911670685e-02,-6.099258735775947571e-02,-8.706896007061004639e-02,-8.185075968503952026e-02,-7.915490865707397461e-02,-6.845477223396301270e-02,1.753615401685237885e-02,-6.040642503648996353e-03,-6.428385525941848755e-02,9.880405664443969727e-02,6.915757805109024048e-02,-2.177622955059632659e-04,-2.386186271905899048e-02,4.872783273458480835e-02,-3.237157827243208885e-03,-5.560567602515220642e-02,-4.289568215608596802e-02,2.298308908939361572e-02,5.397594068199396133e-04,2.652312628924846649e-02,-8.181598037481307983e-02,-7.931111007928848267e-02,-9.956421703100204468e-02,6.932725012302398682e-02,-1.376488339155912399e-02,8.558420091867446899e-02,-4.369689896702766418e-02,-6.516610085964202881e-02,-5.804378911852836609e-02,-1.209392957389354706e-02,-3.757390752434730530e-02,7.593187037855386734e-03,-7.222315762192010880e-03,-3.481995314359664917e-02,2.269725315272808075e-02,-7.553447782993316650e-02,6.075995042920112610e-02,9.006233513355255127e-02,-8.349376916885375977e-02,4.903089627623558044e-02,3.356909751892089844e-02,-7.603080570697784424e-02,7.414531707763671875e-02,-4.261867702007293701e-02,-4.067791998386383057e-02,-5.687765404582023621e-02,3.351520374417304993e-02,8.931802213191986084e-02
-7.655272632837295532e-02,6.912748515605926514e-02,-3.124807961285114288e-02,1.127383857965469360e-01,-2.534176222980022430e-02,-3.086219169199466705e-02,-4.774084314703941345e-02,-3.810997679829597473e-02,-5.305461585521697998e-02,-1.894891262054443359e-02,7.324673980474472046e-02,-2.618156000971794128e-02,1.896649971604347229e-02,8.175766468048095703e-02,-4.666982218623161316e-02,6.138835474848747253e-02,8.646011352539062500e-02,2.280138432979583740e-03,5.824556108564138412e-03,6.625660229474306107e-03,-9.539128839969635010e-02,2.221452258527278900e-02,2.845169790089130402e-02,9.142494201660156250e-02,7.585846632719039917e-02,-4.643371328711509705e-02,2.450149133801460266e-02,5.417844653129577637e-02,7.799565792083740234e-02,-6.474419496953487396e-03,1.581964641809463501e-02,-6.398415565490722656e-02,-2.207162231206893921e-02,-1.457382924854755402e-02,-2.036106586456298828e-02,5.397101119160652161e-02,4.254974052309989929e-02,-9.755028039216995239e-02,3.935486823320388794e-02,-2.016716636717319489e-02,-8.000997826457023621e-03,-1.564944721758365631e-02,-6.320603191852569580e-02,-3.452630713582038879e-02,-1.889692386612296104e-03,4.404224827885627747e-02,-3.902126848697662354e-02,3.505379706621170044e-02,5.029652267694473267e-02,-5.360678583383560181e-02
-6.195066496729850769e-02,-1.999121857807040215e-03,-8.276486396789550781e-02,9.107508510351181030e-02,8.565067499876022339e-02,-8.142641186714172363e-02,2.058109827339649200e-02,-8.740964531898498535e-02,-7.253158837556838989e-02,-9.692492336034774780e-02,5.981847178190946579e-03,-5.347806494683027267e-03,5.967328697443008423e-02,-8.297032117843627930e-02,1.422481238842010498e-02,4.023594409227371216e-02,8.984503336250782013e-03,4.013284295797348022e-02,-8.388031274080276489e-02,6.283217668533325195e-02,-8.628848195075988770e-02,6.315962970256805420e-02,9.903755784034729004e-02,7.070827484130859375e-02,-4.971442744135856628e-03,-1.356155052781105042e-02,-7.164230197668075562e-02,1.000115871429443359e-01,1.387572614476084709e-03,9.927841834723949432e-03,-1.592398248612880707e-02,-5.124804377555847168e-02,-2.030550315976142883e-02,6.195109710097312927e-02,-1.352191902697086334e-02,-3.831483051180839539e-02,6.874617934226989746e-02,-7.256241142749786377e-02,9.996422380208969116e-02,6.455282121896743774e-02,-3.954328596591949463e-02,-1.361070014536380768e-02,9.212613850831985474e-02,7.114764302968978882e-02,-6.485746800899505615e-02,1.602947711944580078e-02,7.220073044300079346e-02,-9.664717316627502441e-02,5.316761881113052368e-02,-3.074579313397407532e-02
1.138480231165885925e-01,-2.851809561252593994e-02,-2.620482444763183594e-02,-3.071241453289985657e-02,-7.435216009616851807e-02,7.119803875684738159e-02,-8.364049345254898071e-02,-8.691350370645523071e-02,9.546054899692535400e-02,1.007370576262474060e-01,1.049865633249282837e-01,1.897761970758438110e-02,1.121302247047424316e-01,-9.427050099475309253e-05,5.001574754714965820e-02,-9.455078840255737305e-02,4.614741355180740356e-02,5.301219969987869263e-02,6.033354625105857849e-02,8.054673671722412109e-02,7.815901935100555420e-02,7.989405095577239990e-02,1.561236828565597534e-01,6.594070792198181152e-02,7.123495638370513916e-02,1.822621910832822323e-03,-6.318937242031097412e-02,-4.461673274636268616e-02,-8.557075262069702148e-02,-1.793362945318222046e-02,8.957771956920623779e-02,5.529367923736572266e-02,8.279063552618026733e-02,6.365129258483648300e-03,-1.163134071975946426e-02,-4.106334596872329712e-02,-2.780299074947834015e-02,7.754715532064437866e-02,2.291282452642917633e-02,-2.476754412055015564e-02,6.892854720354080200e-02,6.469888240098953247e-02,1.196346282958984375e-01,6.009186804294586182e-02,3.807621076703071594e-02,1.095904409885406494e-01,-1.155875902622938156e-02,-9.948256611824035645e-02,1.414073556661605835e-01,-1.023576259613037109e-01
5.158510059118270874e-02,2.580718696117401123e-02,1.002280041575431824e-01,8.312209695577621460e-02,1.400544028729200363e-02,-3.649548441171646118e-02,7.988714426755905151e-02,4.943610355257987976e-02,-8.719621598720550537e-02,-1.885578408837318420e-02,-9.199006110429763794e-02,-9.885435551404953003e-02,-2.410436747595667839e-03,-9.710658341646194458e-02,-2.371512353420257568e-02,-4.027693718671798706e-02,1.892136931419372559e-01,-7.784122228622436523e-02,-4.828066751360893250e-02,-6.859804689884185791e-02,6.227100268006324768e-02,1.323596686124801636e-01,-4.687991365790367126e-02,5.534863471984863281e-02,3.132196888327598572e-02,-6.291962414979934692e-02,1.771829724311828613e-01,1.292870938777923584e-01,4.251508042216300964e-02,8.324671536684036255e-02,-2.099004574120044708e-02,-6.256898492574691772e-02,1.537250280380249023e-01,8.946734666824340820e-02,-5.721623450517654419e-02,-1.093685552477836609e-01,-1.504863053560256958e-01,5.447968468070030212e-02,1.182393282651901245e-01,-5.075400322675704956e-02,5.258844047784805298e-02,6.493248790502548218e-02,-1.161711057648062706e-03,-6.327199935913085938e-02,-1.505217794328927994e-02,-5.456437915563583374e-02,1.155345439910888672e-01,6.096297502517700195e-02,2.375007420778274536e-02,-3.759865462779998779e-02
5.723309703171253204e-03,8.284912258386611938e-02,-1.639633439481258392e-02,8.061087131500244141e-02,4.078092426061630249e-02,-3.332930803298950195e-02,8.803750574588775635e-02,-6.191347539424896240e-02,1.042382940649986267e-01,-3.163458779454231262e-02,-6.311911344528198242e-02,-1.336640119552612305e-02,-5.149796232581138611e-02,-1.728455722332000732e-02,-8.039882034063339233e-02,-8.878087997436523438e-02,1.558302938938140869e-01,-3.226929903030395508e-02,4.634986072778701782e-02,-5.255377665162086487e-02,-5.331986770033836365e-02,8.323524892330169678e-02,1.770921662682667375e-04,1.759835779666900635e-01,-5.806822702288627625e-02,5.179032683372497559e-02,1.605582684278488159e-01,1.112333014607429504e-01,-3.026410751044750214e-02,-5.114572588354349136e-03,-1.111301034688949585e-01,1.234799697995185852e-01,1.654719710350036621e-01,1.100776344537734985e-01,-1.256626397371292114e-01,-2.883603796362876892e-02,2.113001607358455658e-02,1.104711368680000305e-02,4.338788241147994995e-02,5.644108727574348450e-02,7.244341820478439331e-02,5.335107445716857910e-02,2.717100456357002258e-02,4.426638036966323853e-02,1.496114674955606461e-02,-1.793947815895080566e-02,7.200487703084945679e-02,8.785366266965866089e-02,-1.154639851301908493e-02,5.432390794157981873e-02
-4.214972257614135742e-02,8.398740738630294800e-02,5.842240154743194580e-02,8.280401676893234253e-02,8.058959990739822388e-02,-9.534452855587005615e-02,7.462506741285324097e-02,-6.434150040149688721e-02,4.172339290380477905e-02,-9.191580116748809814e-02,3.832643851637840271e-02,4.964848235249519348e-02,-2.579838223755359650e-02,-3.092649579048156738e-02,2.802948653697967529e-02,1.594394445419311523e-02,1.074408832937479019e-02,-5.693056806921958923e-02,-8.682640641927719116e-02,-7.347462326288223267e-02,-1.249686349183320999e-02,9.316419251263141632e-03,-7.800658792257308960e-02,4.042021557688713074e-02,-9.565579146146774292e-02,-2.657854184508323669e-02,8.978090435266494751e-02,-2.958792634308338165e-02,-7.330835610628128052e-02,9.649436920881271362e-03,7.598432153463363647e-02,-4.000549390912055969e-02,-4.786826297640800476e-02,-6.829237192869186401e-02,7.361621409654617310e-02,8.756206184625625610e-02,1.656763814389705658e-02,3.601259365677833557e-02,-1.797271706163883209e-02,-5.149740353226661682e-02,5.393586307764053345e-02,7.574924081563949585e-02,-1.331759523600339890e-02,-6.520383805036544800e-02,1.468622405081987381e-02,-3.892597928643226624e-02,8.634506911039352417e-02,-1.811001636087894440e-02,1.981004513800144196e-02,5.944890156388282776e-02
9.920268505811691284e-02,9.923768043518066406e-02,3.333052992820739746e-02,8.819497376680374146e-02,-9.902877360582351685e-02,-2.233795449137687683e-02,5.016725510358810425e-02,-7.785275578498840332e-03,-1.916334405541419983e-02,7.587071508169174194e-02,1.578311249613761902e-02,-9.422709047794342041e-02,7.094649225473403931e-02,7.371030002832412720e-02,-7.532924413681030273e-02,7.081671804189682007e-02,2.202878706157207489e-02,-4.509246349334716797e-02,2.934798598289489746e-02,-7.771808654069900513e-03,9.165705740451812744e-02,1.891987025737762451e-02,1.227282956242561340e-01,-6.351680308580398560e-02,-7.815600931644439697e-02,-1.782504282891750336e-02,-8.330652862787246704e-02,1.700602844357490540e-02,8.898720145225524902e-03,4.275587201118469238e-02,7.947762310504913330e-02,7.958242297172546387e-02,8.539920300245285034e-02,-8.712039142847061157e-02,1.083541661500930786e-01,3.869984066113829613e-03,-5.951263010501861572e-02,-9.477499127388000488e-02,-8.252021670341491699e-02,6.591152399778366089e-02,6.377821415662765503e-02,-4.406733438372612000e-02,1.114744246006011963e-01,7.886002212762832642e-02,1.068400219082832336e-01,-4.710364714264869690e-02,7.919405400753021240e-02,1.580402255058288574e-03,1.028199493885040283e-01,4.625226929783821106e-02
5.269421637058258057e-02,3.347963094711303711e-02,1.029792577028274536e-01,7.442557811737060547e-02,-3.315976634621620178e-02,-1.436453405767679214e-02,-2.297570742666721344e-02,6.721185892820358276e-02,2.407945139566436410e-04,-4.085380933247506618e-04,-7.322692871093750000e-02,-9.427955001592636108e-02,7.105208188295364380e-02,-4.270121082663536072e-02,4.369787126779556274e-02,9.831590950489044189e-02,1.882729865610599518e-02,-5.612572655081748962e-02,3.252211585640907288e-02,-8.883214741945266724e-02,-6.127097643911838531e-03,5.800102278590202332e-02,4.427537694573402405e-02,-8.968134224414825439e-02,-9.115131944417953491e-02,1.086724177002906799e-02,1.006971225142478943e-01,1.118593849241733551e-02,-4.083257913589477539e-02,8.022777736186981201e-02,-1.465326733887195587e-02,6.190718710422515869e-02,6.559517234563827515e-02,4.163784906268119812e-02,3.414725512266159058e-02,4.846490174531936646e-02,8.141901344060897827e-02,-4.141394421458244324e-02,-7.118079066276550293e-02,8.281908184289932251e-02,6.063082441687583923e-02,1.237815711647272110e-02,-8.398650214076042175e-03,2.296514622867107391e-02,5.412160232663154602e-02,-5.750988051295280457e-02,-3.683899343013763428e-02,-7.835562527179718018e-02,5.803463608026504517e-02,-5.854240804910659790e-02
-5.384695157408714294e-02,-3.802684321999549866e-02,-1.088453605771064758e-01,2.111135423183441162e-02,1.040031854063272476e-02,8.371292054653167725e-02,-9.945501387119293213e-02,-4.270088300108909607e-02,-8.204900473356246948e-02,1.493353545665740967e-01,2.655858173966407776e-02,5.548109114170074463e-02,-9.232307202182710171e-04,1.868583820760250092e-02,-5.827639251947402954e-02,-2.539044991135597229e-02,-1.441058516502380371e-01,3.353310376405715942e-02,-2.656919322907924652e-02,9.311528503894805908e-02,1.122837737202644348e-01,-2.958091534674167633e-02,2.455398440361022949e-02,2.577814459800720215e-02,2.675457112491130829e-02,7.391918450593948364e-03,-9.057297557592391968e-02,3.994574397802352905e-02,-7.623574137687683105e-02,1.005322933197021484e-01,5.665094405412673950e-02,9.091447107493877411e-03,2.649982459843158722e-03,-3.877247124910354614e-02,1.036209538578987122e-01,9.975469112396240234e-02,9.683526307344436646e-02,8.247793652117252350e-03,4.024635255336761475e-02,6.319307140074670315e-04,-1.614101678133010864e-01,-8.896945416927337646e-02,9.125927090644836426e-02,-8.808185905218124390e-02,7.164824008941650391e-02,-3.896354511380195618e-02,7.202783226966857910e-02,-3.735076263546943665e-02,8.045846223831176758e-02,-2.872074767947196960e-02
5.085164681077003479e-02,-7.259638607501983643e-02,2.524730190634727478e-02,-8.930341154336929321e-02,1.177826337516307831e-02,-6.591917574405670166e-02,6.693942937999963760e-03,-5.205425992608070374e-02,-6.575062870979309082e-02,7.128234207630157471e-02,3.306861594319343567e-02,3.266258537769317627e-02,1.751128025352954865e-02,7.962413132190704346e-02,2.229652553796768188e-02,-9.724352508783340454e-02,2.808874845504760742e-02,-7.387028634548187256e-02,7.057283818721771240e-02,7.025767862796783447e-02,-6.938288360834121704e-02,1.202827971428632736e-02,8.660562336444854736e-02,-7.553841173648834229e-02,-3.530187159776687622e-02,-9.642729908227920532e-02,6.418396532535552979e-02,8.303491026163101196e-02,3.515350073575973511e-02,4.655533283948898315e-02,7.368467748165130615e-02,5.734635889530181885e-02,8.002930134534835815e-02,-2.502406202256679535e-02,-1.285580080002546310e-02,-1.396672241389751434e-02,3.240390494465827942e-02,-2.818040736019611359e-02,1.723335683345794678e-02,2.165769599378108978e-02,-1.476347353309392929e-02,9.489540755748748779e-02,9.366483427584171295e-03,-8.211453258991241455e-02,9.867588430643081665e-02,-7.118389010429382324e-03,4.668772220611572266e-03,6.017573550343513489e-02,4.911728575825691223e-02,-5.005044490098953247e-02
1.137923672795295715e-01,-5.403731949627399445e-03,5.372396204620599747e-03,5.354693904519081116e-02,6.889894604682922363e-03,7.734268158674240112e-02,-2.344443462789058685e-02,5.138125270605087280e-02,1.188636645674705505e-01,5.295488610863685608e-02,1.657315343618392944e-01,3.330568224191665649e-02,3.828800749033689499e-03,9.367740154266357422e-02,3.072918578982353210e-02,-7.463283836841583252e-02,-2.982659265398979187e-02,-1.541123539209365845e-02,8.863615244626998901e-02,-7.919310778379440308e-02,-1.623125001788139343e-02,3.250455856323242188e-02,1.072227805852890015e-01,-5.988382175564765930e-02,3.677762672305107117e-02,-6.202012673020362854e-02,-1.103821620345115662e-01,8.102317340672016144e-03,6.337894499301910400e-02,-8.473142981529235840e-02,1.332096606492996216e-01,1.179443076252937317e-01,-2.219727449119091034e-02,-1.217788532376289368e-01,-3.053813241422176361e-02,-2.890950068831443787e-02,1.107132732868194580e-01,6.005408242344856262e-02,-4.517490416765213013e-02,-5.551026761531829834e-02,-1.538463830947875977e-01,-8.919347822666168213e-02,-2.568312920629978180e-02,-2.329174987971782684e-02,2.442442998290061951e-02,-2.922341227531433105e-02,7.852697372436523438e-02,-1.224355101585388184e-01,1.263186186552047729e-01,3.413242101669311523e-02
8.144033700227737427e-02,3.663129359483718872e-02,3.359406813979148865e-02,-6.723072845488786697e-03,-2.571893110871315002e-02,1.155255511403083801e-01,3.955888003110885620e-02,-6.471716612577438354e-02,7.049147784709930420e-02,2.672475203871726990e-02,1.471673604100942612e-02,-3.992653638124465942e-02,-4.592879209667444229e-03,-8.152807503938674927e-02,1.970935845747590065e-03,-1.322127878665924072e-03,-2.280442044138908386e-02,5.257648974657058716e-02,-1.240563485771417618e-02,-3.676180541515350342e-02,5.366336088627576828e-03,2.638079598546028137e-02,5.046577751636505127e-02,-3.812853991985321045e-02,-4.428829252719879150e-02,-3.988143801689147949e-02,6.266569253057241440e-03,-6.441190093755722046e-02,-3.143948689103126526e-02,3.965270519256591797e-02,-3.533770889043807983e-02,-2.990421466529369354e-02,-3.242377564311027527e-02,-7.820975035429000854e-03,1.206635907292366028e-01,1.561765652149915695e-02,-3.932729363441467285e-02,2.542667090892791748e-02,-2.115155756473541260e-02,-4.837442189455032349e-03,-2.337518148124217987e-02,7.159955799579620361e-02,4.496569558978080750e-02,3.740640357136726379e-02,3.065447323024272919e-03,1.061839386820793152e-01,-3.644605353474617004e-02,-1.529899146407842636e-02,2.168456278741359711e-02,8.142513781785964966e-02
-4.459416121244430542e-02,-1.045450568199157715e-03,7.277286797761917114e-02,4.546874016523361206e-02,-8.078000508248806000e-03,6.635159254074096680e-02,-3.581126686185598373e-03,7.879955321550369263e-02,5.177772790193557739e-02,3.947090730071067810e-02,-7.219769060611724854e-02,-4.803049378097057343e-03,-8.258404582738876343e-02,1.666065864264965057e-02,9.161906689405441284e-02,7.419327646493911743e-02,-5.531020835041999817e-02,1.118514686822891235e-02,8.920593559741973877e-02,-2.384544909000396729e-02,-7.493997365236282349e-02,-7.441795617341995239e-02,2.824481017887592316e-02,-5.225262045860290527e-02,4.187969118356704712e-02,-2.348095364868640900e-02,-7.261311262845993042e-02,2.128676697611808777e-02,6.754022091627120972e-02,8.794273436069488525e-02,9.567188471555709839e-02,5.514432489871978760e-02,-4.247828200459480286e-02,4.438846930861473083e-02,6.790174636989831924e-03,-4.400077089667320251e-02,-1.486623939126729965e-02,-2.934332005679607391e-02,-1.089114975184202194e-02,-4.340478032827377319e-02,7.831903547048568726e-02,-9.496208280324935913e-02,7.200551778078079224e-02,-7.231033593416213989e-02,-1.221494935452938080e-02,-7.140523195266723633e-02,3.593720495700836182e-02,-6.039806827902793884e-02,8.043730258941650391e-02,3.080154024064540863e-02
8.943148702383041382e-02,1.171725685708224773e-03,7.142255455255508423e-02,8.776459842920303345e-02,1.829172670841217041e-02,7.940404862165451050e-02,-9.410046041011810303e-03,-9.016871452331542969e-03,-3.635568171739578247e-02,-6.311530619859695435e-02,7.010222971439361572e-02,8.550543338060379028e-02,-4.865075647830963135e-02,7.532614469528198242e-02,3.072068467736244202e-02,8.322349190711975098e-02,4.665120318531990051e-02,3.326430916786193848e-03,4.253008961677551270e-02,4.023483395576477051e-02,3.392145410180091858e-02,-3.045254386961460114e-02,8.301921933889389038e-02,-2.288838848471641541e-02,-9.473907947540283203e-02,3.629935905337333679e-02,3.077716380357742310e-02,-4.628362879157066345e-02,-3.296640515327453613e-02,2.795477025210857391e-02,-7.264675106853246689e-03,-1.195025723427534103e-02,-4.607608169317245483e-02,-5.258570238947868347e-02,1.249225530773401260e-02,-1.132111251354217529e-02,1.454294770956039429e-01,-1.139989774674177170e-02,-1.810487359762191772e-02,3.412345796823501587e-02,4.958070069551467896e-02,-5.399664491415023804e-02,2.395797520875930786e-02,2.612841315567493439e-02,1.974001992493867874e-03,-5.513232201337814331e-02,1.525306235998868942e-02,-5.874046683311462402e-02,-1.759997010231018066e-02,-3.214730322360992432e-02
6.327488273382186890e-02,1.040056440979242325e-02,8.544887602329254150e-02,-4.938189312815666199e-02,-7.564932107925415039e-03,2.170084789395332336e-02,8.929730206727981567e-02,8.922404795885086060e-02,6.750389002263545990e-03,-5.190155282616615295e-02,-7.111642509698867798e-02,7.762125134468078613e-02,6.938473880290985107e-02,1.038592588156461716e-02,6.547464430332183838e-02,-6.388537585735321045e-02,-2.120544575154781342e-02,-1.917618513107299805e-02,-3.586826473474502563e-02,-2.304726094007492065e-02,-4.211532417684793472e-03,5.789722874760627747e-02,7.379346340894699097e-02,5.676698684692382812e-02,7.928871363401412964e-02,-2.263677679002285004e-02,-9.645779430866241455e-02,2.913955040276050568e-02,-1.053679268807172775e-02,8.347870409488677979e-02,-3.172769024968147278e-02,9.183519333600997925e-02,5.874659121036529541e-02,-7.514806091785430908e-02,-6.176169961690902710e-02,9.160435199737548828e-02,6.758893281221389771e-02,-6.485564261674880981e-02,-5.668221414089202881e-02,-9.506770223379135132e-02,-2.594704367220401764e-02,2.891320735216140747e-02,-4.306001961231231689e-02,-1.525388006120920181e-02,1.172121148556470871e-02,-1.430624071508646011e-02,-5.804983898997306824e-03,-1.482784189283847809e-02,1.061059236526489258e-01,1.518806535750627518e-02
7.503042370080947876e-02,7.704368233680725098e-02,-4.578725248575210571e-02,9.447974711656570435e-02,1.051319763064384460e-02,7.456716895103454590e-02,6.977651268243789673e-02,-9.846182912588119507e-02,1.931209489703178406e-02,7.846374809741973877e-02,-4.551999270915985107e-02,3.191483765840530396e-02,3.832975775003433228e-02,-5.323604494333267212e-02,-7.040917873382568359e-02,-3.703627735376358032e-02,3.422000259160995483e-02,1.881916821002960205e-02,-3.784672915935516357e-02,-7.705583423376083374e-02,7.968566566705703735e-02,9.950804710388183594e-02,3.776288032531738281e-02,6.035992875695228577e-02,7.209312170743942261e-02,5.460927728563547134e-03,7.412686198949813843e-02,7.902695238590240479e-02,-2.657958492636680603e-02,8.000521361827850342e-02,9.775143861770629883e-02,7.465638220310211182e-02,6.246911734342575073e-02,3.110969439148902893e-02,7.715351134538650513e-02,-2.275934629142284393e-02,9.203943610191345215e-02,4.442680627107620239e-02,6.174035370349884033e-02,-1.644727773964405060e-02,6.764986366033554077e-02,2.248993888497352600e-02,7.011025398969650269e-02,-8.632253855466842651e-03,-6.947635114192962646e-02,-1.077439077198505402e-02,9.145390987396240234e-02,-4.127283021807670593e-02,1.094044893980026245e-01,1.396612962707877159e-03
8.241427689790725708e-02,7.444231212139129639e-02,-1.577580720186233521e-02,7.346024364233016968e-02,7.148992270231246948e-02,1.051407009363174438e-01,9.554161876440048218e-02,-9.045224636793136597e-02,8.377393335103988647e-02,-4.547447338700294495e-02,-1.933069713413715363e-02,4.490642249584197998e-02,8.145958930253982544e-02,-5.942530557513237000e-02,6.734095513820648193e-02,8.331546932458877563e-02,-5.692584067583084106e-02,8.623183518648147583e-02,-3.444762527942657471e-02,3.373495116829872131e-02,-4.292837902903556824e-02,-9.733453392982482910e-02,9.874153882265090942e-02,-1.047374829649925232e-01,7.807159423828125000e-02,6.186994537711143494e-02,7.670343667268753052e-02,-8.765471726655960083e-02,-5.289665237069129944e-02,-7.592204492539167404e-03,9.071202576160430908e-02,1.520240795798599720e-03,-7.637610286474227905e-02,-1.576234959065914154e-02,3.038359805941581726e-02,-3.436994180083274841e-02,-8.905510604381561279e-02,-8.280219882726669312e-02,7.771799713373184204e-02,-9.751990437507629395e-02,-7.564031332731246948e-02,-5.246336385607719421e-02,6.940032541751861572e-02,-7.279825210571289062e-02,3.133879229426383972e-02,1.049162000417709351e-01,-1.236197426915168762e-01,-2.829276584088802338e-02,8.358883112668991089e-02,4.643762484192848206e-02
2.735710889101028442e-02,-2.748009003698825836e-02,-7.819709181785583496e-02,7.617434021085500717e-03,8.375919423997402191e-03,4.844446480274200439e-02,3.922731056809425354e-02,-8.876929059624671936e-03,2.166686393320560455e-02,-4.162393882870674133e-02,-9.649181365966796875e-02,-1.404593978077173233e-02,-7.920363545417785645e-02,5.651358515024185181e-02,6.228310614824295044e-02,-2.160750329494476318e-02,5.240820720791816711e-02,6.453878432512283325e-02,1.016016863286495209e-02,-6.121091172099113464e-02,-5.198901146650314331e-02,6.588382273912429810e-02,-1.103470623493194580e-01,-5.770934000611305237e-02,4.204374179244041443e-02,4.918776825070381165e-02,-6.779628992080688477e-02,-3.246759995818138123e-02,5.754498019814491272e-02,-4.029293730854988098e-02,-4.643611609935760498e-02,6.726973503828048706e-02,-5.336317699402570724e-03,-4.276807233691215515e-02,-1.050976440310478210e-01,-1.034039109945297241e-01,-3.414718061685562134e-02,5.581087619066238403e-02,-3.051794320344924927e-02,-3.151121735572814941e-02,5.320589989423751831e-02,-5.348065122961997986e-02,-9.425551444292068481e-02,4.089931026101112366e-02,-1.032675281167030334e-01,4.880960285663604736e-02,-7.241357117891311646e-02,-3.612386807799339294e-02,7.835252583026885986e-02,6.790113449096679688e-02
-1.067950427532196045e-01,-1.110399235039949417e-02,-1.201758161187171936e-01,-3.799916803836822510e-02,4.193318262696266174e-02,-2.047080919146537781e-02,-1.091433241963386536e-01,7.745651155710220337e-02,4.012970998883247375e-02,-5.757245421409606934e-02,1.036498919129371643e-01,-7.878100872039794922e-02,1.848784647881984711e-02,1.207476388663053513e-02,5.514150112867355347e-02,4.947509989142417908e-02,7.294958829879760742e-02,1.877479255199432373e-02,1.060768291354179382e-01,4.204475134611129761e-02,4.774020344484597445e-04,-8.205424249172210693e-02,-1.708694547414779663e-02,-2.651853486895561218e-02,9.288074076175689697e-02,3.007811866700649261e-02,-2.122282423079013824e-02,6.858593225479125977e-02,4.947508126497268677e-02,-2.559239044785499573e-02,-6.483333557844161987e-02,1.860029436647891998e-02,-5.625895783305168152e-02,3.365878388285636902e-02,-3.203351423144340515e-02,-5.227847397327423096e-02,3.509357571601867676e-02,-8.099948614835739136e-02,-4.737136512994766235e-02,-5.596538633108139038e-02,-4.843043629080057144e-03,5.724656954407691956e-02,-6.819911301136016846e-02,1.723394356667995453e-02,7.576208561658859253e-02,3.603460267186164856e-02,-2.763948403298854828e-02,1.099289860576391220e-03,-1.028060019016265869e-01,-5.230891704559326172e-02
-6.669192016124725342e-02,1.188368164002895355e-02,-8.404257707297801971e-03,5.473513901233673096e-02,5.509748682379722595e-02,-1.989157311618328094e-02,6.684164702892303467e-02,-4.286577180027961731e-02,-8.559260517358779907e-03,2.564282529056072235e-02,1.268321573734283447e-01,7.417882978916168213e-02,-4.798428341746330261e-02,-6.480330973863601685e-02,4.572454467415809631e-02,-7.824890315532684326e-02,-3.552514687180519104e-02,-4.232641682028770447e-02,1.292056441307067871e-01,1.165853738784790039e-01,-4.092527925968170166e-02,-2.985824085772037506e-02,7.338118553161621094e-02,-4.554355144500732422e-02,-4.531891271471977234e-02,7.831849157810211182e-02,-5.443716049194335938e-02,-4.350542649626731873e-02,-3.650655224919319153e-02,4.977645818144083023e-03,2.452319674193859100e-02,-4.168211668729782104e-02,4.526159167289733887e-02,4.675902053713798523e-02,1.492317533120512962e-03,2.796394936740398407e-02,-3.517828881740570068e-02,3.277542442083358765e-02,4.922403395175933838e-02,-2.232966216979548335e-04,-1.102781593799591064e-01,-3.226291388273239136e-02,1.968360133469104767e-02,3.065724484622478485e-02,-7.568381726741790771e-02,7.161924242973327637e-02,6.754109263420104980e-02,-8.825192600488662720e-02,4.390027001500129700e-02,7.435322552919387817e-02
4.587469995021820068e-02,-4.340229555964469910e-02,8.143070590449497104e-05,2.525422535836696625e-02,-7.024963945150375366e-02,7.879853993654251099e-02,3.577714785933494568e-02,3.340647369623184204e-02,-3.025924786925315857e-02,-2.936865575611591339e-02,4.646498337388038635e-02,1.391135854646563530e-03,5.553979426622390747e-02,-7.225234806537628174e-02,-8.822901546955108643e-02,8.785695582628250122e-02,-1.381008699536323547e-02,-5.731146410107612610e-02,-4.236390069127082825e-02,1.772576570510864258e-02,1.182189676910638809e-02,-5.155631899833679199e-02,-3.256705775856971741e-02,5.311473831534385681e-02,-6.473448127508163452e-02,7.497954368591308594e-02,-5.567379295825958252e-02,-1.013110205531120300e-02,7.968387752771377563e-02,5.771067738533020020e-02,-1.261981204152107239e-02,2.090210467576980591e-02,1.017729565501213074e-01,-3.233690559864044189e-02,6.471760571002960205e-02,1.054117903113365173e-01,7.422045618295669556e-02,8.735501766204833984e-02,-2.258378081023693085e-03,-4.356930404901504517e-02,1.683415472507476807e-02,-2.036492340266704559e-02,-7.126032561063766479e-02,3.308717906475067139e-02,-2.921243757009506226e-02,-3.050438361242413521e-03,-6.532487273216247559e-02,-7.853843271732330322e-02,-6.289832293987274170e-02,4.285086691379547119e-02
1.878529670648276806e-03,1.928030885756015778e-02,2.802623622119426727e-02,-6.630113348364830017e-03,-8.706706762313842773e-02,1.252588629722595215e-01,5.528743378818035126e-03,-8.158795535564422607e-02,-4.874203354120254517e-02,1.095991954207420349e-01,1.331640630960464478e-01,1.771247200667858124e-02,4.770254716277122498e-02,-5.729925259947776794e-02,7.980610430240631104e-02,-4.125000163912773132e-02,-3.253333037719130516e-03,-2.233717590570449829e-02,2.082241000607609749e-03,8.885229378938674927e-02,-3.507830575108528137e-02,1.968728378415107727e-02,3.658777847886085510e-02,-9.756495058536529541e-02,-7.120063155889511108e-02,-1.044244505465030670e-02,4.354628920555114746e-02,-1.009944975376129150e-01,-3.452005609869956970e-02,-1.667909696698188782e-02,1.355320308357477188e-02,4.285398870706558228e-02,-1.046769879758358002e-02,-6.938567850738763809e-03,3.092839196324348450e-02,-3.203795850276947021e-02,-2.642508596181869507e-02,-8.137223869562149048e-02,2.031092345714569092e-02,-7.103315740823745728e-02,2.570591121912002563e-02,-6.981560960412025452e-03,-9.130164049565792084e-03,-6.102082878351211548e-02,1.321558058261871338e-01,4.639225453138351440e-02,-1.187532953917980194e-02,-1.071951463818550110e-01,3.627121821045875549e-02,-3.688366385176777840e-03
6.722241640090942383e-02,5.483825877308845520e-02,-6.057051941752433777e-02,8.622783236205577850e-03,-4.426028206944465637e-02,1.324341744184494019e-01,-8.740719407796859741e-02,-7.867887616157531738e-03,-5.191640555858612061e-02,-2.307969331741333008e-02,8.106261491775512695e-02,9.064988233149051666e-03,1.128540262579917908e-01,4.544203355908393860e-02,-4.532121866941452026e-02,2.175720781087875366e-02,2.548264339566230774e-02,-6.973551213741302490e-02,-6.558158993721008301e-02,1.047236844897270203e-01,-8.211258053779602051e-02,-8.584108203649520874e-02,-7.728895638138055801e-03,3.368673846125602722e-02,4.332980886101722717e-02,-7.242265343666076660e-02,-4.298107326030731201e-02,-1.706431061029434204e-02,-9.749366343021392822e-02,-9.288391470909118652e-02,-3.155925124883651733e-02,-3.616795316338539124e-02,-6.110652815550565720e-03,-5.086126551032066345e-02,1.724033057689666748e-02,9.698096662759780884e-02,8.423773944377899170e-02,1.511522568762302399e-03,-8.349481970071792603e-02,1.543715875595808029e-02,-4.570158571004867554e-02,-5.759338289499282837e-02,4.489659890532493591e-02,-5.375747382640838623e-02,-5.393531918525695801e-02,-1.275146193802356720e-02,3.411078453063964844e-02,-8.977815508842468262e-03,4.524892568588256836e-02,-4.168501496315002441e-02
9.388073533773422241e-02,-9.692481160163879395e-02,3.336089476943016052e-02,-8.008635789155960083e-02,-1.495234388858079910e-02,5.432894080877304077e-02,-4.743423685431480408e-02,-4.423198848962783813e-02,-7.121857255697250366e-02,-8.346751332283020020e-03,-1.135493163019418716e-02,3.836477920413017273e-02,-7.206325978040695190e-02,7.401822507381439209e-02,3.198012709617614746e-02,2.245570719242095947e-02,6.241890788078308105e-02,-6.302176415920257568e-02,-6.033565476536750793e-02,-8.656103909015655518e-02,7.815716415643692017e-02,4.977066814899444580e-02,-2.477389201521873474e-02,-4.964333400130271912e-02,-3.608922287821769714e-02,8.018212765455245972e-02,1.445978786796331406e-02,1.796955615282058716e-02,-9.382507205009460449e-02,-8.289149031043052673e-03,8.403591066598892212e-02,2.063727565109729767e-02,-5.311507731676101685e-02,2.604098059237003326e-02,3.694399446249008179e-02,7.411391288042068481e-02,-1.805314235389232635e-02,-8.712712675333023071e-02,9.709335118532180786e-02,-1.848210953176021576e-02,-8.192358911037445068e-02,-5.228351429104804993e-02,1.643664203584194183e-02,2.481393888592720032e-02,8.428332209587097168e-02,7.501535117626190186e-02,-8.361757546663284302e-02,9.279181063175201416e-02,1.185437813401222229e-01,5.071548372507095337e-02
-4.316403344273567200e-02,3.453055769205093384e-02,1.152657251805067062e-02,2.582052163779735565e-02,-7.345760613679885864e-02,-7.397433277219533920e-03,-7.592784613370895386e-02,-8.602497726678848267e-02,-5.389450117945671082e-02,4.723992571234703064e-02,4.176111146807670593e-02,-1.477681100368499756e-02,3.344056755304336548e-02,3.286824375391006470e-02,-6.710421293973922729e-02,-3.436894714832305908e-02,2.438862621784210205e-02,7.073063403367996216e-02,-4.400812461972236633e-02,4.755774512887001038e-02,-3.121648170053958893e-02,1.670276187360286713e-02,-8.101147413253784180e-02,1.039591282606124878e-01,-7.106141000986099243e-02,-3.571835532784461975e-02,8.563634008169174194e-02,-6.641651690006256104e-02,-5.185278132557868958e-02,3.322410210967063904e-02,9.225491434335708618e-02,-2.009167708456516266e-02,5.489437282085418701e-02,8.661461994051933289e-03,-1.473994832485914230e-02,-5.928313732147216797e-02,-2.544572949409484863e-02,-1.195393968373537064e-02,5.547342449426651001e-02,8.217255026102066040e-02,9.355756640434265137e-02,9.271471202373504639e-02,1.425951067358255386e-02,5.398984625935554504e-02,2.678438276052474976e-02,-8.971790224313735962e-02,-4.916473478078842163e-02,6.769395619630813599e-02,-1.588664390146732330e-02,2.312567643821239471e-02
-7.557484507560729980e-02,3.939638286828994751e-02,3.024151315912604332e-03,-5.258214473724365234e-02,1.174706295132637024e-01,-2.907535992562770844e-02,9.062235802412033081e-02,-8.972353488206863403e-02,4.165460169315338135e-02,-1.348398774862289429e-01,7.177034765481948853e-02,8.398266881704330444e-02,3.586408495903015137e-02,-5.533174425363540649e-02,8.592397719621658325e-02,-7.583463098853826523e-03,6.850768625736236572e-02,-2.277366816997528076e-02,-1.256847977638244629e-01,-1.470694597810506821e-02,1.674403063952922821e-02,-2.435044199228286743e-02,-8.574347198009490967e-02,-3.807859122753143311e-02,-9.012812376022338867e-02,-4.015630483627319336e-02,1.026362776756286621e-01,1.148105561733245850e-01,-6.087676435708999634e-02,-5.801243707537651062e-03,-1.063362695276737213e-02,4.296287149190902710e-02,3.684216365218162537e-02,2.481424249708652496e-02,-2.414900436997413635e-02,3.648359701037406921e-02,7.747884374111890793e-03,-8.403096348047256470e-02,1.348374634981155396e-01,-5.539200082421302795e-02,1.608209870755672455e-02,-1.748023740947246552e-02,1.826590113341808319e-02,4.706239700317382812e-02,7.912395149469375610e-02,-5.388310924172401428e-02,-1.197184808552265167e-02,9.867620468139648438e-02,7.320236414670944214e-02,8.109775930643081665e-02
-4.128096625208854675e-02,9.156543016433715820e-02,-4.093712940812110901e-02,-3.027850948274135590e-02,9.141494333744049072e-02,8.649322390556335449e-02,-4.611892998218536377e-02,-9.131371974945068359e-03,5.173782259225845337e-02,8.689974248409271240e-02,5.473823472857475281e-02,9.987394325435161591e-03,5.133676528930664062e-02,5.263521894812583923e-02,-1.081800926476716995e-02,5.122914910316467285e-03,1.489902194589376450e-02,-1.611411571502685547e-02,-7.619992643594741821e-02,-1.662595383822917938e-02,-2.124588936567306519e-03,-4.369306191802024841e-02,6.192211061716079712e-02,4.709582775831222534e-02,-4.440765082836151123e-02,4.655459895730018616e-02,-7.271052151918411255e-02,9.041047841310501099e-02,-4.451780766248703003e-02,5.919618904590606689e-02,8.462922275066375732e-02,3.516935557126998901e-02,-8.096215128898620605e-02,-8.137335628271102905e-02,-2.691522240638732910e-02,-7.464137673377990723e-02,-5.038552731275558472e-02,-1.704926230013370514e-02,-2.099892310798168182e-02,6.415614485740661621e-02,8.094943314790725708e-02,1.691505312919616699e-03,-4.663606733083724976e-02,3.893401846289634705e-02,6.161886081099510193e-02,2.315432578325271606e-02,6.094266474246978760e-02,-3.897291421890258789e-02,-4.595265537500381470e-02,5.971917137503623962e-02
4.764085263013839722e-02,-6.872722506523132324e-02,8.931881934404373169e-02,3.113083541393280029e-02,-1.093543879687786102e-02,3.437671577557921410e-03,9.475230239331722260e-03,8.133217692375183105e-03,9.352551400661468506e-02,-3.285503759980201721e-02,-3.572672978043556213e-02,-6.200159899890422821e-03,-7.528617233037948608e-02,9.181661903858184814e-02,-8.696153014898300171e-02,8.055172860622406006e-02,-8.412709832191467285e-02,5.261280387639999390e-02,-1.672770828008651733e-02,-3.726548701524734497e-02,-1.934123970568180084e-02,-8.891394734382629395e-02,-6.886094808578491211e-02,-5.659388378262519836e-02,2.003644593060016632e-02,-9.515742212533950806e-02,8.717575669288635254e-02,4.840711504220962524e-02,5.692445486783981323e-02,-8.730840682983398438e-02,7.022953650448471308e-05,-1.546427514404058456e-02,4.064244404435157776e-02,1.449204515665769577e-02,-8.681603521108627319e-02,7.064174860715866089e-02,-2.774565108120441437e-02,-1.998568698763847351e-02,3.039063327014446259e-02,-6.914755702018737793e-02,1.718339882791042328e-02,4.944448918104171753e-02,-9.613632410764694214e-02,4.273119941353797913e-02,4.454402625560760498e-02,6.963238865137100220e-02,-6.530138850212097168e-02,9.254353493452072144e-02,-3.236008062958717346e-02,9.432317316532135010e-02
7.457175105810165405e-02,-5.756018683314323425e-02,-7.648345082998275757e-02,-1.130533516407012939e-01,-5.332817882299423218e-02,8.965039998292922974e-02,-9.245631098747253418e-02,-1.815877854824066162e-03,-6.063124909996986389e-02,-4.822450131177902222e-02,-1.913078315556049347e-02,4.745584726333618164e-02,4.376621916890144348e-02,-7.557784020900726318e-02,5.061370134353637695e-02,-4.890090227127075195e-02,4.398623108863830566e-02,-8.125605434179306030e-02,2.084416337311267853e-02,-6.162577494978904724e-02,-7.517310976982116699e-02,6.284879893064498901e-02,1.761395037174224854e-01,9.460589848458766937e-03,1.688449271023273468e-02,-9.988839738070964813e-03,2.144833095371723175e-02,1.439248863607645035e-02,7.137553393840789795e-02,-3.995677083730697632e-02,1.524372249841690063e-01,5.960057675838470459e-02,-4.767383262515068054e-02,-3.646337985992431641e-02,8.828033506870269775e-02,7.312507182359695435e-02,3.010465390980243683e-02,-6.483019143342971802e-02,8.918774127960205078e-02,5.786805227398872375e-02,6.282430142164230347e-02,-6.678059697151184082e-03,-1.837361836805939674e-03,-6.106295809149742126e-02,-1.269308663904666901e-02,9.725373983383178711e-02,6.463331729173660278e-02,-5.184738710522651672e-02,1.693675071001052856e-01,-2.621535956859588623e-02
-3.809631615877151489e-02,5.634835362434387207e-02,6.834781169891357422e-02,5.606494471430778503e-02,-6.309368181973695755e-03,-4.069336876273155212e-02,-1.698692701756954193e-02,4.669857397675514221e-02,-3.095070086419582367e-02,-8.725091069936752319e-02,4.856768250465393066e-02,1.422586292028427124e-02,9.522477537393569946e-02,-8.289154618978500366e-02,2.247975021600723267e-02,-4.323026910424232483e-02,-2.812798693776130676e-02,6.525469571352005005e-02,7.652119267731904984e-03,-5.210898816585540771e-03,8.294890820980072021e-02,1.055003255605697632e-01,-5.683656409382820129e-02,9.324637241661548615e-03,2.703747153282165527e-02,-3.377085179090499878e-02,3.521841485053300858e-03,4.773554950952529907e-02,-2.904317528009414673e-02,-7.880777120590209961e-02,8.068815805017948151e-03,4.071799665689468384e-02,-1.481275167316198349e-02,1.071104705333709717e-01,4.923965036869049072e-02,-1.000252664089202881e-01,-7.319752126932144165e-02,5.293018370866775513e-02,1.037884205579757690e-01,-1.265592221170663834e-02,-2.365380059927701950e-03,-9.235263802111148834e-03,9.238440543413162231e-02,3.840959444642066956e-02,-1.923650316894054413e-02,-4.813583567738533020e-02,-5.282843485474586487e-02,6.540291756391525269e-02,-7.544263452291488647e-02,5.989108234643936157e-02
1.076318044215440750e-02,5.023669451475143433e-02,5.823261663317680359e-02,-3.227070346474647522e-02,1.166490167379379272e-01,-2.870490401983261108e-02,8.078388869762420654e-02,7.240020483732223511e-02,8.202946931123733521e-02,7.987751625478267670e-03,1.560827018693089485e-03,-4.592211917042732239e-02,1.550787221640348434e-02,3.312363848090171814e-02,8.584004640579223633e-02,-3.600640594959259033e-02,4.063379764556884766e-02,-2.458275854587554932e-02,5.332618951797485352e-02,1.452550385147333145e-02,4.430928826332092285e-02,6.515258550643920898e-02,7.109544426202774048e-02,1.813592389225959778e-02,8.469916135072708130e-02,7.393188774585723877e-02,9.955929964780807495e-02,5.131993070244789124e-02,9.260130673646926880e-02,-9.009460918605327606e-03,1.646207831799983978e-02,-8.913393318653106689e-02,1.049033105373382568e-01,2.762514166533946991e-02,-3.576761111617088318e-02,2.442292310297489166e-02,6.700096186250448227e-03,9.314722567796707153e-02,3.810101747512817383e-02,9.081677347421646118e-02,2.254576608538627625e-02,7.450193166732788086e-02,6.160006299614906311e-02,4.290917888283729553e-02,-2.738399803638458252e-02,-1.843812875449657440e-02,-2.428665570914745331e-02,5.941856279969215393e-02,-4.585697129368782043e-02,-8.548194169998168945e-02
-9.578229486942291260e-02,4.260400682687759399e-02,4.337985441088676453e-02,-1.302752643823623657e-02,1.183768827468156815e-02,-1.185187045484781265e-02,-9.824311733245849609e-02,-7.648146152496337891e-02,1.348581863567233086e-03,1.217198222875595093e-01,-5.061187967658042908e-02,7.494331151247024536e-02,3.674313798546791077e-02,-6.161245331168174744e-02,-4.436061903834342957e-02,3.789197653532028198e-02,3.092588856816291809e-02,-2.125807106494903564e-02,8.342304825782775879e-02,6.657333672046661377e-02,8.337401598691940308e-02,8.438933640718460083e-02,7.015982270240783691e-02,4.649460688233375549e-02,-2.694775722920894623e-02,-6.784217804670333862e-02,-5.198220163583755493e-02,5.158810317516326904e-02,4.371676594018936157e-02,-4.690166190266609192e-02,-7.408329844474792480e-02,-7.731015328317880630e-03,6.541564315557479858e-02,-5.602218583226203918e-02,-2.962188608944416046e-02,-8.766401559114456177e-02,-5.157607793807983398e-02,-6.702589336782693863e-03,-1.013954505324363708e-01,-2.366879582405090332e-02,-3.700546803884208202e-04,-2.140730433166027069e-02,-1.237387303262948990e-03,-1.049420237541198730e-02,-1.073161140084266663e-01,-7.459567487239837646e-02,1.419604755938053131e-02,-3.180728107690811157e-02,5.717053636908531189e-02,-5.083103477954864502e-02
-8.674415200948715210e-02,9.299924224615097046e-02,1.364152180030941963e-03,-5.193122103810310364e-02,2.658654004335403442e-02,2.417726255953311920e-02,-2.795010805130004883e-02,-3.058281540870666504e-02,7.390366494655609131e-02,-1.689821947365999222e-03,6.429843604564666748e-02,7.875557243824005127e-02,8.842283487319946289e-02,-8.044579625129699707e-02,4.993186518549919128e-02,-3.635058924555778503e-02,-6.327994912862777710e-02,1.145549118518829346e-02,1.710751676000654697e-03,8.410836756229400635e-02,2.694376185536384583e-02,1.217997446656227112e-02,-7.161096483469009399e-02,1.149620413780212402e-01,-3.225998580455780029e-02,-7.271789014339447021e-02,-5.087051913142204285e-02,6.691371649503707886e-02,9.991510212421417236e-02,9.085495769977569580e-02,-5.410927906632423401e-02,5.009907297790050507e-03,4.058845341205596924e-02,1.749574765563011169e-02,-6.009951606392860413e-02,6.628633290529251099e-02,-1.882473379373550415e-02,3.606146899983286858e-03,-6.008500978350639343e-02,-5.282225832343101501e-02,-3.693077340722084045e-02,-8.731931447982788086e-02,7.321986556053161621e-02,1.276909001171588898e-02,-5.463768169283866882e-02,-3.728384524583816528e-02,1.071239933371543884e-01,-8.232020772993564606e-03,7.516622543334960938e-02,9.827406704425811768e-02
-4.608965292572975159e-02,-7.555095851421356201e-02,6.115386635065078735e-02,-4.791221022605895996e-02,2.262448891997337341e-03,5.660395603626966476e-03,-7.046147435903549194e-02,6.028916686773300171e-02,-3.642529994249343872e-02,8.813294023275375366e-02,-1.271174941211938858e-02,-5.063686892390251160e-02,-3.057382069528102875e-03,-2.010684832930564880e-02,-2.835913002490997314e-02,5.469708889722824097e-02,-7.723373128101229668e-04,8.994009345769882202e-02,7.592214643955230713e-02,-5.787054449319839478e-02,2.883224375545978546e-02,-3.645678609609603882e-02,4.341328144073486328e-02,5.960759520530700684e-02,6.089749932289123535e-02,5.360270384699106216e-03,-9.102524071931838989e-02,-7.762175798416137695e-02,4.042502492666244507e-02,7.040685415267944336e-02,1.151343286037445068e-01,8.376602828502655029e-02,3.991509228944778442e-02,-8.220861107110977173e-02,9.776031598448753357e-03,-3.799378126859664917e-02,-5.911947041749954224e-02,1.979859359562397003e-02,-7.762573193758726120e-03,9.052755683660507202e-02,-7.482975721359252930e-02,-6.955654919147491455e-02,6.429030559957027435e-03,-9.226065874099731445e-02,9.871683269739151001e-02,4.097278043627738953e-02,-1.175402104854583740e-02,1.510030031204223633e-02,-1.696701534092426300e-02,5.755838379263877869e-02
-9.405820071697235107e-02,-3.461677208542823792e-02,3.610789403319358826e-02,6.085928156971931458e-02,8.793384581804275513e-02,5.478475987911224365e-02,-3.736124932765960693e-02,-7.662016898393630981e-02,5.733847618103027344e-02,8.718393743038177490e-02,1.187827512621879578e-01,-7.850330322980880737e-02,-6.815733760595321655e-02,7.084436714649200439e-02,1.649203151464462280e-02,3.292335942387580872e-02,-1.029056310653686523e-02,-3.122851252555847168e-03,2.918938733637332916e-02,-3.567529842257499695e-02,6.633906066417694092e-02,1.287190467119216919e-01,4.143087193369865417e-02,3.789890557527542114e-02,5.413822084665298462e-02,-2.503455989062786102e-02,-2.214429154992103577e-02,3.194089047610759735e-03,2.760001085698604584e-02,8.307904936373233795e-03,4.249913245439529419e-02,-1.633748784661293030e-02,1.688688807189464569e-02,7.309937477111816406e-02,7.761523127555847168e-02,-8.385656774044036865e-02,4.729473590850830078e-02,7.396863307803869247e-03,-1.421016873791813850e-03,4.929044749587774277e-03,3.638521581888198853e-02,8.123768121004104614e-02,-1.396710798144340515e-02,-3.863608092069625854e-02,-1.727482117712497711e-02,8.393348008394241333e-02,6.302677839994430542e-02,6.304105743765830994e-03,-2.840678952634334564e-02,-7.175661623477935791e-02
7.757926732301712036e-02,-3.218195587396621704e-02,1.460268050432205200e-01,6.916370987892150879e-02,-6.602866202592849731e-02,3.340615332126617432e-02,2.278075367212295532e-02,-2.155026188120245934e-03,-1.759221032261848450e-02,-1.029657647013664246e-01,-7.470988482236862183e-02,4.191450402140617371e-02,-8.386554569005966187e-02,9.559173136949539185e-02,8.235276490449905396e-02,4.412857070565223694e-02,1.065789312124252319e-01,3.738301247358322144e-02,-5.665387585759162903e-02,1.030225455760955811e-01,-5.028339847922325134e-02,9.799020737409591675e-02,3.592468425631523132e-02,-4.535430297255516052e-02,-6.478609144687652588e-02,-8.446765691041946411e-02,1.105724200606346130e-01,1.084541380405426025e-01,8.562172204256057739e-02,-7.315337657928466797e-02,1.794351078569889069e-02,5.079334601759910583e-02,1.158035919070243835e-01,1.304947286844253540e-01,-4.443020746111869812e-02,1.134531944990158081e-02,1.217154436744749546e-03,-6.580261141061782837e-02,-5.791647359728813171e-02,4.994657635688781738e-02,1.510333865880966187e-01,4.041379317641258240e-03,8.457157015800476074e-02,-4.677129536867141724e-02,-4.001802951097488403e-02,-4.451956227421760559e-02,6.963940709829330444e-02,3.265262395143508911e-02,-7.076419889926910400e-02,-5.288159474730491638e-03
-3.578829765319824219e-02,2.972515113651752472e-02,3.805960714817047119e-02,5.935519188642501831e-02,5.767479911446571350e-02,-6.394989788532257080e-02,-8.312186598777770996e-02,6.998641043901443481e-02,-1.502399612218141556e-02,-4.291939362883567810e-02,-3.006834909319877625e-02,-2.820762060582637787e-02,3.409113967791199684e-03,5.624508112668991089e-02,8.889182657003402710e-02,-4.114153608679771423e-02,-2.896734746173024178e-03,-5.340745672583580017e-02,-1.070715487003326416e-01,-4.808447510004043579e-02,8.265075832605361938e-02,-2.850900776684284210e-02,-2.233611233532428741e-02,-5.733148008584976196e-02,8.860873430967330933e-02,4.843987151980400085e-02,-3.983482718467712402e-02,-1.793655753135681152e-02,4.106613248586654663e-02,-7.964673638343811035e-02,4.007945582270622253e-02,-1.003458648920059204e-01,-4.915697500109672546e-02,-8.766212314367294312e-02,-2.318408526480197906e-02,7.096812129020690918e-02,7.744785398244857788e-02,2.339765056967735291e-02,-1.670664548873901367e-02,8.149547129869461060e-02,-2.327501401305198669e-02,6.823562830686569214e-02,6.667204201221466064e-02,-9.705618023872375488e-02,1.072393283247947693e-01,-1.260623335838317871e-02,-2.194875106215476990e-02,-2.651152759790420532e-02,-5.084304511547088623e-02,-7.876442372798919678e-02
-4.695802181959152222e-02,-5.836687237024307251e-02,-7.697013765573501587e-02,-4.013340175151824951e-02,-8.121116459369659424e-02,5.454143881797790527e-02,4.279765486717224121e-02,-1.905636489391326904e-02,6.791130453348159790e-02,-3.653372079133987427e-02,6.610976904630661011e-02,-1.737068407237529755e-02,-5.244116857647895813e-02,8.582393079996109009e-02,-7.575064152479171753e-02,-7.020013034343719482e-02,-9.384355694055557251e-02,4.214547574520111084e-03,9.857841581106185913e-02,-7.487361133098602295e-02,-3.086419403553009033e-02,-3.900251537561416626e-02,4.214483499526977539e-02,8.209165185689926147e-02,3.972900286316871643e-02,-4.912029579281806946e-02,-7.517618685960769653e-02,-5.136219412088394165e-02,9.289656579494476318e-02,-8.819704502820968628e-02,-2.291810512542724609e-02,6.712890416383743286e-02,-1.935813948512077332e-02,-3.637929260730743408e-02,-6.352245807647705078e-02,-7.577766478061676025e-02,7.781832665205001831e-02,5.455945432186126709e-02,9.266673028469085693e-02,-6.952784210443496704e-02,-7.201865315437316895e-02,-6.159237027168273926e-02,4.707130789756774902e-02,1.095077842473983765e-01,3.046391531825065613e-03,-3.084838390350341797e-02,9.094221889972686768e-02,-5.166695918887853622e-03,-3.477466851472854614e-02,-1.412621233612298965e-02
7.566010951995849609e-02,6.530080921947956085e-03,7.376273162662982941e-03,-6.780130416154861450e-02,-9.628038853406906128e-02,2.620429918169975281e-02,8.623497188091278076e-02,-9.485547989606857300e-02,-5.719805136322975159e-02,2.769677154719829559e-02,6.201935559511184692e-02,3.480964805930852890e-03,9.659940749406814575e-02,-6.373322755098342896e-02,8.090392500162124634e-02,2.815064042806625366e-02,2.415673062205314636e-02,3.405196219682693481e-02,5.144694820046424866e-02,1.935152523219585419e-02,-1.025471761822700500e-01,-7.291163504123687744e-02,5.871744081377983093e-02,-2.426682226359844208e-02,-5.125472322106361389e-02,-7.874027639627456665e-02,-6.134551763534545898e-02,-9.852557629346847534e-02,-3.000386059284210205e-02,-7.751119136810302734e-02,9.782844781875610352e-02,-6.740216165781021118e-02,-3.522726520895957947e-02,-9.104458242654800415e-02,1.269577145576477051e-01,-3.845708444714546204e-02,-6.536041945219039917e-02,-1.978875510394573212e-02,-4.325794056057929993e-02,-1.061845012009143829e-02,-7.682743668556213379e-02,1.604417711496353149e-02,1.160034090280532837e-01,3.051439672708511353e-02,-2.655657380819320679e-02,4.294950887560844421e-02,9.273083880543708801e-03,-7.892632856965065002e-03,1.221354827284812927e-01,2.201677672564983368e-02
-1.039869114756584167e-01,4.899682104587554932e-02,5.822838842868804932e-02,9.900886565446853638e-02,1.877232454717159271e-02,4.268709942698478699e-02,1.966965012252330780e-02,-1.477557700127363205e-02,-4.985703155398368835e-02,1.060789451003074646e-01,1.008489448577165604e-02,-6.715212762355804443e-02,5.925041064620018005e-02,4.564070142805576324e-03,-7.310041785240173340e-02,-2.393483184278011322e-02,4.972463473677635193e-02,-8.727101236581802368e-02,1.052640974521636963e-01,-5.166586115956306458e-02,4.288658499717712402e-02,1.938871294260025024e-01,-1.256492454558610916e-02,7.331882417201995850e-02,6.907400488853454590e-02,1.569290761835873127e-04,-7.558975834399461746e-03,5.970064550638198853e-03,-9.160447120666503906e-02,-4.218403249979019165e-02,5.069988593459129333e-02,1.280507445335388184e-01,1.810560971498489380e-01,2.101731114089488983e-02,3.164497390389442444e-02,7.639516890048980713e-02,-3.114661015570163727e-02,-1.035334244370460510e-01,-3.043803619220852852e-03,1.868395134806632996e-02,4.021758958697319031e-02,-9.828916937112808228e-02,1.561296824365854263e-02,-5.010432098060846329e-03,-5.438656359910964966e-02,-2.754293940961360931e-02,6.915488839149475098e-02,9.393027424812316895e-02,-2.674814313650131226e-02,9.688384830951690674e-02
6.719338893890380859e-02,-8.970358967781066895e-02,3.861380741000175476e-02,2.341094426810741425e-02,4.930000007152557373e-02,7.632760703563690186e-02,6.510586291551589966e-02,1.276462152600288391e-02,-8.837034925818443298e-03,-1.110536679625511169e-01,5.676090344786643982e-02,-2.716450393199920654e-02,7.155448198318481445e-02,-7.905972003936767578e-02,-8.672238886356353760e-02,8.793428540229797363e-02,-3.864264872390776873e-04,7.326833158731460571e-02,-9.476703405380249023e-02,-6.195451319217681885e-02,-8.103000931441783905e-03,1.197460517287254333e-01,1.979370042681694031e-02,4.563007876276969910e-02,7.570636272430419922e-02,-7.958673685789108276e-02,3.906157985329627991e-02,-5.704266577959060669e-02,-6.208912283182144165e-02,5.954340565949678421e-03,-3.416964039206504822e-02,-4.622939601540565491e-02,1.287560760974884033e-01,-1.523231063038110733e-02,-4.368628188967704773e-02,9.437990188598632812e-02,4.969736561179161072e-02,-9.827750176191329956e-02,1.087835654616355896e-01,6.313738226890563965e-02,7.177877426147460938e-02,3.701321035623550415e-02,-3.396740928292274475e-02,-3.540061414241790771e-02,-6.669671833515167236e-02,4.201659560203552246e-02,-3.833034262061119080e-02,-1.680088415741920471e-02,9.645847976207733154e-02,5.131461098790168762e-02
-2.393564954400062561e-02,7.342648506164550781e-02,2.054848335683345795e-02,7.511755824089050293e-02,6.086540967226028442e-02,2.489440515637397766e-02,-3.538240678608417511e-03,1.615849882364273071e-02,8.219811320304870605e-02,3.067057020962238312e-02,1.805721409618854523e-02,-9.075978398323059082e-02,-7.920593023300170898e-02,-4.184936732053756714e-02,-5.808258056640625000e-02,-3.122987598180770874e-02,-5.011501908302307129e-02,-1.692626625299453735e-02,-9.280389547348022461e-02,-6.618414819240570068e-02,4.658635705709457397e-02,-7.910595089197158813e-02,-9.484238177537918091e-02,-7.842354476451873779e-03,6.575606018304824829e-02,-9.684950858354568481e-02,-5.584222078323364258e-02,3.730558604001998901e-02,1.857101358473300934e-02,6.686328351497650146e-02,-4.902556166052818298e-02,1.606761291623115540e-02,6.103402748703956604e-02,-7.317368686199188232e-02,-7.671166956424713135e-02,-8.948104828596115112e-02,-3.870826959609985352e-02,2.139499224722385406e-02,6.162124127149581909e-02,3.901628777384757996e-02,-2.308730408549308777e-02,9.117884188890457153e-02,6.612432003021240234e-02,6.644286680966615677e-03,-4.123754426836967468e-02,6.421192735433578491e-02,-3.688961267471313477e-02,-4.513487219810485840e-02,-3.573011234402656555e-02,-8.194325864315032959e-02
9.474348276853561401e-02,4.828235507011413574e-02,1.792072132229804993e-02,-8.994424343109130859e-02,-2.689071558415889740e-02,-3.406289219856262207e-02,1.177556253969669342e-02,7.489508390426635742e-02,9.659248404204845428e-03,8.888642303645610809e-03,3.668498992919921875e-02,2.188552543520927429e-02,4.072722420096397400e-02,1.695837639272212982e-02,3.102276707068085670e-03,-6.845442205667495728e-02,-2.022525062784552574e-03,1.633466780185699463e-02,4.963585361838340759e-02,5.388918891549110413e-02,7.114419341087341309e-02,7.967517711222171783e-03,-4.658791422843933105e-02,6.366148591041564941e-02,-7.619069516658782959e-02,1.644779555499553680e-02,-2.436996623873710632e-02,6.410107761621475220e-02,-6.565791368484497070e-02,-1.059660166501998901e-01,6.822865456342697144e-02,4.310871660709381104e-02,4.379201214760541916e-03,3.842744976282119751e-02,-7.797546684741973877e-02,-3.868364170193672180e-02,9.378696978092193604e-02,2.725024335086345673e-02,-7.611450552940368652e-02,-7.796718273311853409e-03,9.061897546052932739e-02,7.170984894037246704e-02,8.759590983390808105e-02,-6.306649651378393173e-03,1.061014309525489807e-01,1.525296922773122787e-02,-9.378029406070709229e-02,-8.112797886133193970e-02,-2.825573831796646118e-02,5.370360612869262695e-02
-5.184698477387428284e-02,1.732929423451423645e-02,1.495911087840795517e-02,6.144579872488975525e-02,-7.056910544633865356e-02,1.911416091024875641e-02,3.155971691012382507e-02,-6.258481740951538086e-02,-4.658349789679050446e-03,-1.219465211033821106e-02,-9.820761531591415405e-02,-2.210481837391853333e-02,2.948700450360774994e-02,1.861906610429286957e-02,-4.712663963437080383e-02,-2.678334154188632965e-02,1.376149058341979980e-01,7.864014059305191040e-02,8.739946782588958740e-02,-7.629521191120147705e-03,-6.852742284536361694e-02,2.614879980683326721e-02,-3.106992505490779877e-02,1.009842939674854279e-02,3.723129630088806152e-02,-5.177723616361618042e-02,1.461873054504394531e-01,1.116521097719669342e-02,-4.167390242218971252e-02,-9.439730644226074219e-02,-6.439261138439178467e-03,6.840081512928009033e-02,8.140133321285247803e-02,2.580540440976619720e-02,-9.881409257650375366e-02,5.318576842546463013e-02,-6.381550431251525879e-02,-3.707511350512504578e-03,1.022131741046905518e-01,-5.302864126861095428e-03,1.234565153717994690e-01,4.276524484157562256e-02,-9.814806282520294189e-02,3.948256745934486389e-02,4.896429926156997681e-02,1.939561963081359863e-02,1.316671259701251984e-02,8.168254047632217407e-02,-1.215335801243782043e-01,6.948152184486389160e-02
4.219934716820716858e-02,3.890041261911392212e-02,-8.808953315019607544e-02,-8.075688779354095459e-02,-4.503619670867919922e-02,-7.468175888061523438e-02,-8.081855624914169312e-02,-3.409088402986526489e-02,2.727960236370563507e-02,-8.936852216720581055e-02,3.129613026976585388e-02,-4.352546855807304382e-02,3.691166639328002930e-04,-5.554882064461708069e-02,-6.465801596641540527e-02,5.388601869344711304e-02,-9.231612086296081543e-03,8.146242052316665649e-02,-8.413754403591156006e-02,-5.655995104461908340e-03,3.862356394529342651e-02,-7.976230233907699585e-02,1.588288135826587677e-02,6.006231904029846191e-02,7.467824965715408325e-02,-3.038557618856430054e-02,8.883889019489288330e-02,-4.115337133407592773e-02,1.814777031540870667e-02,-4.198221117258071899e-02,8.598974905908107758e-03,1.886208355426788330e-02,7.486145198345184326e-02,-3.887441381812095642e-02,8.899913728237152100e-02,-8.432039618492126465e-02,7.610798627138137817e-02,-2.978857047855854034e-02,-1.862943544983863831e-02,1.240583718754351139e-03,-3.766746073961257935e-02,-9.112859261222183704e-04,-5.131851509213447571e-02,1.935120671987533569e-02,-8.104654960334300995e-03,1.940513961017131805e-02,-8.322661370038986206e-02,-6.557027995586395264e-02,3.391943499445915222e-02,7.888943701982498169e-02
5.762318149209022522e-02,-5.055713653564453125e-02,-3.907804191112518311e-02,-2.950034476816654205e-02,-1.205822546035051346e-02,2.466343156993389130e-02,3.016934357583522797e-02,-1.310382504016160965e-02,3.479224443435668945e-02,9.238307923078536987e-02,7.215652614831924438e-02,-3.937492147088050842e-02,1.108403578400611877e-01,-2.428535558283329010e-02,-5.624592676758766174e-02,-4.368839412927627563e-02,1.514900568872690201e-02,-5.005066469311714172e-02,7.550454884767532349e-02,-5.666832625865936279e-02,8.841630816459655762e-02,-2.594187669456005096e-02,9.361100196838378906e-02,-6.920787692070007324e-02,-2.797473920509219170e-03,4.466104507446289062e-02,7.371661067008972168e-02,7.106882333755493164e-02,-8.498826622962951660e-02,2.566731534898281097e-02,6.295899301767349243e-02,5.188719183206558228e-02,2.589281462132930756e-02,8.516112715005874634e-02,6.755757331848144531e-02,6.863198429346084595e-02,5.364808067679405212e-02,9.691006690263748169e-02,4.340015351772308350e-02,-4.533037543296813965e-02,-2.918449789285659790e-02,-9.953586757183074951e-02,1.052495315670967102e-01,5.448077619075775146e-02,3.992508724331855774e-02,6.097951531410217285e-02,-1.048228517174720764e-01,-7.592035830020904541e-02,5.681176111102104187e-02,6.010030582547187805e-02
5.744413658976554871e-02,2.996179275214672089e-02,4.755645617842674255e-02,8.106142282485961914e-02,-1.483632624149322510e-02,8.751296252012252808e-02,5.459007341414690018e-03,-8.559101074934005737e-02,7.747270911931991577e-02,2.082026936113834381e-02,-1.651412993669509888e-02,5.744332820177078247e-02,1.344848871231079102e-01,1.733615063130855560e-02,-7.092697173357009888e-02,6.401484459638595581e-02,-9.693279117345809937e-02,-3.995752334594726562e-02,-5.217805877327919006e-02,9.321887977421283722e-03,9.557247906923294067e-02,-6.228186190128326416e-02,1.277981251478195190e-01,-1.526617351919412613e-02,5.143851041793823242e-02,2.694274857640266418e-02,-9.893510490655899048e-03,8.499870449304580688e-02,-2.463418431580066681e-02,5.001269653439521790e-02,1.410918235778808594e-01,-9.495177119970321655e-02,7.282142993062734604e-03,3.262840583920478821e-02,4.552357271313667297e-02,1.863417215645313263e-02,-3.244045376777648926e-02,-3.817500919103622437e-02,4.902851209044456482e-02,1.060447245836257935e-01,-4.266168549656867981e-02,-6.578671745955944061e-03,3.814341500401496887e-02,5.885242298245429993e-02,1.134089380502700806e-01,9.055423736572265625e-02,4.674181342124938965e-02,-1.526557188481092453e-02,1.985651403665542603e-01,4.832845553755760193e-02
-6.975898146629333496e-02,-8.094324916601181030e-02,8.844956010580062866e-02,1.708481311798095703e-01,9.919577836990356445e-02,4.743272811174392700e-02,2.217535115778446198e-02,-8.841293305158615112e-02,-6.815098971128463745e-02,-4.521856829524040222e-02,-7.881065458059310913e-02,-8.461693674325942993e-02,2.289761789143085480e-02,-4.254539683461189270e-02,-5.988315120339393616e-02,6.733294576406478882e-02,9.798793494701385498e-02,-2.728710323572158813e-02,-3.108671167865395546e-03,-1.301135681569576263e-02,-5.564870685338973999e-02,1.125784888863563538e-01,3.673263266682624817e-02,6.896468997001647949e-02,-2.534819953143596649e-02,1.041331961750984192e-01,7.215593755245208740e-02,-4.169889166951179504e-02,-5.074797943234443665e-02,6.499610841274261475e-02,-8.954616636037826538e-02,1.096481382846832275e-01,1.155811324715614319e-01,1.445922255516052246e-02,-2.623387239873409271e-02,1.380743272602558136e-02,4.308901354670524597e-02,6.653584539890289307e-02,-7.173001021146774292e-02,-8.100421726703643799e-02,-2.332582883536815643e-02,-9.170181304216384888e-02,-1.179727688431739807e-01,-3.108635917305946350e-02,-6.318011134862899780e-02,-6.064340844750404358e-02,-2.266368828713893890e-03,-3.874231874942779541e-02,1.841811317717656493e-04,7.075596600770950317e-02
3.809815645217895508e-02,-2.583653852343559265e-02,6.711001624353230000e-04,1.115848422050476074e-01,-1.116493344306945801e-02,3.853484615683555603e-02,2.363882958889007568e-02,9.461431950330734253e-02,-6.830040365457534790e-02,1.773071140050888062e-01,3.935396671295166016e-02,-1.000571101903915405e-01,-8.373577892780303955e-02,-6.949364393949508667e-02,-1.001993119716644287e-01,-7.749068737030029297e-02,-1.245024502277374268e-01,6.001729518175125122e-02,6.165753304958343506e-02,7.233604788780212402e-02,2.416504919528961182e-02,2.676897123456001282e-02,7.434491533786058426e-03,1.436061561107635498e-01,7.883676886558532715e-02,-5.450211837887763977e-02,3.836027160286903381e-02,3.526593372225761414e-02,2.265383675694465637e-02,1.049825362861156464e-02,5.932819843292236328e-02,6.220604106783866882e-02,1.911426894366741180e-02,-2.143081091344356537e-02,7.999906688928604126e-02,8.694693446159362793e-02,2.097640931606292725e-02,-6.605842709541320801e-02,5.728772655129432678e-02,1.125971451401710510e-01,-4.369197040796279907e-02,-1.018023714423179626e-01,-7.719854265451431274e-02,-5.680665373802185059e-02,2.321607805788516998e-02,1.234250441193580627e-01,6.056847423315048218e-02,3.618925809860229492e-02,-1.802852191030979156e-02,-3.119346126914024353e-02
-6.854788959026336670e-02,-2.123446390032768250e-02,2.095275744795799255e-02,1.662801392376422882e-02,9.109350293874740601e-02,-2.165152505040168762e-02,7.783100008964538574e-02,-6.534565985202789307e-02,1.849455200135707855e-02,1.299505084753036499e-01,1.204551234841346741e-01,7.727769669145345688e-03,-8.088280260562896729e-02,4.601554572582244873e-02,8.488620817661285400e-02,1.391959376633167267e-02,9.023612737655639648e-02,-3.708808124065399170e-02,-4.068197682499885559e-02,1.991109922528266907e-02,-1.144803027273155749e-04,-4.470920562744140625e-02,6.637939065694808960e-02,8.024095743894577026e-02,-3.707946464419364929e-02,6.205948814749717712e-02,-5.256333574652671814e-02,-7.981826364994049072e-02,-9.132029861211776733e-02,-6.976716220378875732e-02,8.167999982833862305e-02,7.115109264850616455e-02,7.420852780342102051e-02,-1.027197018265724182e-01,-7.611200958490371704e-02,5.244722589850425720e-02,5.383982509374618530e-02,4.768294468522071838e-02,-8.111725002527236938e-02,-1.960909180343151093e-02,6.143503356724977493e-03,3.929087519645690918e-02,-7.128659635782241821e-02,-5.684158205986022949e-02,2.484854497015476227e-02,4.793989285826683044e-02,-5.570806190371513367e-02,-2.610269375145435333e-02,6.503120064735412598e-02,5.391424521803855896e-02
5.868676304817199707e-02,1.034228224307298660e-02,8.806611597537994385e-02,-5.477805063128471375e-02,8.802322298288345337e-02,1.527266763150691986e-02,3.722637146711349487e-02,-6.395265460014343262e-02,-2.796177752315998077e-02,2.221699804067611694e-02,7.216151803731918335e-02,3.348003700375556946e-02,1.384548842906951904e-02,3.576294705271720886e-02,3.309991955757141113e-02,-4.465877637267112732e-02,-3.902763500809669495e-02,-1.054897159337997437e-02,4.208641871809959412e-02,4.092740640044212341e-02,-7.030615210533142090e-02,1.862908713519573212e-02,6.654217839241027832e-02,7.607028633356094360e-02,-9.063454717397689819e-02,6.594878435134887695e-02,9.731190651655197144e-02,-2.121327258646488190e-02,7.620199024677276611e-02,3.485521674156188965e-02,-5.917054787278175354e-02,-9.286993741989135742e-02,1.520182564854621887e-02,2.122047357261180878e-02,-2.339502610266208649e-02,1.794868148863315582e-02,-8.249600231647491455e-02,6.325823068618774414e-02,3.196874260902404785e-02,-8.191918581724166870e-02,-1.421709451824426651e-02,-3.606917336583137512e-02,-9.363129734992980957e-02,-9.667928330600261688e-03,2.095639891922473907e-02,1.398032158613204956e-02,3.834247356280684471e-03,1.101947762072086334e-02,2.697150595486164093e-02,6.017258390784263611e-02
-4.558132030069828033e-03,3.484867513179779053e-02,3.835481777787208557e-02,4.617784544825553894e-02,5.086968466639518738e-02,2.542836219072341919e-02,9.484165906906127930e-02,-2.862268686294555664e-02,-9.733434766530990601e-02,6.524366140365600586e-02,1.678116619586944580e-03,5.240042880177497864e-02,7.050059735774993896e-03,-8.319407701492309570e-02,-3.144033998250961304e-02,-9.991885721683502197e-02,1.157448589801788330e-01,-1.388792693614959717e-02,-1.059301942586898804e-01,-1.064166706055402756e-02,-9.778899699449539185e-02,9.716527163982391357e-02,-8.320987969636917114e-02,-1.411010604351758957e-02,-5.319157987833023071e-02,-5.726468563079833984e-02,1.799184456467628479e-02,2.562785893678665161e-02,-9.253589063882827759e-02,5.833355709910392761e-03,9.130660444498062134e-02,-5.446942523121833801e-02,-6.744410842657089233e-03,5.441029369831085205e-02,-5.404889956116676331e-02,7.530729472637176514e-02,8.063066005706787109e-02,1.622953079640865326e-02,1.385010313242673874e-02,1.733050681650638580e-02,7.547066360712051392e-02,-6.756386160850524902e-02,3.695653751492500305e-02,6.838265806436538696e-02,-1.615191251039505005e-02,3.771096840500831604e-02,1.152481324970722198e-02,3.083812445402145386e-02,8.405686914920806885e-02,8.439788967370986938e-02
-2.902254695072770119e-03,-1.410581730306148529e-02,5.227058753371238708e-02,1.101747229695320129e-01,2.460135892033576965e-02,-2.319426648318767548e-02,1.873669400811195374e-02,-6.840240955352783203e-02,-3.639679774641990662e-02,1.186487525701522827e-01,-5.112684890627861023e-02,-8.851490169763565063e-02,-7.242967188358306885e-02,4.900581389665603638e-02,-8.740238845348358154e-02,-3.395302966237068176e-02,7.310456596314907074e-03,1.432047039270401001e-02,1.214478313922882080e-01,6.695428397506475449e-03,1.084756404161453247e-01,-4.995138198137283325e-02,-9.990670531988143921e-02,1.108629629015922546e-01,-8.118546754121780396e-02,1.157597601413726807e-01,-8.307433128356933594e-02,-1.004563495516777039e-01,6.574822217226028442e-02,1.070659607648849487e-01,4.354500025510787964e-02,5.865383148193359375e-02,-5.535356700420379639e-02,-1.495073665864765644e-03,-2.048592269420623779e-02,-7.541144639253616333e-02,9.805981069803237915e-03,-8.784648030996322632e-03,-1.063289120793342590e-01,1.282714307308197021e-02,-2.902170643210411072e-02,3.144941106438636780e-02,8.137824386358261108e-02,6.599074695259332657e-03,-6.602101027965545654e-02,6.765311211347579956e-02,9.435318410396575928e-02,-6.258182227611541748e-02,2.854632958769798279e-02,-8.066997677087783813e-02
-3.929402679204940796e-02,-8.961983770132064819e-02,-3.191540017724037170e-02,1.221848651766777039e-01,8.387586474418640137e-02,4.314168822020292282e-03,4.867094382643699646e-02,5.628599226474761963e-02,-4.886722937226295471e-02,2.880841679871082306e-02,1.879091188311576843e-02,-8.767522871494293213e-02,3.642664849758148193e-02,6.832440197467803955e-02,-8.375220745801925659e-02,2.790965884923934937e-02,-8.881144970655441284e-02,9.335806220769882202e-02,-2.559641748666763306e-02,4.007220268249511719e-02,1.077331230044364929e-01,9.984450787305831909e-02,-6.547231227159500122e-02,1.074201688170433044e-01,-4.529064521193504333e-02,-8.511718362569808960e-02,1.784365624189376831e-02,-5.635096132755279541e-02,3.494365140795707703e-02,7.030050619505345821e-04,-8.644187450408935547e-02,-1.225364115089178085e-02,-7.382714748382568359e-02,6.415154784917831421e-02,-5.377149954438209534e-02,-3.971322625875473022e-02,8.879949897527694702e-02,4.338970407843589783e-02,3.512822836637496948e-02,1.363279577344655991e-02,5.909329652786254883e-02,2.908075926825404167e-03,9.282806888222694397e-03,-1.947426982223987579e-02,-1.009894311428070068e-01,3.142016381025314331e-02,4.621786251664161682e-02,-6.767424941062927246e-02,1.115580126643180847e-01,-9.360563009977340698e-03
1.087970435619354248e-01,5.789588019251823425e-02,-8.354418724775314331e-02,-3.253349661827087402e-02,-1.469257753342390060e-02,8.188493549823760986e-02,2.868504263460636139e-02,1.213203370571136475e-02,3.195676580071449280e-02,6.843463331460952759e-02,-2.303259633481502533e-02,-7.679755985736846924e-02,-7.047288119792938232e-02,-2.413790114223957062e-02,7.340786512941122055e-03,-7.770520448684692383e-02,-6.087271496653556824e-02,-8.614623546600341797e-02,4.426594823598861694e-02,5.917096510529518127e-02,-5.376481264829635620e-02,-3.002493828535079956e-02,8.546414971351623535e-02,3.759048506617546082e-02,-4.892034456133842468e-02,2.895586565136909485e-02,6.650911271572113037e-02,-9.738644585013389587e-03,-9.214655496180057526e-03,-3.168775513768196106e-02,-7.180500030517578125e-02,-5.767708271741867065e-02,3.812718018889427185e-02,1.048012054525315762e-03,2.757956087589263916e-02,3.427303209900856018e-02,-9.199872612953186035e-02,4.380161408334970474e-04,-1.612163148820400238e-03,-6.969992071390151978e-02,4.005434364080429077e-02,-6.569575518369674683e-02,-6.239453330636024475e-02,3.907259553670883179e-02,8.785987645387649536e-02,1.012506783008575439e-01,4.442384093999862671e-02,2.251774771139025688e-03,1.069437712430953979e-01,5.186270177364349365e-02
-4.228615388274192810e-02,9.089937806129455566e-02,1.198906674981117249e-01,1.095844283699989319e-01,-7.761634886264801025e-02,-3.210936114192008972e-02,1.061611175537109375e-01,-7.676427811384201050e-02,-8.549965173006057739e-02,4.502702131867408752e-02,-5.807330086827278137e-02,7.712280750274658203e-02,-7.981901057064533234e-03,5.372839793562889099e-02,-9.093973040580749512e-02,8.574722707271575928e-02,8.794219046831130981e-02,-9.602898359298706055e-02,-2.438028529286384583e-02,-3.309141099452972412e-02,-4.792462289333343506e-02,1.180266737937927246e-01,-4.674892127513885498e-02,1.144695430994033813e-01,-1.071339566260576248e-02,-5.037165246903896332e-03,-1.314516644924879074e-02,2.804132364690303802e-02,5.461275205016136169e-02,1.134079508483409882e-02,-7.726075593382120132e-03,-1.962341740727424622e-02,2.278933301568031311e-02,7.537210732698440552e-02,-6.761041283607482910e-02,7.845762372016906738e-02,9.203171730041503906e-02,-6.985326856374740601e-02,3.332689031958580017e-02,9.042967110872268677e-02,-2.656768821179866791e-02,9.479787945747375488e-02,1.480924896895885468e-02,-2.183035947382450104e-02,5.623133480548858643e-02,3.790540993213653564e-02,-7.840447127819061279e-03,-3.806621208786964417e-02,1.332755014300346375e-02,2.628721483051776886e-02
-2.518159523606300354e-02,3.893309086561203003e-02,1.418414874933660030e-03,-1.658238098025321960e-02,3.973590210080146790e-02,5.080893263220787048e-02,-9.603932499885559082e-02,1.006469205021858215e-01,-1.344051584601402283e-02,6.372462213039398193e-02,-5.818098783493041992e-02,-5.875186622142791748e-02,-1.151997875422239304e-02,9.771956503391265869e-02,1.534739136695861816e-02,-4.433294385671615601e-02,3.968111425638198853e-02,-3.746196627616882324e-03,-8.701280504465103149e-02,-2.386931329965591431e-03,6.362996995449066162e-02,4.520411789417266846e-02,3.216990455985069275e-02,-3.125490993261337280e-02,8.212982118129730225e-02,1.048673409968614578e-02,4.815740883350372314e-02,-3.315709531307220459e-02,4.367418959736824036e-02,6.895252317190170288e-02,8.545057475566864014e-02,-5.774960294365882874e-02,-2.165479399263858795e-02,-5.619097501039505005e-02,9.955813735723495483e-02,1.872004126198589802e-03,-2.778459154069423676e-02,5.077421292662620544e-02,-9.326949715614318848e-02,-6.524877250194549561e-02,4.119817540049552917e-02,1.287291850894689560e-02,-3.354331105947494507e-02,-5.109666660428047180e-02,-3.242260962724685669e-02,-2.222221530973911285e-02,-5.263774842023849487e-02,-7.775653153657913208e-02,-3.512731194496154785e-02,-8.964402228593826294e-02
4.664073884487152100e-02,2.712803892791271210e-02,-1.022111549973487854e-01,5.718095600605010986e-02,6.206100061535835266e-02,-2.785909548401832581e-02,-1.081085577607154846e-01,-9.353616833686828613e-02,8.066093921661376953e-02,5.163835734128952026e-02,-1.992475241422653198e-02,-1.257651136256754398e-03,1.038860902190208435e-01,-5.072807520627975464e-02,-1.464234665036201477e-02,9.511169977486133575e-03,-2.656487748026847839e-02,-6.423227488994598389e-02,1.044757589697837830e-01,8.606731146574020386e-02,-3.686814755201339722e-02,-6.352426111698150635e-02,-1.510990876704454422e-02,2.798876166343688965e-02,-4.914914071559906006e-02,-1.325620245188474655e-02,-6.140478327870368958e-02,6.928764283657073975e-02,-7.275635004043579102e-02,-7.820511818863451481e-04,4.667857289314270020e-02,9.472379088401794434e-02,2.995251119136810303e-02,-9.617244452238082886e-02,-8.340651541948318481e-02,-4.840263724327087402e-02,-5.649320408701896667e-02,2.463555708527565002e-02,2.331850351765751839e-03,-2.203783020377159119e-03,4.816293343901634216e-02,-1.197444088757038116e-02,-6.448505073785781860e-02,6.530153751373291016e-02,4.154176265001296997e-02,1.420589070767164230e-02,8.954451419413089752e-03,2.839253284037113190e-02,1.059740036725997925e-02,-7.657144218683242798e-02
9.041493386030197144e-02,-8.242319524288177490e-02,-1.496881693601608276e-01,1.121360212564468384e-01,-1.559882424771785736e-02,-4.562389478087425232e-02,-6.426239758729934692e-02,8.216506987810134888e-02,2.383187413215637207e-02,-2.051844820380210876e-02,8.799716830253601074e-02,6.334574520587921143e-02,-6.396774947643280029e-02,1.028818488121032715e-01,1.756469905376434326e-02,-6.577813625335693359e-02,-1.478361934423446655e-01,4.835756868124008179e-02,1.738614961504936218e-02,-9.605911374092102051e-02,-2.386066876351833344e-02,1.969520002603530884e-02,6.435538083314895630e-02,4.708924889564514160e-02,5.857477709650993347e-02,1.275489032268524170e-01,-9.012072533369064331e-02,-1.569059304893016815e-02,8.906237035989761353e-02,-5.515460669994354248e-02,-4.124015197157859802e-02,-9.432102553546428680e-03,-5.650738626718521118e-02,4.249203577637672424e-02,-3.574718907475471497e-02,6.382095813751220703e-02,1.551340222358703613e-01,-6.441859155893325806e-02,-1.231454405933618546e-02,8.951469510793685913e-02,-5.485459044575691223e-02,6.670629978179931641e-02,-6.896641850471496582e-02,3.404650837182998657e-02,6.284756213426589966e-02,1.182465106248855591e-01,-3.492058441042900085e-02,-1.537624653428792953e-02,1.574580520391464233e-01,-2.177042886614799500e-02
-8.808839321136474609e-02,6.261315196752548218e-02,1.750958710908889771e-01,1.358102262020111084e-01,1.415494531393051147e-01,-6.131583824753761292e-02,-4.392096772789955139e-02,6.576061248779296875e-02,-3.478906583040952682e-03,-6.826933473348617554e-02,-7.759641855955123901e-02,-4.556773602962493896e-02,-1.804218441247940063e-02,-6.476353388279676437e-03,-9.495045989751815796e-02,-5.442772805690765381e-02,1.565850675106048584e-01,-8.735715597867965698e-02,4.155079834163188934e-03,-4.079194739460945129e-02,-4.445631802082061768e-02,1.830639094114303589e-01,-2.340320125222206116e-02,4.237845167517662048e-02,-3.861344978213310242e-02,-6.948579102754592896e-02,2.512676455080509186e-02,4.066745750606060028e-04,-7.881283015012741089e-02,2.230746485292911530e-02,-4.815913364291191101e-02,7.422762364149093628e-02,2.859172970056533813e-02,4.730368405580520630e-02,1.436328515410423279e-02,7.311684638261795044e-02,-8.537195622920989990e-02,8.913901634514331818e-03,-3.053493984043598175e-02,8.522857725620269775e-02,1.988881230354309082e-01,8.462571352720260620e-02,-6.833223253488540649e-02,-2.314050123095512390e-02,5.088161304593086243e-02,1.787397824227809906e-02,8.275698870420455933e-02,1.765010654926300049e-01,-9.827485680580139160e-02,-3.542638570070266724e-02
1.551791187375783920e-02,-5.546476319432258606e-02,1.744988411664962769e-01,-3.620644286274909973e-02,1.222859472036361694e-01,-6.015048176050186157e-02,1.398829519748687744e-01,-1.485890150070190430e-02,3.738433495163917542e-02,-4.693341255187988281e-02,-1.553991250693798065e-02,8.416874706745147705e-02,4.734307527542114258e-02,-8.084932714700698853e-02,-2.394942566752433777e-02,9.084961563348770142e-02,7.699476182460784912e-02,2.555382996797561646e-02,5.529892444610595703e-02,-8.159279823303222656e-02,-9.627330303192138672e-02,5.411804094910621643e-02,-1.419977378100156784e-02,1.337153762578964233e-01,-9.051062166690826416e-03,7.241839170455932617e-02,1.922823190689086914e-01,7.711849361658096313e-02,-7.545132935047149658e-02,-3.786191716790199280e-02,-4.142852127552032471e-02,6.436097621917724609e-02,1.596544682979583740e-01,2.532498165965080261e-02,-6.234671548008918762e-02,2.839208347722887993e-03,7.065672427415847778e-03,-3.199156140908598900e-03,9.736829251050949097e-02,-4.219577461481094360e-02,1.875593215227127075e-01,3.528537601232528687e-02,-7.080935407429933548e-03,6.994549185037612915e-02,1.353548467159271240e-02,1.514523196965456009e-02,2.224712818861007690e-02,1.141953393816947937e-01,3.842428326606750488e-02,2.995400130748748779e-02
-7.580877840518951416e-02,7.508092094212770462e-03,7.501722127199172974e-02,-5.945239588618278503e-02,-2.982594305649399757e-03,1.014329642057418823e-01,-7.125034183263778687e-02,3.044874221086502075e-02,-4.705245792865753174e-02,8.983559906482696533e-03,-2.579439990222454071e-02,5.108628422021865845e-02,7.686600089073181152e-02,9.242405742406845093e-02,2.793458104133605957e-02,6.174043565988540649e-02,3.718012198805809021e-02,-9.931041300296783447e-02,8.633491583168506622e-03,8.104724809527397156e-03,9.596004337072372437e-02,4.597165063023567200e-02,-4.919770639389753342e-03,2.670767344534397125e-02,6.044962257146835327e-02,1.005185395479202271e-01,-7.486328016966581345e-03,1.613221690058708191e-02,5.209439247846603394e-02,4.754452407360076904e-02,7.736972719430923462e-02,4.502453957684338093e-04,-5.169628653675317764e-03,-1.651934720575809479e-02,1.173344850540161133e-01,4.018379747867584229e-02,8.234381675720214844e-02,-8.640873432159423828e-02,-3.574529290199279785e-02,5.764062330126762390e-02,2.016014978289604187e-02,3.192564472556114197e-02,-1.256043370813131332e-02,7.786396145820617676e-02,6.402858346700668335e-02,-7.715342193841934204e-02,2.372522838413715363e-02,-1.930531114339828491e-03,9.359527379274368286e-03,1.136259268969297409e-02
1.026399508118629456e-01,-1.832128129899501801e-02,7.645580172538757324e-02,8.144621737301349640e-03,-7.587081193923950195e-02,-1.515067834407091141e-02,-2.799914684146642685e-03,1.676334813237190247e-02,2.498007565736770630e-02,8.278355747461318970e-02,7.446415722370147705e-02,-4.814149066805839539e-02,-6.549535691738128662e-02,-2.751127071678638458e-02,-4.500623047351837158e-02,5.220056325197219849e-02,4.333333298563957214e-02,1.074025779962539673e-02,6.242508813738822937e-02,6.171619892120361328e-02,8.665648102760314941e-02,-5.315104499459266663e-02,6.920106709003448486e-03,4.341117746662348509e-04,-5.646701902151107788e-02,-1.073240069672465324e-03,-6.231223046779632568e-02,7.126093655824661255e-02,-1.066138967871665955e-02,-1.368734426796436310e-02,4.256221652030944824e-02,-6.014459952712059021e-02,9.047275781631469727e-02,-1.066864840686321259e-02,-5.073542147874832153e-02,7.312949746847152710e-02,1.714342087507247925e-02,3.470752015709877014e-02,1.846713712438941002e-03,-5.701225250959396362e-02,2.840881794691085815e-02,-3.691512718796730042e-02,5.704479664564132690e-02,6.665667891502380371e-02,-6.952605396509170532e-02,2.509305067360401154e-02,9.783912450075149536e-02,3.586194291710853577e-02,-3.526720404624938965e-02,-8.978392183780670166e-02
4.986704327166080475e-03,7.955894619226455688e-02,1.336811203509569168e-02,-2.584155090153217316e-02,4.125085100531578064e-02,-9.334329515695571899e-03,-5.945153161883354187e-02,-5.278792232275009155e-02,-4.040118306875228882e-02,6.961275637149810791e-02,-8.186107128858566284e-02,6.731963157653808594e-02,2.425180561840534210e-02,-8.143319934606552124e-02,7.907343097031116486e-03,-5.359327793121337891e-02,8.373250812292098999e-02,2.514372020959854126e-02,-9.285549819469451904e-02,7.594900578260421753e-02,-4.398096352815628052e-02,-2.160138078033924103e-02,6.343546509742736816e-02,-2.110820822417736053e-02,-1.381915248930454254e-02,-6.486564874649047852e-02,7.719975709915161133e-02,6.241500005125999451e-02,-7.240710407495498657e-02,4.676275700330734253e-02,9.485993534326553345e-03,2.545813843607902527e-02,6.334214657545089722e-02,-5.234242603182792664e-02,1.418862212449312210e-02,1.373736280947923660e-02,-3.365159779787063599e-02,5.601611360907554626e-02,1.249610446393489838e-02,-1.871397159993648529e-02,-1.010360568761825562e-01,-5.716428626328706741e-03,3.214762359857559204e-02,-2.524810610339045525e-03,8.573344349861145020e-02,1.006203889846801758e-01,-8.923811465501785278e-02,5.102141201496124268e-02,1.581416651606559753e-02,-8.370682597160339355e-02
3.378435596823692322e-02,9.548212587833404541e-02,-1.915385387837886810e-02,-2.599159255623817444e-02,-8.649630099534988403e-02,-3.198743239045143127e-02,1.616715453565120697e-03,-5.308448150753974915e-02,5.022656545042991638e-02,-7.032890338450670242e-03,9.406830370426177979e-02,1.809849031269550323e-02,-4.773498326539993286e-02,3.991935774683952332e-02,1.252103690057992935e-02,5.962646752595901489e-02,-4.163742065429687500e-02,-4.942140728235244751e-02,7.908402383327484131e-02,9.631112217903137207e-02,-1.781514286994934082e-02,6.666260212659835815e-02,-8.264093846082687378e-02,9.033310227096080780e-03,-3.945438191294670105e-02,-4.106071963906288147e-02,7.499630749225616455e-02,-3.881043940782546997e-02,-7.449090480804443359e-02,1.402600482106208801e-02,-4.095528647303581238e-02,4.272901639342308044e-02,-2.997889183461666107e-02,-3.611999750137329102e-02,-2.711830846965312958e-02,-7.254562526941299438e-02,-6.828081607818603516e-02,8.138378709554672241e-02,4.594736173748970032e-02,-6.352852564305067062e-03,-5.723485723137855530e-03,-9.634435176849365234e-02,-5.690217390656471252e-02,4.237616434693336487e-02,-3.991788253188133240e-02,-7.831039279699325562e-02,1.061711087822914124e-02,7.967320084571838379e-02,9.092500805854797363e-02,-1.579886488616466522e-02
-2.344310656189918518e-02,5.700801685452461243e-02,8.676714450120925903e-02,5.698042362928390503e-02,6.130560860037803650e-02,-1.806202530860900879e-02,-4.968651756644248962e-02,6.245769932866096497e-02,-2.572920359671115875e-02,-1.739058643579483032e-02,-9.115701168775558472e-02,8.471573889255523682e-02,-5.683684721589088440e-02,-2.660671621561050415e-02,3.182276710867881775e-02,1.863354444503784180e-02,7.547602057456970215e-02,-1.711075007915496826e-02,1.585408899700269103e-04,-8.717711898498237133e-04,6.868435442447662354e-02,-6.508368253707885742e-02,-5.401702970266342163e-02,-5.442817509174346924e-02,-5.112320557236671448e-02,-1.472963951528072357e-02,7.452163845300674438e-02,1.041794288903474808e-02,-6.029376760125160217e-02,-5.400684475898742676e-02,9.317932277917861938e-02,-8.251450210809707642e-02,8.192940801382064819e-02,3.344481065869331360e-02,-3.099205158650875092e-02,-1.053821574896574020e-02,1.718424446880817413e-02,6.773128174245357513e-03,4.571666568517684937e-02,-2.429540501907467842e-03,-4.045461490750312805e-02,-7.995997369289398193e-02,-7.776140421628952026e-02,-7.005942612886428833e-02,5.880060046911239624e-02,-8.935374021530151367e-02,1.522821653634309769e-02,-4.677687771618366241e-03,-4.824061319231987000e-02,9.922816604375839233e-02
-4.397983103990554810e-02,6.517433375120162964e-02,-8.587365597486495972e-02,7.434609532356262207e-02,2.356388047337532043e-02,-6.819999963045120239e-02,-1.275199558585882187e-02,-6.426385790109634399e-02,1.094643995165824890e-01,3.205992281436920166e-02,5.552521720528602600e-02,2.265817672014236450e-02,7.043524086475372314e-02,-2.081461809575557709e-02,4.666654393076896667e-02,-5.402937531471252441e-02,-2.058992721140384674e-02,6.837870925664901733e-02,7.305721193552017212e-02,-2.730204164981842041e-02,1.006446033716201782e-02,7.350998930633068085e-03,-1.522203069180250168e-02,7.820320874452590942e-02,2.994673140347003937e-02,8.992301672697067261e-02,-1.082046180963516235e-01,3.628327278420329094e-03,3.284450620412826538e-02,8.891808241605758667e-02,-6.832022219896316528e-02,-2.651743404567241669e-02,3.143825754523277283e-02,3.195469453930854797e-02,3.177579492330551147e-02,2.494139038026332855e-02,1.503539383411407471e-01,8.019904606044292450e-03,-3.519732877612113953e-02,-6.241899356245994568e-02,-7.000467926263809204e-02,8.861728012561798096e-02,1.668459922075271606e-02,6.245785579085350037e-02,8.748547732830047607e-02,8.127083629369735718e-02,8.529225364327430725e-03,-1.074753180146217346e-01,1.250860393047332764e-01,-4.739032685756683350e-02
-2.718495950102806091e-02,5.144451186060905457e-02,8.323227614164352417e-02,7.064821664243936539e-03,1.329424977302551270e-02,3.408050164580345154e-02,4.605322703719139099e-02,3.072251006960868835e-02,-2.274081297218799591e-02,4.137453064322471619e-02,3.750026971101760864e-02,6.140538305044174194e-02,-1.762498542666435242e-02,-3.644632920622825623e-02,3.754720091819763184e-03,-4.382541403174400330e-02,4.769741743803024292e-02,8.629729598760604858e-02,-9.211715310811996460e-02,2.156376652419567108e-02,4.106967151165008545e-02,5.970496684312820435e-02,-8.845438063144683838e-02,3.922211751341819763e-02,-4.477718845009803772e-02,-4.185856133699417114e-02,5.810649134218692780e-03,6.851196289062500000e-02,4.582419618964195251e-02,-2.046616561710834503e-02,7.557804882526397705e-02,-5.264048278331756592e-02,-2.327676629647612572e-03,3.970073908567428589e-02,-6.753728725016117096e-03,5.274228751659393311e-03,-1.212442591786384583e-01,-2.219404093921184540e-02,7.426028698682785034e-02,-7.740968465805053711e-02,3.990120068192481995e-02,-9.713447839021682739e-02,-5.781918391585350037e-02,-1.087812706828117371e-02,-4.185638576745986938e-02,-7.990358769893646240e-02,4.565886780619621277e-02,8.513317257165908813e-02,-2.750353515148162842e-02,8.670365065336227417e-02
7.312657684087753296e-02,-1.097375061362981796e-03,7.300581783056259155e-02,3.788143023848533630e-02,-9.552837908267974854e-02,6.177018210291862488e-02,-2.719278074800968170e-02,6.299643963575363159e-02,-4.128590598702430725e-02,9.975132346153259277e-02,2.900243550539016724e-02,-5.497067794203758240e-02,-3.825998306274414062e-02,6.142192520201206207e-03,9.379845857620239258e-02,4.135644063353538513e-02,4.376550763845443726e-02,2.432064712047576904e-02,-7.996923476457595825e-02,8.894018828868865967e-02,3.321255743503570557e-02,-4.207259044051170349e-02,4.173501953482627869e-02,3.176775574684143066e-02,-2.528816647827625275e-02,4.321094229817390442e-02,-4.544164240360260010e-02,4.220600798726081848e-02,3.087365813553333282e-02,-2.958114026114344597e-03,9.978083521127700806e-02,-9.490118175745010376e-02,-4.324312508106231689e-02,-2.266656421124935150e-02,3.967741504311561584e-02,-4.694331903010606766e-03,-3.941727802157402039e-02,8.798067271709442139e-02,-7.878807932138442993e-02,-4.250921681523323059e-02,2.890436910092830658e-02,7.608201354742050171e-02,-2.210829406976699829e-02,-7.450827211141586304e-02,-2.399483509361743927e-02,8.596969395875930786e-02,1.027755439281463623e-03,2.635985426604747772e-02,-2.564087323844432831e-02,-4.449514672160148621e-02
-1.049712020903825760e-02,-3.640712052583694458e-02,-2.021972648799419403e-02,-1.809833198785781860e-02,9.307228028774261475e-02,-1.033791676163673401e-01,-1.806277595460414886e-02,9.483838826417922974e-02,-8.985177427530288696e-02,3.611471503973007202e-02,3.488555923104286194e-02,1.274667307734489441e-02,-8.039475977420806885e-02,-4.072194546461105347e-02,-7.646504044532775879e-02,-9.168403595685958862e-02,1.601759940385818481e-01,2.255545556545257568e-02,3.371191024780273438e-02,2.863895706832408905e-02,6.239498406648635864e-02,8.238462358713150024e-02,-1.266712415963411331e-02,3.709740564227104187e-02,7.329661399126052856e-02,5.809716880321502686e-02,1.536424458026885986e-01,1.393860578536987305e-01,-8.927351236343383789e-02,6.096470355987548828e-02,2.085863985121250153e-02,6.890604645013809204e-02,1.328495591878890991e-01,6.769424676895141602e-02,-1.693679951131343842e-02,4.178452771157026291e-03,-2.987806312739849091e-02,-9.230913221836090088e-02,-3.206306695938110352e-02,-2.786180935800075531e-02,-3.118992410600185394e-02,-4.681807011365890503e-02,4.902719333767890930e-02,3.185014054179191589e-02,5.101056769490242004e-02,5.367767810821533203e-02,8.097750693559646606e-02,4.841160774230957031e-02,-5.967543646693229675e-02,-4.602364823222160339e-02
