6.661376357078552246e-02
6.725448369979858398e-02
5.507120117545127869e-02
1.132590770721435547e-01
-2.011627145111560822e-02
5.882196500897407532e-02
9.045977890491485596e-02
-7.674028724431991577e-02
-3.844583779573440552e-02
-7.469413429498672485e-02
8.054398000240325928e-02
1.000639945268630981e-01
8.641187846660614014e-02
-3.198620676994323730e-02
-6.528586894273757935e-02
-7.418539375066757202e-02
-6.710098590701818466e-03
1.408647298812866211e-01
2.541231922805309296e-02
-5.270484089851379395e-02
1.768008023500442505e-01
-6.042010709643363953e-02
4.372360557317733765e-02
2.234615758061408997e-02
9.427691996097564697e-02
5.003006756305694580e-02
-5.694009363651275635e-02
2.234569005668163300e-02
7.088702172040939331e-02
5.140070989727973938e-02
2.152857035398483276e-01
7.010801136493682861e-02
-5.121083557605743408e-02
-6.357515230774879456e-04
9.471168369054794312e-02
-3.045273199677467346e-02
2.322749644517898560e-01
-5.203810520470142365e-03
-3.494568401947617531e-03
-2.323193661868572235e-02
2.003658004105091095e-02
-4.256863519549369812e-02
3.818619251251220703e-02
-5.724236369132995605e-02
1.182501316070556641e-01
2.080769836902618408e-02
7.274194061756134033e-02
4.296742379665374756e-02
3.618184477090835571e-02
3.483175858855247498e-02
