1.026182398200035095e-01,6.444118916988372803e-02,1.272695958614349365e-01,-4.115340113639831543e-02,-6.557256728410720825e-02,6.767686456441879272e-02,1.828403770923614502e-02,-1.003080904483795166e-01,-2.761615067720413208e-02,-1.176190748810768127e-01,-1.008753105998039246e-01,-7.148882746696472168e-02,8.042178303003311157e-02,-7.909007370471954346e-03,4.363506287336349487e-02,7.508657872676849365e-02,-2.556916140019893646e-02,-5.508340522646903992e-02,2.624643221497535706e-02,6.603224668651819229e-03,2.552510611712932587e-02,5.724972113966941833e-02,-3.251916170120239258e-02,3.870106860995292664e-02,1.293386239558458328e-02,-5.198506265878677368e-02,-1.285819560289382935e-01,9.457860887050628662e-02,4.482252150774002075e-02,2.682116813957691193e-02,-2.895040810108184814e-02,-2.626879326999187469e-02,-4.172215610742568970e-02,7.380868494510650635e-02,-4.887446388602256775e-02,8.629755116999149323e-03,6.431908905506134033e-02,4.134128615260124207e-02,5.500606261193752289e-03,4.317996650934219360e-02,3.897134959697723389e-02,-3.995688259601593018e-02,-7.296575605869293213e-02,-1.279672887176275253e-02,6.943170726299285889e-02,8.011404424905776978e-02,1.075424179434776306e-01,1.425718050450086594e-02,-5.865265429019927979e-02,-2.245255559682846069e-02,3.968561813235282898e-02,-3.803837671875953674e-02,-6.789292395114898682e-02,-3.481033071875572205e-02,5.706206336617469788e-02,-8.206406980752944946e-02,-7.538206130266189575e-02,-7.420167326927185059e-02,1.156938448548316956e-01,-2.331207506358623505e-02,-2.569351159036159515e-02,-5.730465427041053772e-02,7.114605605602264404e-02,-4.208038747310638428e-02,6.558871362358331680e-03,2.470525912940502167e-02,5.379936844110488892e-02,-2.948911860585212708e-02,-6.196023151278495789e-02,1.049825400114059448e-01,-1.827824860811233521e-02,1.956718228757381439e-02,-7.023247331380844116e-02,4.966093972325325012e-02,-7.415459305047988892e-02,2.276726439595222473e-02,1.756298542022705078e-02,-6.700430810451507568e-02,1.144896298646926880e-01,4.024326801300048828e-02,-7.236283272504806519e-02,1.430008411407470703e-01,7.534310966730117798e-02,1.590316742658615112e-02,-1.119552701711654663e-01,-8.171351999044418335e-02,-2.684988267719745636e-02,-5.518312379717826843e-02,1.039058044552803040e-01,1.356946974992752075e-01,9.472656995058059692e-02,8.521638810634613037e-02,1.016873717308044434e-01,4.604431241750717163e-02,-4.661149531602859497e-02,1.246813833713531494e-01,3.907723352313041687e-02,1.982025429606437683e-02,-5.015560612082481384e-02,6.118420511484146118e-02
-5.965077877044677734e-02,2.268395200371742249e-02,1.078349426388740540e-01,-7.440170645713806152e-02,5.872169509530067444e-02,-2.226581238210201263e-02,6.659746915102005005e-02,-3.844159841537475586e-02,-7.591391354799270630e-02,-4.146596416831016541e-02,8.830074220895767212e-03,-4.656191915273666382e-02,-7.969696819782257080e-02,8.100596070289611816e-02,-8.520299452356994152e-04,-3.829314932227134705e-02,-9.430226683616638184e-02,8.324430882930755615e-02,8.258163928985595703e-02,-8.030742406845092773e-02,-1.154300048947334290e-01,3.969695419073104858e-02,-1.000118479132652283e-01,2.313173003494739532e-02,-7.226668763905763626e-03,4.984650760889053345e-02,-3.995211422443389893e-02,1.465387493371963501e-01,-2.648598141968250275e-02,6.067425385117530823e-02,-8.270728588104248047e-02,6.605062633752822876e-02,-2.365811727941036224e-02,6.118052452802658081e-02,-6.396959722042083740e-02,-1.909312978386878967e-02,1.236353907734155655e-02,8.501999825239181519e-02,1.446137856692075729e-02,5.294241383671760559e-02,-7.513775676488876343e-02,4.007574543356895447e-02,3.336967155337333679e-02,-3.745710710063576698e-03,-1.640987955033779144e-02,2.652155980467796326e-02,-5.602928996086120605e-02,-9.690438956022262573e-02,1.112722232937812805e-01,-7.925721257925033569e-02,7.065048068761825562e-02,-5.845620855689048767e-02,-1.488696411252021790e-02,-4.258779436349868774e-02,7.309820502996444702e-02,1.115525513887405396e-01,5.054748430848121643e-02,5.927925184369087219e-02,3.710588440299034119e-02,1.147993728518486023e-01,-3.772042319178581238e-02,-2.261257171630859375e-02,-3.267231956124305725e-02,-5.147604271769523621e-03,1.443402003496885300e-02,7.786829769611358643e-02,-8.598537184298038483e-03,9.598661959171295166e-02,6.351564079523086548e-02,3.501795232295989990e-02,1.991871930658817291e-02,-8.592799305915832520e-02,-9.373556822538375854e-02,5.419822037220001221e-02,-1.711478270590305328e-02,4.071650654077529907e-02,-5.864360183477401733e-02,7.416065782308578491e-02,-2.862391620874404907e-02,3.941688314080238342e-02,3.235454857349395752e-02,6.342427432537078857e-02,6.851240247488021851e-02,-1.076522376388311386e-02,1.382274273782968521e-02,-7.556930184364318848e-02,-9.351244568824768066e-02,9.113219380378723145e-02,1.010426506400108337e-01,4.037032648921012878e-02,1.470366679131984711e-02,2.689104527235031128e-02,7.375136762857437134e-02,-4.460768401622772217e-02,-7.538060657680034637e-03,1.060061231255531311e-01,7.641672343015670776e-02,-8.686758577823638916e-02,-1.107652261853218079e-01,2.833049744367599487e-02
-6.899444013833999634e-02,-1.091575697064399719e-01,7.356345653533935547e-02,8.180472254753112793e-02,1.262996345758438110e-02,7.645322382450103760e-02,-5.336748808622360229e-02,7.668120414018630981e-02,-5.932730063796043396e-02,1.274440884590148926e-01,7.915141060948371887e-03,-3.083714656531810760e-02,9.682483226060867310e-02,-3.807989880442619324e-02,5.427491292357444763e-02,8.798024058341979980e-02,-2.792191319167613983e-02,-1.304135099053382874e-02,-8.880426175892353058e-03,-2.434859983623027802e-02,3.274544328451156616e-02,-9.617584943771362305e-02,-7.290100911632180214e-04,7.801884412765502930e-02,-5.529190599918365479e-02,-7.745140045881271362e-02,4.654737189412117004e-03,4.052659869194030762e-02,-9.190551191568374634e-02,-9.292488917708396912e-03,-8.344942331314086914e-02,-8.076220005750656128e-02,-7.333508133888244629e-02,-3.434680402278900146e-02,-8.231681585311889648e-02,-9.374645538628101349e-03,1.997483521699905396e-02,1.717828772962093353e-02,9.444943815469741821e-02,9.778843075037002563e-02,-6.922452151775360107e-02,1.785943843424320221e-02,6.466410309076309204e-02,-4.840276017785072327e-02,-7.853014767169952393e-02,5.243925750255584717e-02,8.570937067270278931e-02,-3.242485597729682922e-02,-1.689472235739231110e-02,6.926006078720092773e-02,-1.123224943876266479e-01,-6.442209333181381226e-02,-6.426703929901123047e-02,7.362303137779235840e-02,3.341744467616081238e-02,-1.018147990107536316e-01,3.666104981675744057e-03,-1.267930865287780762e-02,-6.957321614027023315e-02,8.125991374254226685e-02,-4.416946103447116911e-05,9.002101421356201172e-02,5.697837099432945251e-02,-2.326138131320476532e-02,8.600636571645736694e-02,4.711025208234786987e-02,-9.562187641859054565e-02,4.713530838489532471e-02,-8.094351738691329956e-02,5.961493775248527527e-02,1.556797139346599579e-02,1.739356294274330139e-02,6.691892445087432861e-02,-3.735670447349548340e-02,-7.656609266996383667e-02,-3.052949532866477966e-02,7.336069643497467041e-02,-2.233773097395896912e-02,-4.943301528692245483e-02,3.137465938925743103e-02,9.486959874629974365e-02,8.974172174930572510e-02,-1.802958548069000244e-02,6.351403146982192993e-02,5.197514593601226807e-02,1.366102099418640137e-01,-7.027222216129302979e-02,-3.593163937330245972e-02,-6.357740610837936401e-02,3.844960778951644897e-02,9.896668791770935059e-02,-8.230953663587570190e-02,-8.935737609863281250e-02,8.162658661603927612e-02,-3.479168564081192017e-02,-1.965812593698501587e-02,-9.139890968799591064e-02,8.648960292339324951e-02,1.679793372750282288e-02,3.357559815049171448e-02
-2.569393999874591827e-02,-3.260674327611923218e-02,1.271653622388839722e-01,1.213573152199387550e-03,-1.577230729162693024e-02,1.637993603944778442e-01,-5.429079756140708923e-02,9.239067882299423218e-02,-4.049499332904815674e-02,1.059886291623115540e-01,8.685060590505599976e-02,3.463156521320343018e-02,-1.388022862374782562e-02,9.844276309013366699e-02,6.455738097429275513e-02,6.828774511814117432e-02,5.676094442605972290e-02,-9.915921837091445923e-02,-6.691676378250122070e-02,3.685968229547142982e-03,2.686845883727073669e-02,8.504912257194519043e-02,-9.646336734294891357e-02,2.408700808882713318e-02,-2.695319429039955139e-02,3.733967989683151245e-02,7.391476631164550781e-02,2.838270179927349091e-02,6.702464073896408081e-02,-6.679793447256088257e-02,6.812624633312225342e-02,-1.949043385684490204e-02,7.460823655128479004e-02,3.394520282745361328e-02,8.084089308977127075e-02,-7.194903492927551270e-02,-2.365786768496036530e-02,2.751082181930541992e-02,-1.289815008640289307e-01,-5.972708761692047119e-02,-9.240555576980113983e-03,-9.412711486220359802e-03,-7.934471964836120605e-02,-8.572638779878616333e-02,6.196666508913040161e-02,7.921454310417175293e-02,-6.876252591609954834e-02,-9.739270061254501343e-02,1.721171103417873383e-02,-6.847379356622695923e-02,1.414768993854522705e-01,-8.510748296976089478e-02,4.318723827600479126e-02,1.740677841007709503e-02,2.835193090140819550e-02,-9.419652074575424194e-02,1.083531528711318970e-01,9.411691129207611084e-02,1.257523149251937866e-01,4.324065148830413818e-02,9.395299851894378662e-02,7.854451984167098999e-02,1.212081033736467361e-02,2.826553024351596832e-02,-3.000205196440219879e-02,1.452372372150421143e-01,-6.455940753221511841e-02,-5.936297774314880371e-02,-7.102705538272857666e-02,-3.999400138854980469e-02,-3.635145723819732666e-02,4.569625481963157654e-02,-1.145356222987174988e-01,-1.636305637657642365e-02,-5.761316791176795959e-02,-2.683412469923496246e-02,4.066795483231544495e-02,-1.086182072758674622e-01,5.051144585013389587e-02,-5.949368327856063843e-02,-3.940009698271751404e-02,3.180278837680816650e-02,4.774734750390052795e-02,2.729068323969841003e-02,9.964093565940856934e-02,-1.030643656849861145e-01,1.335613876581192017e-01,1.780082285404205322e-01,1.379090398550033569e-01,2.266914844512939453e-01,-8.431290090084075928e-02,-8.573762327432632446e-02,6.154181435704231262e-02,9.503043256700038910e-03,1.878576911985874176e-02,-6.386560946702957153e-02,4.521186277270317078e-02,4.974721744656562805e-02,7.205653004348278046e-03,-9.452252089977264404e-02
1.857580617070198059e-02,-4.779284447431564331e-02,-7.391680032014846802e-02,5.463833361864089966e-02,8.644467592239379883e-02,-7.634058129042387009e-03,2.238991856575012207e-02,-8.270977437496185303e-02,6.323894113302230835e-02,8.435332216322422028e-03,-8.028147369623184204e-02,5.878852214664220810e-03,-6.208200752735137939e-02,-3.748000413179397583e-02,7.212178409099578857e-02,5.868879333138465881e-02,7.860375195741653442e-02,-4.584838077425956726e-02,-7.825224846601486206e-02,3.088198043406009674e-02,-6.325652450323104858e-02,-7.142454385757446289e-02,3.718575090169906616e-02,3.202451765537261963e-02,-5.287656188011169434e-02,-9.300334006547927856e-02,-6.915253400802612305e-02,5.874971300363540649e-02,-8.993116021156311035e-02,4.526468366384506226e-02,1.801589131355285645e-02,-7.342843804508447647e-03,2.639291994273662567e-02,5.084071308374404907e-02,-6.071010231971740723e-02,8.909827470779418945e-02,8.871189504861831665e-02,4.533691704273223877e-02,9.461452066898345947e-02,6.038644164800643921e-02,-6.072109937667846680e-02,-9.818446822464466095e-03,2.081901580095291138e-02,-4.282038658857345581e-02,7.413405179977416992e-02,9.364480525255203247e-02,2.182999812066555023e-02,3.522870689630508423e-02,-5.026710033416748047e-02,6.463288329541683197e-03,-2.730310335755348206e-02,7.949510216712951660e-02,-2.111494541168212891e-02,1.864948123693466187e-02,-6.315058469772338867e-02,-9.459180384874343872e-02,-7.042261213064193726e-02,4.966292902827262878e-02,9.419675916433334351e-02,-3.767922287806868553e-03,-7.523561269044876099e-02,-2.429631166160106659e-02,-4.976728558540344238e-02,-5.562497302889823914e-02,6.499914079904556274e-02,1.027105003595352173e-02,2.990859374403953552e-02,-4.283548891544342041e-02,-1.752101071178913116e-02,4.697545245289802551e-02,9.313745051622390747e-02,-9.858932346105575562e-02,-4.213973507285118103e-02,-5.921267345547676086e-02,-1.800257340073585510e-02,-2.760010212659835815e-02,-8.334068953990936279e-02,5.162502452731132507e-02,6.356281042098999023e-02,1.981985010206699371e-02,6.327115744352340698e-02,3.934292867779731750e-02,1.114572212100028992e-02,-4.296583682298660278e-02,-1.891230233013629913e-02,-9.174892306327819824e-02,4.686828702688217163e-03,7.043118029832839966e-02,3.610437363386154175e-02,-2.530467882752418518e-02,-9.244432300329208374e-02,7.661247998476028442e-02,-5.581827368587255478e-03,1.226084865629673004e-02,2.062278985977172852e-02,-5.412136763334274292e-02,4.519119858741760254e-02,4.541872069239616394e-02,-1.786308549344539642e-02,9.179788082838058472e-02
-2.196422219276428223e-02,-1.752076856791973114e-02,-7.403347641229629517e-02,-5.642159841954708099e-03,-2.012817002832889557e-02,-6.400741636753082275e-02,-1.891377568244934082e-02,9.099262952804565430e-02,-5.706086754798889160e-03,6.212271749973297119e-03,-1.117490814067423344e-03,1.043144427239894867e-02,-5.346567556262016296e-02,3.497629240155220032e-02,-1.167526766657829285e-01,-1.698011904954910278e-02,2.017469331622123718e-02,6.863942742347717285e-02,-6.710336357355117798e-02,-2.683772332966327667e-02,6.527486443519592285e-02,-1.012561991810798645e-01,5.468297377228736877e-02,5.485501885414123535e-02,-6.893458217382431030e-02,-2.000006288290023804e-02,7.422105222940444946e-02,2.352355420589447021e-02,8.562658727169036865e-02,3.266990929841995239e-02,-1.004523411393165588e-01,-3.798080980777740479e-02,5.688021332025527954e-02,-4.520611092448234558e-02,1.950417272746562958e-02,1.050240695476531982e-01,5.668317899107933044e-02,4.142892733216285706e-02,2.704160474240779877e-02,6.703434139490127563e-02,-7.112257182598114014e-02,4.200549796223640442e-02,-8.407391607761383057e-02,-2.235866151750087738e-03,2.185818739235401154e-02,6.964424252510070801e-02,1.162285264581441879e-02,1.935819350183010101e-02,5.432017147541046143e-02,-8.287098258733749390e-02,4.819632321596145630e-02,1.570165157318115234e-02,-7.851005345582962036e-02,-6.642989069223403931e-02,-1.024436429142951965e-01,-3.522601351141929626e-02,2.313138730823993683e-02,5.751019343733787537e-02,7.030300796031951904e-02,-4.747541621327400208e-02,5.781062692403793335e-02,1.016263067722320557e-01,3.617778047919273376e-02,-2.548088505864143372e-02,8.792690187692642212e-02,6.463747471570968628e-02,9.448599815368652344e-02,3.092404082417488098e-02,-4.517840966582298279e-02,-4.706256836652755737e-02,3.521491587162017822e-02,1.338283624500036240e-02,6.542868167161941528e-02,-5.333594977855682373e-02,2.098831161856651306e-02,-1.613037660717964172e-02,5.153166875243186951e-02,-7.736391853541135788e-03,-3.562943264842033386e-02,2.131047658622264862e-02,9.907146543264389038e-02,-6.209371238946914673e-02,3.474213182926177979e-02,-9.528166800737380981e-02,-8.024193346500396729e-02,6.576584279537200928e-02,7.926032692193984985e-02,-8.451908081769943237e-02,-5.307932198047637939e-02,4.689918458461761475e-02,4.642322659492492676e-02,5.878363549709320068e-02,-4.580480977892875671e-02,3.034914843738079071e-02,8.343853056430816650e-02,-9.288926422595977783e-02,-1.605975441634654999e-02,-8.126614987850189209e-02,1.013659238815307617e-01,-1.355289574712514877e-02
2.780393883585929871e-02,-7.126124203205108643e-02,-5.383733659982681274e-02,1.012052595615386963e-01,1.058663502335548401e-01,7.897706702351570129e-03,-1.284550875425338745e-02,1.228140071034431458e-01,-9.266140870749950409e-03,-3.140838444232940674e-02,-1.333977002650499344e-02,6.963271647691726685e-02,5.336999148130416870e-02,-1.269284076988697052e-02,2.577726542949676514e-02,5.977824330329895020e-03,-3.409751504659652710e-02,-3.885760903358459473e-02,-7.575236260890960693e-02,-1.851404644548892975e-02,-4.806337133049964905e-02,1.321627944707870483e-01,-3.658452257513999939e-02,9.805234521627426147e-02,6.814768910408020020e-02,-2.322573214769363403e-02,4.829229786992073059e-02,-6.377980858087539673e-02,4.873476549983024597e-02,2.354998886585235596e-02,8.222375810146331787e-02,5.696925334632396698e-03,-6.751126050949096680e-02,2.592306211590766907e-02,3.700645267963409424e-02,-1.212746053934097290e-01,-6.326342374086380005e-02,2.943684533238410950e-02,-7.123740762472152710e-02,-7.634358853101730347e-02,4.365114867687225342e-02,5.899775400757789612e-02,4.953491687774658203e-02,-6.479281187057495117e-02,-7.355454843491315842e-03,-5.677951872348785400e-02,-9.627123363316059113e-04,-6.841746717691421509e-02,5.450462922453880310e-02,9.814450889825820923e-02,1.175529062747955322e-01,-1.598813571035861969e-02,-6.571340560913085938e-02,7.209850102663040161e-02,9.662035107612609863e-02,-9.242286323569715023e-04,-6.699719280004501343e-02,6.575192511081695557e-02,2.478457428514957428e-02,6.766542792320251465e-02,-3.056439757347106934e-02,-2.487727999687194824e-02,-1.771394629031419754e-03,9.814041107892990112e-02,4.295096267014741898e-03,9.942557662725448608e-02,-3.060923703014850616e-02,-6.813900172710418701e-02,-4.561325162649154663e-02,3.722898289561271667e-02,6.568454205989837646e-02,9.095551818609237671e-02,-6.647874135524034500e-03,-4.506469517946243286e-02,1.304176636040210724e-02,-3.183880820870399475e-02,8.564327657222747803e-02,-2.016384713351726532e-02,4.199064895510673523e-02,-7.692389935255050659e-02,9.006864577531814575e-02,8.020938932895660400e-02,4.673591628670692444e-02,5.206181202083826065e-03,2.869978547096252441e-02,-4.935342818498611450e-02,6.574128568172454834e-02,9.053683280944824219e-02,3.104949183762073517e-02,2.949523180723190308e-02,3.176556900143623352e-02,-5.742995813488960266e-02,-9.013246744871139526e-02,-1.007668077945709229e-01,-3.709018602967262268e-02,7.004203647375106812e-02,4.961676895618438721e-03,6.735413335263729095e-03,4.207395017147064209e-02,9.922822564840316772e-02
-5.036194249987602234e-02,-8.189868927001953125e-02,8.897737413644790649e-02,-2.958691213279962540e-03,3.992974758148193359e-02,-9.593611955642700195e-02,-3.134059906005859375e-02,-6.235902383923530579e-02,7.012738287448883057e-02,3.096225298941135406e-02,-6.773386150598526001e-02,9.408720582723617554e-02,-9.274959564208984375e-03,-9.899161010980606079e-02,9.582785516977310181e-02,6.929520517587661743e-02,-7.888400554656982422e-02,-4.701403528451919556e-02,2.289470471441745758e-02,5.267098173499107361e-02,-3.722485527396202087e-02,6.707668304443359375e-03,-2.138383500277996063e-02,-2.608503215014934540e-02,-8.251900970935821533e-02,8.835079520940780640e-02,1.751329936087131500e-02,9.582245722413063049e-03,-5.512110143899917603e-02,-1.023375988006591797e-02,-5.424624681472778320e-02,-4.731556400656700134e-02,5.319971963763237000e-02,-6.531492620706558228e-02,-4.395950958132743835e-02,4.156370088458061218e-02,9.564768522977828979e-02,8.386541903018951416e-02,-8.791071176528930664e-02,5.241105705499649048e-02,9.075661003589630127e-02,7.306140661239624023e-02,2.345832623541355133e-02,-3.733436018228530884e-02,-9.592356532812118530e-02,-1.207113309646956623e-04,5.028466135263442993e-02,3.157208114862442017e-02,6.946488469839096069e-02,-9.649541229009628296e-02,-8.681076765060424805e-02,2.032653056085109711e-02,5.775290727615356445e-02,-8.419282734394073486e-02,-3.311884403228759766e-02,-3.858261182904243469e-02,3.603013977408409119e-02,6.411293894052505493e-02,-6.777248531579971313e-02,-3.496018797159194946e-02,-9.592937678098678589e-02,9.917499125003814697e-02,-1.353490399196743965e-03,9.928222000598907471e-02,8.654025942087173462e-02,9.533239901065826416e-02,-8.772391080856323242e-02,7.535385340452194214e-02,5.771170929074287415e-02,9.196192026138305664e-02,9.382545948028564453e-03,3.029366768896579742e-02,-2.125380001962184906e-02,-4.170336946845054626e-02,-9.843599796295166016e-02,7.351250946521759033e-02,-6.049871444702148438e-02,4.978567361831665039e-02,-2.973640104755759239e-03,-4.272897168993949890e-02,-7.966304197907447815e-03,6.437291204929351807e-02,-8.466468006372451782e-02,-3.902912139892578125e-04,-5.797836929559707642e-02,-9.899266064167022705e-02,6.861919164657592773e-02,1.655519008636474609e-03,-3.847089037299156189e-02,-1.426625251770019531e-02,-5.679928138852119446e-02,-9.519424289464950562e-02,6.130550056695938110e-02,1.038153190165758133e-02,-9.344195574522018433e-02,-8.807501941919326782e-02,-7.608689367771148682e-02,-4.903726652264595032e-02,-8.050362020730972290e-02,-3.819442912936210632e-02
-3.582125157117843628e-02,-8.909870684146881104e-02,-9.419263340532779694e-03,-4.026532545685768127e-02,2.010968513786792755e-02,-8.912511914968490601e-02,-1.188648771494626999e-02,6.638816744089126587e-02,-1.030408777296543121e-02,5.570008233189582825e-02,5.056415125727653503e-02,-2.494597993791103363e-02,-6.296128034591674805e-02,-5.514148995280265808e-02,8.761732280254364014e-02,1.689537800848484039e-02,2.863004244863986969e-02,-8.628308027982711792e-02,5.926033854484558105e-02,7.591447979211807251e-02,-1.321045309305191040e-02,-2.278296509757637978e-03,-3.556731715798377991e-02,3.402595594525337219e-02,-7.140784710645675659e-02,1.636211643926799297e-03,3.196832537651062012e-02,-9.640642255544662476e-02,-8.868458122014999390e-02,-6.051047518849372864e-02,-4.692764021456241608e-03,-2.915576100349426270e-02,-7.090550661087036133e-02,1.732045412063598633e-02,1.021168567240238190e-02,-3.297606110572814941e-02,9.488273411989212036e-02,3.384760767221450806e-02,-8.595617115497589111e-02,-3.570217266678810120e-02,-6.476070731878280640e-02,-5.847167223691940308e-02,1.585669256746768951e-02,5.280233919620513916e-02,-6.945611443370580673e-03,1.421996392309665680e-02,-5.528626963496208191e-02,-5.358950048685073853e-02,4.588263481855392456e-02,-6.509086489677429199e-02,-1.770466566085815430e-02,-4.760730266571044922e-02,3.683508140966296196e-03,-9.756364859640598297e-03,9.077107161283493042e-02,-2.720913290977478027e-02,7.655659317970275879e-02,-1.899575442075729370e-02,-7.120706886053085327e-02,7.504697144031524658e-02,9.242592006921768188e-02,8.039955794811248779e-02,3.887634724378585815e-02,-3.796257078647613525e-02,-1.375241298228502274e-02,-5.951274558901786804e-02,-7.744584232568740845e-02,-9.293614327907562256e-02,-8.561128377914428711e-02,-9.110136330127716064e-02,-2.647395990788936615e-02,-8.698618970811367035e-03,-1.719827065244317055e-03,-5.708633922040462494e-03,-5.184549465775489807e-02,9.693989157676696777e-02,-7.837318629026412964e-02,-3.041581623256206512e-02,9.141515940427780151e-03,-2.334318682551383972e-02,-6.198355555534362793e-02,-1.448226813226938248e-02,-2.991632930934429169e-02,5.269630998373031616e-02,4.892375692725181580e-02,8.267490193247795105e-03,1.811942830681800842e-02,-5.223864689469337463e-02,5.408019945025444031e-02,-1.388725358992815018e-02,-3.426796570420265198e-02,5.359821021556854248e-02,-2.578271925449371338e-02,2.286513708531856537e-02,4.239358007907867432e-02,8.112541586160659790e-02,5.266908928751945496e-02,1.142513565719127655e-02,-1.804408803582191467e-02,-2.656314335763454437e-02
7.912338525056838989e-02,4.585137590765953064e-02,6.568992976099252701e-03,-5.729381367564201355e-02,2.305982168763875961e-03,-8.512747287750244141e-02,-2.393173053860664368e-02,-1.743692159652709961e-02,-2.786211110651493073e-02,1.107581481337547302e-01,1.206957623362541199e-01,-3.470992669463157654e-02,1.019178926944732666e-01,-2.933985553681850433e-02,4.285741597414016724e-02,8.353225141763687134e-02,8.715151995420455933e-02,6.782373040914535522e-02,-1.334534585475921631e-02,-5.906940903514623642e-03,1.252156589180231094e-02,2.836166322231292725e-02,-1.769956573843955994e-02,-1.224443037062883377e-02,6.324698776006698608e-02,6.368814408779144287e-02,-6.284046918153762817e-02,3.354386612772941589e-02,-6.053351983428001404e-02,4.893482476472854614e-02,-2.678946405649185181e-02,6.445709615945816040e-02,6.468380242586135864e-02,1.738631725311279297e-02,6.757834553718566895e-02,1.462730169296264648e-01,-8.884318172931671143e-03,-8.766571432352066040e-02,1.674529016017913818e-01,-5.888145789504051208e-02,2.592783048748970032e-02,3.817801550030708313e-02,7.330782711505889893e-02,7.541229575872421265e-02,3.068178519606590271e-02,9.577298164367675781e-02,3.010013513267040253e-02,-5.149972438812255859e-02,-6.637832522392272949e-02,-4.037256818264722824e-03,8.527959138154983521e-02,4.538051411509513855e-02,6.048820540308952332e-02,5.042280256748199463e-02,5.038074776530265808e-02,9.995491057634353638e-02,-5.875910446047782898e-02,5.174937844276428223e-02,1.198481395840644836e-01,5.679207667708396912e-02,6.758957356214523315e-02,3.937194123864173889e-02,7.657426875084638596e-03,2.808875404298305511e-02,1.765586249530315399e-02,-7.545266300439834595e-02,9.300803393125534058e-02,6.149668246507644653e-02,-8.056749403476715088e-02,6.969127058982849121e-02,8.215988427400588989e-02,5.709923058748245239e-02,-6.378477066755294800e-02,-8.964269608259201050e-02,9.144251793622970581e-02,-4.790773987770080566e-02,2.158394083380699158e-02,1.498385369777679443e-01,-9.513967484235763550e-02,-7.311729341745376587e-02,9.648519754409790039e-02,7.141397148370742798e-02,3.238398581743240356e-02,9.182501584291458130e-02,4.052502289414405823e-02,-9.359338320791721344e-03,2.513208799064159393e-02,-2.003249153494834900e-02,-2.029627002775669098e-02,7.254593074321746826e-02,1.320739835500717163e-01,2.991776727139949799e-02,-5.083712562918663025e-02,-1.456954609602689743e-02,1.151909604668617249e-01,5.292703583836555481e-02,2.048120461404323578e-02,-5.036668106913566589e-02,9.185642749071121216e-02,3.696842119097709656e-02
9.940374642610549927e-02,-5.191085487604141235e-02,1.401438470929861069e-02,-7.760135084390640259e-02,6.556448340415954590e-02,-4.071691539138555527e-03,-9.012887626886367798e-02,2.780945412814617157e-02,3.158703073859214783e-02,6.615906953811645508e-03,9.624437987804412842e-02,-4.971749708056449890e-02,1.253924425691366196e-02,-6.666227430105209351e-02,4.405992105603218079e-02,-3.612538427114486694e-02,-1.875179074704647064e-02,2.455610409379005432e-02,-6.428378075361251831e-02,7.606793195009231567e-02,-4.263539612293243408e-02,-5.991504341363906860e-02,9.950672835111618042e-02,-2.648962289094924927e-02,-4.545778781175613403e-02,-6.923830509185791016e-02,-6.064487248659133911e-02,-9.697666019201278687e-02,-6.882969290018081665e-02,-8.610104769468307495e-02,-7.760252058506011963e-02,-5.555477365851402283e-02,1.621904224157333374e-02,-7.117871195077896118e-02,3.036458790302276611e-02,-3.244550898671150208e-02,-9.932600706815719604e-02,-4.461601376533508301e-03,-5.825439840555191040e-02,3.113732859492301941e-02,-5.006605759263038635e-02,-1.147780101746320724e-02,-9.132211655378341675e-02,3.750146552920341492e-02,-5.463731661438941956e-02,2.710752002894878387e-02,-8.061226457357406616e-02,-6.097645685076713562e-02,5.044981092214584351e-02,6.657813489437103271e-02,2.225579926744103432e-03,-8.667159825563430786e-02,-6.481128185987472534e-02,-7.658757269382476807e-02,8.891232311725616455e-03,-3.610537154600024223e-03,-2.420711144804954529e-02,-7.259546220302581787e-02,5.981634929776191711e-02,-3.242974728345870972e-02,-1.000902280211448669e-01,-8.460092544555664062e-02,-1.453438121825456619e-02,-9.819622337818145752e-02,-1.039064303040504456e-02,7.203746121376752853e-03,-6.857501715421676636e-02,-2.495530806481838226e-02,-2.896397188305854797e-02,-1.278335321694612503e-02,7.296682335436344147e-03,-3.362244460731744766e-03,-9.623237699270248413e-02,1.867328397929668427e-02,5.360132455825805664e-02,9.883665479719638824e-03,6.099053099751472473e-02,9.975332766771316528e-02,7.945482432842254639e-02,-9.686759859323501587e-02,3.057503839954733849e-03,2.566614001989364624e-02,1.991802826523780823e-02,8.650577627122402191e-03,6.884657591581344604e-02,-5.126454308629035950e-02,-1.412093359977006912e-02,-8.278273791074752808e-02,5.739227309823036194e-02,4.645083844661712646e-02,8.156439661979675293e-02,-4.863198846578598022e-02,9.456699341535568237e-02,3.562262654304504395e-02,6.550135440193116665e-04,3.142607957124710083e-02,-4.384148493409156799e-02,-7.834015041589736938e-02,-5.604987498372793198e-03,4.206384345889091492e-02
1.006828062236309052e-02,1.819138415157794952e-02,1.644255779683589935e-02,9.621793031692504883e-02,-2.854472026228904724e-02,7.546732667833566666e-03,3.943227231502532959e-02,4.525417089462280273e-02,-1.892527937889099121e-02,1.118602380156517029e-01,-5.965662654489278793e-03,3.464743122458457947e-02,-4.784854501485824585e-02,-9.471966885030269623e-03,4.144999664276838303e-03,-6.275574862957000732e-02,7.784313708543777466e-02,-9.313443303108215332e-02,-1.790376938879489899e-02,3.713366389274597168e-02,1.944526843726634979e-02,1.191041320562362671e-01,4.468534886837005615e-02,6.431449204683303833e-03,5.074048414826393127e-02,-1.910616084933280945e-02,1.126178354024887085e-01,5.474152043461799622e-02,3.251055488362908363e-03,-8.331168442964553833e-02,1.564026344567537308e-03,-8.029002696275711060e-03,1.021991297602653503e-01,2.504697069525718689e-02,3.172362223267555237e-02,-7.348755747079849243e-02,-7.796216756105422974e-02,6.637426465749740601e-02,-1.033546403050422668e-01,6.945835053920745850e-02,7.678169012069702148e-02,6.347654014825820923e-02,-5.202671885490417480e-02,-3.231073543429374695e-02,-8.269204944372177124e-02,-1.003087237477302551e-01,9.598064236342906952e-03,-1.408888120204210281e-02,-6.202078983187675476e-02,-1.950784400105476379e-02,-3.158384934067726135e-02,2.559348568320274353e-02,-7.342130690813064575e-02,-7.248047739267349243e-02,-6.409419327974319458e-02,2.210389589890837669e-03,6.052307039499282837e-02,6.165668368339538574e-02,-7.703302055597305298e-02,-8.892895281314849854e-02,5.746423453092575073e-02,6.255663186311721802e-02,-8.588493615388870239e-02,7.313548028469085693e-02,2.564577572047710419e-02,8.275913447141647339e-02,-9.838558733463287354e-02,-2.679875306785106659e-02,2.051929943263530731e-02,-3.845462109893560410e-03,-1.068076863884925842e-01,-8.443643897771835327e-02,8.050345629453659058e-02,1.219677552580833435e-01,-3.745133802294731140e-02,-2.394448711129371077e-05,6.183568760752677917e-02,8.511311374604701996e-03,-2.524239942431449890e-02,-9.481655806303024292e-02,-7.708849012851715088e-02,-9.532049298286437988e-02,4.600764438509941101e-02,4.579266160726547241e-02,3.755749017000198364e-02,-7.720761932432651520e-04,9.080485999584197998e-02,3.356817411258816719e-03,6.332539021968841553e-02,6.056670472025871277e-02,-5.956787243485450745e-02,-4.933929070830345154e-02,9.289190173149108887e-02,7.864757440984249115e-03,-9.226129949092864990e-02,-2.221069671213626862e-02,-2.842709608376026154e-02,1.072884257882833481e-02,5.911564826965332031e-02,8.420874178409576416e-02
6.725376099348068237e-02,-4.227666184306144714e-02,-5.648366734385490417e-02,2.568449266254901886e-02,1.023764759302139282e-01,9.371320903301239014e-02,1.176751926541328430e-01,-8.445151150226593018e-03,8.641868829727172852e-02,1.060937941074371338e-01,-1.800845493562519550e-03,5.136231705546379089e-02,9.031815081834793091e-02,-4.140245541930198669e-02,6.537213455885648727e-03,1.219289600849151611e-01,4.956140369176864624e-02,-6.195443123579025269e-02,7.738552242517471313e-02,1.295269727706909180e-01,9.286398440599441528e-02,5.860761180520057678e-02,9.362445771694183350e-02,-7.318757940083742142e-03,-2.299839071929454803e-02,-2.821763232350349426e-02,5.213476344943046570e-02,-4.016037099063396454e-03,-6.909468676894903183e-03,1.629465445876121521e-02,1.289628744125366211e-01,2.447732724249362946e-02,-3.887063264846801758e-02,1.250592898577451706e-02,8.876997977495193481e-02,-4.025420174002647400e-02,-6.420036405324935913e-02,1.983487792313098907e-02,9.669037908315658569e-02,-1.939100027084350586e-02,9.149132668972015381e-02,9.483923763036727905e-02,3.380118682980537415e-02,-6.130912899971008301e-02,-1.099450886249542236e-01,-9.114603698253631592e-02,-1.239849105477333069e-01,1.264456566423177719e-02,6.210720539093017578e-02,-5.827380809932947159e-03,-8.437241613864898682e-02,4.496542364358901978e-02,-3.125305101275444031e-02,7.107039541006088257e-02,4.785198718309402466e-02,-5.906765908002853394e-02,5.182079225778579712e-02,2.997322194278240204e-02,-5.774774774909019470e-02,-1.394953206181526184e-02,-7.018728554248809814e-02,-5.639632418751716614e-02,-5.761306732892990112e-02,-4.326554015278816223e-02,-5.484198406338691711e-02,1.574623435735702515e-01,-3.566097840666770935e-02,-5.296023935079574585e-02,5.841466784477233887e-02,4.496068134903907776e-02,-1.052192524075508118e-01,2.708114124834537506e-02,6.787782907485961914e-02,2.390314266085624695e-02,-5.921231955289840698e-02,2.015057392418384552e-02,5.223903059959411621e-02,-6.636041402816772461e-02,1.058325842022895813e-01,1.451525930315256119e-02,-6.122414022684097290e-02,-1.425772756338119507e-01,4.087759926915168762e-02,1.450808160006999969e-02,2.996488288044929504e-02,6.828877329826354980e-02,1.613396555185317993e-01,7.462324947118759155e-02,-8.012682199478149414e-02,3.242227062582969666e-02,2.050905860960483551e-02,8.720850199460983276e-02,-4.887764155864715576e-02,-3.097214037552475929e-03,-1.181164383888244629e-01,-1.268045753240585327e-01,6.506172567605972290e-02,1.118990853428840637e-01,-7.199280709028244019e-02,6.631132960319519043e-02
3.341998532414436340e-02,-5.348298326134681702e-02,-8.727636933326721191e-02,3.043365105986595154e-02,4.271448403596878052e-02,3.878986090421676636e-02,-5.630472674965858459e-03,-6.252645701169967651e-02,3.108095005154609680e-02,-8.839700371026992798e-02,-2.820458449423313141e-02,-4.470720887184143066e-02,3.600996732711791992e-02,6.185402721166610718e-02,-1.254137046635150909e-02,8.609175682067871094e-02,3.682222217321395874e-02,-2.958322502672672272e-02,-8.400122076272964478e-02,-6.340227276086807251e-02,-1.888331584632396698e-02,-5.756112188100814819e-02,5.506787449121475220e-02,-1.376085355877876282e-02,2.683087624609470367e-02,5.367124080657958984e-02,-9.844017773866653442e-02,-4.023848567157983780e-03,5.228986218571662903e-02,-5.358501523733139038e-02,5.051794648170471191e-02,8.608251065015792847e-02,8.084808290004730225e-02,-2.234578132629394531e-04,-7.635469734668731689e-02,5.490879341959953308e-02,1.813843473792076111e-02,-1.182406558655202389e-03,-8.739568293094635010e-02,-4.271145910024642944e-02,9.666849672794342041e-02,-1.172639150172472000e-02,1.249300222843885422e-02,-1.476691477000713348e-02,-1.432185899466276169e-02,-6.800036877393722534e-02,-8.735717833042144775e-02,-2.447463385760784149e-02,5.825171992182731628e-02,-2.489706501364707947e-02,-3.892546892166137695e-02,3.272615745663642883e-02,7.230328023433685303e-02,1.241353992372751236e-02,2.616559527814388275e-02,-4.011716693639755249e-02,4.847676958888769150e-03,7.826650142669677734e-02,2.609499264508485794e-03,5.732728913426399231e-02,-6.906663626432418823e-02,-8.587922900915145874e-02,1.174766663461923599e-02,8.649077266454696655e-02,1.190573815256357193e-02,-4.578415676951408386e-02,-9.799261391162872314e-02,8.310201019048690796e-02,1.101555302739143372e-02,3.657859284430742264e-03,-8.920232206583023071e-02,2.765827998518943787e-02,8.205491304397583008e-02,-8.420137315988540649e-02,-1.768394559621810913e-02,-9.695465862751007080e-02,-8.074416965246200562e-02,-7.801530510187149048e-02,5.874929577112197876e-02,7.584474980831146240e-02,-7.576994597911834717e-02,7.809285819530487061e-02,2.008041739463806152e-02,-7.486572861671447754e-02,7.543785031884908676e-03,-7.624287903308868408e-02,-3.371169418096542358e-02,-1.117497533559799194e-01,-2.061594277620315552e-02,-3.385514393448829651e-02,7.673607766628265381e-02,9.547672420740127563e-02,6.620611250400543213e-02,6.024202797561883926e-03,3.516072034835815430e-02,-3.640754520893096924e-02,4.690269753336906433e-02,-6.060477346181869507e-03,4.631936177611351013e-02,-2.246279269456863403e-02
5.270352587103843689e-02,-9.599729441106319427e-03,-7.542533427476882935e-02,8.510314673185348511e-02,4.584359005093574524e-02,-1.046116724610328674e-01,1.090178117156028748e-01,1.280548125505447388e-01,-8.610599488019943237e-02,9.375543892383575439e-02,3.995177522301673889e-02,-4.068363085389137268e-02,9.942784160375595093e-02,-4.437395837157964706e-03,-6.103879958391189575e-02,-6.141121685504913330e-02,-2.642480842769145966e-02,1.948216184973716736e-02,8.780799061059951782e-02,4.065026342868804932e-02,-2.532705292105674744e-02,-6.509557366371154785e-02,-4.379849880933761597e-02,6.036251038312911987e-02,-6.759329885244369507e-02,3.908503800630569458e-02,6.301389634609222412e-02,-1.187541708350181580e-02,-4.690281301736831665e-02,1.658370792865753174e-01,6.111509725451469421e-02,-8.073274791240692139e-02,2.252200432121753693e-02,7.994540035724639893e-02,9.207550436258316040e-02,5.327506363391876221e-02,-4.852863028645515442e-03,-9.886714396998286247e-04,9.766414761543273926e-02,-4.263357445597648621e-02,-4.227833822369575500e-02,5.179516226053237915e-02,-4.975451529026031494e-02,5.298202112317085266e-02,3.989950567483901978e-02,1.477992907166481018e-02,-1.267413888126611710e-02,2.876516617834568024e-02,3.939950838685035706e-02,6.337449699640274048e-02,-6.726057082414627075e-02,-2.633347548544406891e-02,-9.394226223230361938e-02,-3.016786277294158936e-02,-1.072199046611785889e-01,-6.826392561197280884e-02,-1.926574297249317169e-02,-2.385521121323108673e-02,-9.656734764575958252e-03,3.470860049128532410e-02,3.162939101457595825e-02,5.574469268321990967e-02,5.458839237689971924e-02,-7.907389104366302490e-02,2.273581363260746002e-02,8.495266735553741455e-02,-5.180143564939498901e-02,2.679539658129215240e-02,-7.291874289512634277e-02,8.437000960111618042e-02,7.785600423812866211e-02,8.696680516004562378e-02,2.332483604550361633e-02,-1.001541614532470703e-01,4.879851639270782471e-02,1.159671600908041000e-02,1.054529324173927307e-01,1.153801009058952332e-01,-4.850532859563827515e-02,1.910283416509628296e-02,-6.371314823627471924e-02,-9.090696112252771854e-04,-1.212391555309295654e-01,5.342223495244979858e-02,4.325977340340614319e-02,1.562691107392311096e-02,1.250591129064559937e-01,-8.092810458038002253e-05,1.974264532327651978e-02,-4.236195981502532959e-02,1.678895801305770874e-01,-4.027476534247398376e-02,-9.050250053405761719e-02,-4.584676399827003479e-02,-2.579970285296440125e-03,2.147850394248962402e-02,-1.529494579881429672e-02,-1.824906468391418457e-02,1.144618093967437744e-01,2.252284064888954163e-02
-8.485760539770126343e-02,1.060228981077671051e-02,3.963954746723175049e-02,-4.552032425999641418e-02,-2.377848885953426361e-02,-6.656901538372039795e-02,6.022764369845390320e-02,8.297161757946014404e-02,7.752186059951782227e-02,9.744188934564590454e-02,-6.615022569894790649e-02,1.892795599997043610e-02,-6.203030422329902649e-02,9.742855280637741089e-02,5.745459347963333130e-03,-4.740363359451293945e-02,-9.494414180517196655e-02,-6.398043036460876465e-02,3.056820668280124664e-02,4.154695197939872742e-02,-1.651207916438579559e-02,6.589740514755249023e-02,-7.773652672767639160e-02,-9.358149021863937378e-02,-5.111528560519218445e-02,-9.857767727226018906e-04,4.078780859708786011e-02,6.918945908546447754e-02,9.028029441833496094e-02,6.029356271028518677e-02,-5.516519397497177124e-02,3.270743042230606079e-02,5.124374851584434509e-02,2.560259215533733368e-02,-1.851743459701538086e-02,7.503539323806762695e-02,-6.067242473363876343e-02,9.733114391565322876e-02,-8.570559322834014893e-02,-7.027526199817657471e-02,-8.216947317123413086e-02,-9.228673577308654785e-02,2.203906886279582977e-02,6.123682856559753418e-02,6.691753119230270386e-02,2.738260896876454353e-03,-1.754867844283580780e-02,9.118413925170898438e-02,8.069408684968948364e-02,-7.970128953456878662e-02,6.890197843313217163e-02,5.556771159172058105e-02,-9.435387700796127319e-02,9.173619002103805542e-02,5.025337636470794678e-02,6.906789727509021759e-03,7.662389427423477173e-02,-7.379443198442459106e-02,2.743056602776050568e-02,-1.058758515864610672e-02,-7.754367589950561523e-02,-3.044939599931240082e-02,-2.169296145439147949e-02,-2.617905102670192719e-02,5.618586391210556030e-02,-6.869089603424072266e-02,-9.358560293912887573e-02,3.622493147850036621e-02,-3.228112682700157166e-02,-4.465653747320175171e-02,5.390118435025215149e-02,-4.117747396230697632e-02,3.413552045822143555e-02,4.122104495763778687e-02,-9.054590016603469849e-02,6.234962493181228638e-02,2.802109532058238983e-02,3.452445566654205322e-02,-8.903012610971927643e-03,4.766200110316276550e-02,4.147373139858245850e-02,8.885555714368820190e-02,-1.398815494030714035e-02,7.096397876739501953e-02,-8.437962830066680908e-02,9.320663660764694214e-02,-7.509563863277435303e-02,-4.500644281506538391e-02,-8.712314069271087646e-02,-5.189214646816253662e-02,-6.043985486030578613e-02,-5.007408559322357178e-02,2.740746550261974335e-02,-4.943316429853439331e-02,6.604696810245513916e-02,8.065447956323623657e-02,-9.391613304615020752e-02,-9.991581737995147705e-02,-2.610322088003158569e-02,-7.477808743715286255e-02
-3.257406502962112427e-02,-1.086317282170057297e-02,1.150417421013116837e-02,6.658805906772613525e-02,7.108881324529647827e-02,-4.219848662614822388e-02,-2.813614532351493835e-02,-8.786192163825035095e-03,-7.529528439044952393e-02,-3.844689577817916870e-02,2.925848215818405151e-02,-9.646331518888473511e-02,2.216016873717308044e-02,1.726406067609786987e-02,4.415730014443397522e-02,2.046153880655765533e-02,1.072176247835159302e-01,-6.681682914495468140e-02,-7.126823812723159790e-02,9.548059105873107910e-02,-5.063017085194587708e-02,-9.159393608570098877e-02,1.096765324473381042e-01,6.755433231592178345e-02,-4.169825464487075806e-02,9.492477402091026306e-03,9.260350465774536133e-02,7.935842126607894897e-02,2.580243535339832306e-02,-3.720454499125480652e-02,8.452899754047393799e-02,-7.076677680015563965e-02,9.160511195659637451e-02,-7.198349107056856155e-03,5.626036226749420166e-02,1.695702075958251953e-01,1.473427657037973404e-02,1.836842298507690430e-02,1.044845059514045715e-01,6.844717264175415039e-02,-2.813689596951007843e-02,-6.971140950918197632e-02,-8.851808309555053711e-02,-3.070588968694210052e-02,-9.552679210901260376e-02,-9.526162594556808472e-02,-4.747471585869789124e-02,-1.489019370637834072e-03,4.451866075396537781e-02,-1.189679838716983795e-02,4.856425803154706955e-03,-2.975015155971050262e-02,5.587248131632804871e-02,4.356892779469490051e-02,-9.276987612247467041e-02,9.397764503955841064e-02,1.125911250710487366e-02,5.626583471894264221e-02,4.263109341263771057e-02,1.452443189918994904e-03,-5.888987705111503601e-02,1.635557040572166443e-02,-4.552511870861053467e-02,-1.082968711853027344e-01,-2.048842236399650574e-02,3.238998353481292725e-02,6.745062023401260376e-02,8.100112527608871460e-02,4.011968150734901428e-02,-6.315642595291137695e-02,-2.557698171585798264e-04,-9.880702942609786987e-03,3.702729567885398865e-02,-4.356680810451507568e-02,3.053335845470428467e-02,-2.412380464375019073e-02,-6.819678097963333130e-02,1.314541995525360107e-01,6.983517855405807495e-02,-3.203759342432022095e-02,8.274760842323303223e-02,-1.282406132668256760e-02,-8.501978218555450439e-02,7.479340583086013794e-02,1.230582222342491150e-01,6.564462929964065552e-02,4.567496478557586670e-03,-1.086956188082695007e-01,-8.396999537944793701e-02,-1.303543895483016968e-01,1.157273352146148682e-01,6.463880836963653564e-02,4.938163235783576965e-02,-6.830694526433944702e-02,-2.637838758528232574e-02,6.434626132249832153e-02,1.635924354195594788e-02,4.565238207578659058e-02,-1.884108223021030426e-02,4.390891268849372864e-02
3.091445891186594963e-03,1.282665133476257324e-01,2.508125603199005127e-01,9.464956820011138916e-02,3.268790245056152344e-02,6.439247727394104004e-02,-1.422249805182218552e-02,3.018956398591399193e-03,-7.549990713596343994e-02,-2.444830723106861115e-02,-1.157251894474029541e-01,-1.404833514243364334e-02,-6.967681646347045898e-02,1.877613924443721771e-02,1.194319501519203186e-01,4.921151325106620789e-03,4.358287155628204346e-02,-2.439965680241584778e-02,-1.023816838860511780e-01,1.405322109349071980e-04,9.951562620699405670e-03,7.313670963048934937e-02,3.071492351591587067e-02,-5.705143790692090988e-03,-6.169480830430984497e-02,1.211871951818466187e-01,-6.515212357044219971e-02,2.754976153373718262e-01,-4.356439411640167236e-02,6.489206850528717041e-02,1.112529356032609940e-02,-2.756998874247074127e-02,3.827923908829689026e-02,-9.925443679094314575e-02,9.012196958065032959e-02,5.930218379944562912e-03,4.251134768128395081e-02,-2.408678270876407623e-02,-7.178217172622680664e-02,-5.969696119427680969e-02,-2.924047410488128662e-02,3.516471479088068008e-03,5.475840717554092407e-02,9.024297446012496948e-02,1.458290219306945801e-01,7.412139326333999634e-02,9.117607772350311279e-02,2.669665776193141937e-02,-3.966699913144111633e-02,-4.650712944567203522e-03,2.340253144502639771e-01,1.362740695476531982e-01,8.323783986270427704e-03,4.900773987174034119e-02,2.058641463518142700e-01,-5.479430779814720154e-02,-3.600177168846130371e-02,3.242844343185424805e-02,1.866339594125747681e-01,2.421375215053558350e-01,1.409164071083068848e-02,3.746700286865234375e-02,-3.082618117332458496e-02,5.591022223234176636e-02,-1.975460536777973175e-02,-3.603946417570114136e-02,1.465433686971664429e-01,3.274625912308692932e-02,5.942074954509735107e-02,2.005731128156185150e-02,1.385269761085510254e-01,-8.488969504833221436e-02,-8.690416812896728516e-02,2.037579715251922607e-01,1.103378087282180786e-01,4.921048507094383240e-02,-5.488073825836181641e-02,-7.053215801715850830e-02,1.322441101074218750e-01,7.069153338670730591e-02,4.828305542469024658e-02,1.937766820192337036e-01,1.477825492620468140e-01,-4.445758089423179626e-02,-1.122282892465591431e-01,-2.614408917725086212e-02,5.865086987614631653e-02,1.271855831146240234e-01,1.197148561477661133e-01,2.642769217491149902e-01,-1.009430065751075745e-01,-6.990478187799453735e-02,2.006824128329753876e-02,-2.052415534853935242e-02,1.692080050706863403e-01,1.789992600679397583e-01,-1.281163562089204788e-02,2.288426831364631653e-02,-2.704072743654251099e-02,7.686876691877841949e-03
3.940224181860685349e-03,3.547504171729087830e-02,7.308326661586761475e-02,4.656648635864257812e-02,8.023750782012939453e-02,8.532009273767471313e-02,9.544749557971954346e-02,4.464590549468994141e-02,-1.971474103629589081e-02,-4.420122131705284119e-02,-6.808513402938842773e-02,6.711585074663162231e-02,8.683959022164344788e-03,-7.720265537500381470e-02,5.712667107582092285e-02,-5.319389700889587402e-02,7.624738663434982300e-02,3.457887098193168640e-02,-4.692183434963226318e-02,-9.087996929883956909e-02,-1.003582924604415894e-01,-9.177971631288528442e-02,5.664672702550888062e-02,-2.017689123749732971e-02,-7.215516269207000732e-02,1.363696902990341187e-02,5.844235047698020935e-02,9.677808731794357300e-02,4.688844829797744751e-02,1.578072272241115570e-02,-6.280283629894256592e-02,9.006019681692123413e-02,8.701226860284805298e-02,-4.578979685902595520e-02,7.931257784366607666e-02,7.551038265228271484e-02,-6.220301240682601929e-02,5.731085781008005142e-03,1.542967092245817184e-02,9.061907231807708740e-02,-4.024714604020118713e-02,4.407262802124023438e-02,3.802573680877685547e-02,1.024792045354843140e-01,-2.711891382932662964e-02,-2.783158235251903534e-02,-7.715444266796112061e-02,-5.555486679077148438e-02,3.692283108830451965e-02,1.425676792860031128e-02,-4.963403195142745972e-02,7.120554149150848389e-02,-1.105590630322694778e-02,4.556202143430709839e-02,-1.217640005052089691e-03,-7.547532767057418823e-02,-2.323266118764877319e-02,7.809574156999588013e-02,-1.842582784593105316e-02,9.280174970626831055e-02,-7.072161883115768433e-03,-8.157916367053985596e-02,7.481769472360610962e-02,1.069583371281623840e-01,-7.697653025388717651e-02,-3.973196260631084442e-03,-5.184060335159301758e-02,2.032534591853618622e-02,1.493615005165338516e-02,-5.982568114995956421e-02,9.164238721132278442e-02,9.960015118122100830e-02,-8.402851969003677368e-02,-7.516811043024063110e-02,1.888548023998737335e-03,3.907028585672378540e-02,-6.647431850433349609e-02,7.406804710626602173e-02,-6.968183070421218872e-02,4.959411919116973877e-02,7.446577399969100952e-02,-1.294022519141435623e-02,3.548945486545562744e-02,-6.666097790002822876e-02,-7.668889313936233521e-02,5.333556234836578369e-02,-8.538897335529327393e-02,7.209646701812744141e-02,8.585765212774276733e-02,-3.200639039278030396e-02,-5.281608179211616516e-02,-7.721519470214843750e-02,-7.223707437515258789e-02,1.466367393732070923e-02,9.992533177137374878e-02,1.298051625490188599e-01,-5.106524378061294556e-02,-7.170150429010391235e-02,-4.799832031130790710e-02,5.177979916334152222e-02
-2.275745570659637451e-02,-2.935383655130863190e-02,-6.090646982192993164e-02,5.844277516007423401e-02,9.990848600864410400e-03,9.262318722903728485e-03,-1.524891145527362823e-02,8.564232289791107178e-02,-7.634131610393524170e-02,1.260097771883010864e-01,-5.464171990752220154e-03,6.075857579708099365e-02,1.117314398288726807e-01,2.406928455457091331e-03,8.200766891241073608e-02,8.191751688718795776e-02,8.581160753965377808e-02,-6.244717538356781006e-02,4.544142633676528931e-02,3.078182972967624664e-02,8.351814001798629761e-02,3.939222078770399094e-03,-7.039352506399154663e-02,-6.920495629310607910e-02,1.783477142453193665e-02,-5.479012802243232727e-02,6.261488795280456543e-02,-5.227581784129142761e-02,6.793236732482910156e-02,4.522284865379333496e-02,6.795744411647319794e-03,3.378858789801597595e-02,1.517547573894262314e-02,6.000046804547309875e-02,-5.782145634293556213e-02,2.546701207756996155e-02,7.507368922233581543e-02,3.929757047444581985e-03,-2.754914201796054840e-02,8.643398433923721313e-02,-4.807347059249877930e-02,1.175916846841573715e-02,7.083125412464141846e-02,-9.067824482917785645e-02,-8.571169525384902954e-02,1.008015945553779602e-01,-9.665057808160781860e-02,3.933514282107353210e-02,-4.696047399193048477e-03,6.832806766033172607e-02,-6.160100176930427551e-02,4.228953272104263306e-02,-2.253428846597671509e-02,1.070597842335700989e-01,5.117087438702583313e-02,-9.955641627311706543e-02,1.144876256585121155e-01,4.960568994283676147e-02,9.445261210203170776e-02,-3.942344337701797485e-02,8.360487967729568481e-02,3.701136633753776550e-02,1.562585309147834778e-02,1.055094785988330841e-02,5.001328140497207642e-02,9.364750981330871582e-02,3.218247741460800171e-02,-4.311165958642959595e-02,2.721298858523368835e-02,-3.461245819926261902e-02,-7.798806577920913696e-02,8.493534475564956665e-02,3.799908608198165894e-02,-1.034442633390426636e-01,-7.863430678844451904e-02,2.667246758937835693e-02,6.422495841979980469e-02,4.586478695273399353e-02,2.191388793289661407e-02,-3.051370941102504730e-02,9.418640285730361938e-02,5.296797677874565125e-02,-2.010679803788661957e-02,-2.889560349285602570e-02,3.733855672180652618e-03,6.868541985750198364e-02,1.049667447805404663e-01,-2.730030566453933716e-02,-4.048932343721389771e-03,1.447911188006401062e-02,1.163757964968681335e-01,-3.661498427391052246e-02,-8.099918812513351440e-02,-3.724712505936622620e-02,-7.840238511562347412e-02,5.288676917552947998e-02,-4.379286244511604309e-02,6.443729996681213379e-02,-1.465383451431989670e-03,5.661105737090110779e-02
-5.564331263303756714e-02,-4.241853952407836914e-02,-1.145296320319175720e-01,7.834522426128387451e-02,-5.274393782019615173e-02,1.103447973728179932e-01,7.150475680828094482e-02,1.229492574930191040e-01,-1.905919238924980164e-02,3.446896374225616455e-02,-2.353047393262386322e-02,3.734485059976577759e-02,-8.073446154594421387e-02,9.941238164901733398e-02,4.641816765069961548e-02,1.023874506354331970e-01,-3.018003888428211212e-02,-7.327023148536682129e-02,1.214465051889419556e-01,1.359302550554275513e-01,1.801738142967224121e-01,1.829589754343032837e-01,5.862709600478410721e-03,3.500539064407348633e-02,7.256728410720825195e-02,-7.363323122262954712e-02,1.937555223703384399e-01,3.120489791035652161e-02,1.216363254934549332e-02,-3.786350414156913757e-02,1.192320585250854492e-01,-2.878781408071517944e-02,8.197682350873947144e-02,4.624857753515243530e-02,-8.942787349224090576e-02,1.323040807619690895e-03,1.401856541633605957e-02,2.552892256062477827e-04,4.310974478721618652e-02,6.274201720952987671e-02,-7.322406768798828125e-02,8.154882490634918213e-02,-2.970640733838081360e-02,7.998120854608714581e-04,-1.798877958208322525e-03,-2.415145561099052429e-02,-9.924261271953582764e-02,2.012628316879272461e-02,7.403377094306051731e-05,-8.156381547451019287e-02,-7.368944585323333740e-02,-4.913028329610824585e-02,1.997423917055130005e-02,2.729979343712329865e-02,7.201852649450302124e-02,-2.336438931524753571e-02,1.406190991401672363e-01,5.601254291832447052e-03,-8.844898641109466553e-02,-1.735339015722274780e-01,2.752935886383056641e-02,7.651465386152267456e-02,-8.917442709207534790e-02,-6.277314573526382446e-02,4.250094667077064514e-02,8.074268698692321777e-02,1.582942903041839600e-02,8.507317304611206055e-02,-4.093871265649795532e-02,-5.710729956626892090e-02,3.011915646493434906e-02,-4.590246081352233887e-02,1.840254478156566620e-02,6.438233703374862671e-02,-6.236283481121063232e-02,-1.130612716078758240e-01,5.509889870882034302e-02,1.019976660609245300e-01,8.289347589015960693e-02,4.568563401699066162e-02,2.352507598698139191e-02,-5.696924775838851929e-02,-8.427853137254714966e-02,-6.625297665596008301e-02,9.431769698858261108e-02,7.345820963382720947e-02,1.838009618222713470e-02,2.621892280876636505e-02,-3.291058167815208435e-02,-2.605203166604042053e-02,-1.616577617824077606e-02,-6.148320809006690979e-02,-4.021953791379928589e-02,7.624518126249313354e-02,-1.731311082839965820e-01,-7.379997521638870239e-02,1.243762299418449402e-01,-6.895288825035095215e-03,1.218201294541358948e-01,9.807171300053596497e-03
6.837072968482971191e-02,2.880411222577095032e-02,-4.000288620591163635e-02,5.062551796436309814e-02,-4.533357918262481689e-02,3.228867799043655396e-02,1.419190783053636551e-02,-6.886955350637435913e-02,2.283499948680400848e-02,4.383547976613044739e-02,-1.034095697104930878e-02,-4.070685431361198425e-02,9.288106113672256470e-02,8.004257082939147949e-02,8.111225813627243042e-02,7.328052073717117310e-02,3.977698460221290588e-02,7.873626053333282471e-02,4.598194360733032227e-02,5.251539498567581177e-02,-1.126257106661796570e-01,3.885332122445106506e-02,-8.523127436637878418e-02,-1.000812724232673645e-01,-1.016808748245239258e-01,8.565787225961685181e-02,-1.051401942968368530e-01,3.849952772725373507e-04,-8.646777272224426270e-02,-4.480770230293273926e-02,6.531914323568344116e-02,5.335818976163864136e-02,5.354586616158485413e-02,-9.307519346475601196e-02,3.206875175237655640e-02,-7.804995030164718628e-02,7.482980191707611084e-02,7.193110417574644089e-03,-7.276829332113265991e-02,2.246193028986454010e-02,-4.992594569921493530e-02,7.312682271003723145e-02,8.239777386188507080e-02,-1.721073931548744440e-04,3.645297512412071228e-02,3.317653760313987732e-02,4.708046559244394302e-03,-5.898542329668998718e-02,1.046224832534790039e-01,-9.271835535764694214e-02,8.665249496698379517e-02,5.094431340694427490e-02,-5.571854859590530396e-02,2.653972990810871124e-02,4.164430871605873108e-02,1.398803666234016418e-02,3.741338104009628296e-02,3.215193748474121094e-02,-4.463347047567367554e-02,1.084914505481719971e-01,5.063543096184730530e-02,5.222058668732643127e-02,6.897681206464767456e-02,-6.974329706281423569e-03,-5.422120541334152222e-02,-7.754884660243988037e-02,-4.499460011720657349e-02,2.397029101848602295e-02,-1.794586889445781708e-02,9.664721041917800903e-02,9.787526726722717285e-02,2.957231923937797546e-02,-5.609055981040000916e-02,-4.976332560181617737e-02,5.064079910516738892e-02,1.320943683385848999e-01,-1.033246964216232300e-01,1.976008154451847076e-02,-3.406618256121873856e-03,6.583778560161590576e-02,6.432744115591049194e-02,-3.350694105029106140e-02,6.876093149185180664e-02,8.235777914524078369e-02,-3.038295172154903412e-02,5.613541603088378906e-02,-1.276663988828659058e-01,-3.158814087510108948e-02,1.053917780518531799e-02,1.191149950027465820e-01,-1.117484197020530701e-01,4.455656930804252625e-02,-5.632047355175018311e-02,7.717499136924743652e-02,-9.699479560367763042e-04,2.267497964203357697e-02,-5.378091707825660706e-02,-1.059794574975967407e-01,-4.536775406450033188e-03,-4.045958444476127625e-02
-7.754089683294296265e-02,7.152294367551803589e-02,1.180617213249206543e-01,3.891225531697273254e-02,-4.469550028443336487e-02,1.016747653484344482e-01,8.304827660322189331e-02,6.625089049339294434e-02,-4.915194585919380188e-02,3.014677762985229492e-02,1.903366111218929291e-02,4.244295880198478699e-03,-9.596788138151168823e-02,-6.098103150725364685e-02,-1.802545040845870972e-02,-5.562464147806167603e-02,-2.773709408938884735e-02,9.626021981239318848e-02,1.153878867626190186e-02,6.884365528821945190e-02,-9.544644504785537720e-02,6.157800182700157166e-02,-2.599771134555339813e-03,-2.222014591097831726e-03,-4.235168918967247009e-03,-1.205462310463190079e-02,-5.683976411819458008e-02,1.731236279010772705e-01,5.264027044177055359e-02,-1.069721803069114685e-01,-2.304036915302276611e-02,-7.411047816276550293e-02,-1.904174871742725372e-02,9.860032796859741211e-02,-5.466192495077848434e-03,-8.165773004293441772e-02,-1.187058258801698685e-02,-9.708461910486221313e-02,8.242505788803100586e-02,4.640827327966690063e-02,6.948101520538330078e-02,1.696694456040859222e-02,3.163039684295654297e-02,5.014356225728988647e-03,1.196429878473281860e-01,6.323369598248973489e-05,5.469468981027603149e-02,7.759930938482284546e-02,5.849234014749526978e-02,-9.049374610185623169e-02,6.699897348880767822e-02,1.028968691825866699e-01,2.986173704266548157e-02,2.905205450952053070e-02,4.497195594012737274e-03,-6.014960631728172302e-02,3.719070460647344589e-03,-3.556116670370101929e-02,-4.721591249108314514e-02,1.031609922647476196e-01,-4.396096616983413696e-02,-2.131642401218414307e-02,9.554817527532577515e-02,9.714660793542861938e-02,-1.002844050526618958e-01,9.720138460397720337e-02,3.606152161955833435e-02,1.271574012935161591e-02,-7.815612107515335083e-02,7.293425500392913818e-02,1.485249213874340057e-02,-4.117112141102552414e-03,-3.506185486912727356e-02,-9.211721830070018768e-03,4.431860148906707764e-02,1.118368357419967651e-01,-5.995698645710945129e-02,-9.037305414676666260e-02,-3.635556995868682861e-02,-8.051858097314834595e-02,-2.539382129907608032e-02,1.429027467966079712e-01,4.466980323195457458e-02,-2.360178390517830849e-03,-7.119914889335632324e-02,5.217999592423439026e-02,2.956350706517696381e-02,-4.683625418692827225e-03,-1.020944584161043167e-02,3.573614172637462616e-03,-6.158867478370666504e-02,2.777522243559360504e-02,-3.254393860697746277e-02,-6.708787381649017334e-02,9.802128374576568604e-02,-1.175215095281600952e-02,3.277122601866722107e-02,8.808856830000877380e-03,7.667070627212524414e-02,-2.767889946699142456e-02
6.689084693789482117e-03,-1.092915013432502747e-01,-1.886289380490779877e-02,1.306032240390777588e-01,2.622131817042827606e-02,2.478458173573017120e-02,4.200671613216400146e-02,1.302974671125411987e-01,-4.685764387249946594e-02,3.401279821991920471e-02,4.254991561174392700e-02,-8.744110912084579468e-02,6.654044240713119507e-02,1.060457061976194382e-02,-1.049305126070976257e-01,7.004906982183456421e-02,9.245241433382034302e-02,-1.014561508782207966e-03,8.878860622644424438e-02,-5.463756620883941650e-02,6.085800379514694214e-02,4.862469062209129333e-02,5.040860176086425781e-02,-1.378411892801523209e-02,-3.513466194272041321e-02,1.810657046735286713e-02,1.245827898383140564e-01,5.630476772785186768e-02,5.933771375566720963e-03,-2.762552164494991302e-02,1.136102974414825439e-01,3.287642449140548706e-02,3.346793353557586670e-02,8.682414889335632324e-02,-3.910180181264877319e-02,8.100832253694534302e-02,-4.060830548405647278e-02,-6.352153606712818146e-03,1.250851005315780640e-01,6.798923015594482422e-02,-6.457953900098800659e-02,2.460202202200889587e-02,4.642681777477264404e-02,6.464663147926330566e-02,-1.453237514942884445e-02,4.651797935366630554e-02,-2.739478833973407745e-03,8.296883665025234222e-03,-4.454917833209037781e-02,6.492087990045547485e-02,-1.927696540951728821e-02,-3.591926395893096924e-02,8.108420670032501221e-02,-3.931038081645965576e-02,5.068476870656013489e-02,8.328963071107864380e-02,5.066119879484176636e-02,4.749533906579017639e-02,-5.839316174387931824e-02,-1.000105440616607666e-01,1.745534874498844147e-02,5.327117443084716797e-02,-6.065459176898002625e-02,-1.804719120264053345e-02,4.482042416930198669e-02,2.682988904416561127e-02,1.566279865801334381e-02,-8.538135141134262085e-02,-2.999295294284820557e-02,-8.969853818416595459e-02,8.936577290296554565e-02,-2.622704021632671356e-03,-4.671728238463401794e-02,4.067830368876457214e-02,7.033569365739822388e-02,-1.348584052175283432e-02,7.612885534763336182e-02,-1.589437015354633331e-02,5.590412020683288574e-02,-4.033839702606201172e-02,3.751581534743309021e-03,-8.304470032453536987e-02,-5.902618542313575745e-02,7.396192103624343872e-02,1.414622366428375244e-01,-2.295333705842494965e-02,-4.708663746714591980e-02,-3.970352467149496078e-03,-7.954490929841995239e-02,6.073315441608428955e-02,5.709515511989593506e-02,6.954099237918853760e-02,-2.483109198510646820e-02,1.604324392974376678e-02,-9.823381155729293823e-02,-1.017956435680389404e-02,-7.332882285118103027e-02,1.083099469542503357e-01,9.921553730964660645e-02,-2.414953708648681641e-02
-4.228590801358222961e-02,9.176518768072128296e-02,-5.858386307954788208e-02,1.014867275953292847e-01,-2.985564619302749634e-02,-2.278373762965202332e-02,-6.159213930368423462e-02,1.066076755523681641e-01,-1.073486823588609695e-02,6.377334147691726685e-02,2.270398661494255066e-02,-6.476841121912002563e-02,-9.160425513982772827e-02,6.605906784534454346e-02,1.054533496499061584e-01,7.461471855640411377e-02,-4.292530566453933716e-02,8.490841835737228394e-02,-6.907292455434799194e-02,1.192937493324279785e-01,3.702111542224884033e-03,1.142388358712196350e-01,-1.060051172971725464e-01,1.101952493190765381e-01,-6.170737370848655701e-02,-9.204286336898803711e-02,-6.272825878113508224e-03,-4.215529042994603515e-05,7.106792926788330078e-02,3.918797895312309265e-02,8.009317331016063690e-03,8.432858437299728394e-02,-2.897050231695175171e-02,1.965724118053913116e-02,8.570924401283264160e-02,-1.569620706140995026e-02,-4.003213718533515930e-02,5.779194761998951435e-04,4.597755521535873413e-02,3.277476504445075989e-02,-9.414980188012123108e-03,-5.164969339966773987e-02,-5.322528630495071411e-02,8.049141615629196167e-02,1.043787077069282532e-01,-6.621918082237243652e-02,-1.017348468303680420e-01,6.213992834091186523e-02,3.494783863425254822e-02,5.148465186357498169e-02,7.604315876960754395e-02,-9.222952276468276978e-02,2.175238169729709625e-02,4.268031567335128784e-02,-3.139290586113929749e-02,-9.236732125282287598e-02,-2.649121545255184174e-02,-1.407033111900091171e-02,-1.075232997536659241e-01,-7.088281959295272827e-02,-2.104886807501316071e-02,4.273534938693046570e-02,-8.929278701543807983e-02,6.020778045058250427e-02,-6.872155517339706421e-02,3.574270009994506836e-02,-1.158478483557701111e-01,-6.245340779423713684e-02,7.669436186552047729e-02,1.457059569656848907e-02,-5.939235538244247437e-02,-7.854336500167846680e-02,-1.010779142379760742e-01,8.370436728000640869e-02,-7.724523544311523438e-02,2.911547757685184479e-02,-4.392788559198379517e-02,-7.560978829860687256e-02,2.970999479293823242e-02,-1.041192784905433655e-01,-2.654051641002297401e-03,3.512877225875854492e-02,2.045960538089275360e-02,5.988795310258865356e-02,-8.315081708133220673e-03,-1.063878610730171204e-01,5.616771057248115540e-02,1.721061766147613525e-02,9.945096820592880249e-02,2.929202467203140259e-02,5.392071604728698730e-02,-2.278825640678405762e-02,-6.613750010728836060e-02,-1.960498280823230743e-03,-2.523856423795223236e-02,-5.011711269617080688e-02,1.807662658393383026e-02,4.758302494883537292e-02,6.119250506162643433e-02,1.139741670340299606e-02
9.718805551528930664e-02,-8.402163535356521606e-02,-2.762447856366634369e-02,-4.363110754638910294e-03,7.449397444725036621e-02,-3.863199055194854736e-02,-2.666903287172317505e-02,7.519360631704330444e-02,4.149476066231727600e-02,-4.280184954404830933e-02,-2.145655825734138489e-02,-6.938256323337554932e-02,-8.772082626819610596e-02,8.046665042638778687e-02,4.793176893144845963e-03,1.071831658482551575e-01,-1.772274635732173920e-02,4.608570784330368042e-02,7.417416572570800781e-02,4.481378477066755295e-03,8.950690925121307373e-02,-4.295941442251205444e-02,-7.981248199939727783e-02,-8.007309585809707642e-02,3.458032011985778809e-02,-8.399017155170440674e-02,1.034035533666610718e-01,-3.223340585827827454e-02,-6.704787909984588623e-02,-7.848338037729263306e-02,8.179147541522979736e-02,3.500415384769439697e-02,7.556664757430553436e-03,-5.416108667850494385e-02,-6.012884899973869324e-03,-2.049419330433011055e-03,1.067316159605979919e-01,1.174582052044570446e-03,-1.827378873713314533e-03,9.330943226814270020e-02,-4.022451862692832947e-02,-8.629167079925537109e-02,8.100921288132667542e-03,-4.538429784588515759e-04,-1.135275140404701233e-02,-5.874093156307935715e-03,7.168211787939071655e-02,-3.467753157019615173e-02,-4.509962722659111023e-02,9.749858081340789795e-02,-2.894555591046810150e-02,7.722878456115722656e-02,4.557168111205101013e-02,-5.820666626095771790e-02,-7.704672217369079590e-02,-6.745058111846446991e-03,5.351807922124862671e-02,2.734337188303470612e-02,-9.635727107524871826e-02,8.331516385078430176e-02,5.054669454693794250e-02,-3.632375597953796387e-02,7.623822987079620361e-02,3.045557998120784760e-02,-5.285269767045974731e-02,3.183910623192787170e-02,9.679307788610458374e-02,-8.498665876686573029e-03,7.435724884271621704e-02,-1.020418200641870499e-02,9.748767316341400146e-02,3.331197425723075867e-02,4.669481888413429260e-02,-4.865736700594425201e-03,9.084318578243255615e-02,6.784959137439727783e-02,-2.568627148866653442e-02,8.949773758649826050e-02,-4.270107299089431763e-02,-6.168994307518005371e-02,3.400134667754173279e-02,6.886114180088043213e-02,6.548693776130676270e-02,-8.943674713373184204e-02,-4.726877063512802124e-02,9.368558414280414581e-03,-6.684653460979461670e-02,5.423367768526077271e-02,-7.909896224737167358e-02,-1.073725447058677673e-01,8.675676584243774414e-02,-5.078005045652389526e-02,1.637839339673519135e-02,-7.856801897287368774e-02,5.899525806307792664e-02,7.100794464349746704e-02,1.693473779596388340e-03,-1.064863149076700211e-02,-2.561202086508274078e-02,-8.079037815332412720e-02
-7.401424646377563477e-02,-3.745297715067863464e-02,1.766213588416576385e-02,1.730799704091623425e-04,-9.627604857087135315e-03,3.905125707387924194e-02,-1.972008682787418365e-02,6.135870143771171570e-02,7.088091969490051270e-02,-4.618999082595109940e-03,-1.570570468902587891e-02,-4.074136167764663696e-02,4.714684560894966125e-02,-4.681556299328804016e-02,5.005376413464546204e-02,-1.568189077079296112e-02,8.475828170776367188e-02,-9.737644344568252563e-02,9.712740033864974976e-02,4.873953014612197876e-02,-1.137357484549283981e-02,-7.633575052022933960e-02,-3.899684175848960876e-02,-2.770871296525001526e-02,-1.567940041422843933e-02,-8.935696631669998169e-02,-3.228005766868591309e-02,-3.736582025885581970e-02,2.363562770187854767e-02,-7.802138477563858032e-02,-5.292735993862152100e-02,-8.994980901479721069e-02,-9.386298060417175293e-02,-5.837311968207359314e-02,-2.071319893002510071e-02,-1.222081948071718216e-02,-9.355930238962173462e-02,2.112427540123462677e-02,8.563244342803955078e-02,5.840113013982772827e-02,-3.128016134724020958e-03,-3.797692060470581055e-02,9.858466684818267822e-02,-4.162306711077690125e-02,5.387021228671073914e-02,5.283096805214881897e-02,9.599313884973526001e-02,-6.563627719879150391e-02,8.029613643884658813e-02,7.374065369367599487e-02,-6.400566548109054565e-02,5.887855961918830872e-02,-5.135638266801834106e-02,-5.581003800034523010e-02,2.112277224659919739e-02,3.825929388403892517e-02,-9.895439445972442627e-02,-3.474513068795204163e-02,-1.226283702999353409e-02,2.958095865324139595e-03,6.213925406336784363e-02,4.259860515594482422e-02,4.918279871344566345e-02,-3.405959159135818481e-02,-3.605028614401817322e-02,-6.079864501953125000e-02,2.762218751013278961e-02,-8.038094639778137207e-02,6.781659275293350220e-02,-3.622754290699958801e-02,1.893238537013530731e-02,8.688485622406005859e-02,-2.489063143730163574e-02,-9.270933270454406738e-02,3.750149160623550415e-02,8.276452310383319855e-03,-1.293172873556613922e-02,1.706483401358127594e-02,-2.789278328418731689e-02,5.080187693238258362e-02,3.154950961470603943e-02,-3.996565565466880798e-02,3.968967869877815247e-02,7.715573906898498535e-02,7.075063139200210571e-02,1.139234984293580055e-03,-6.498964130878448486e-02,-7.944169640541076660e-02,7.237381488084793091e-02,7.648246735334396362e-02,-9.759050607681274414e-02,-3.546364232897758484e-02,-2.552097104489803314e-02,5.314059555530548096e-03,-8.383740484714508057e-02,-6.758221238851547241e-02,7.163771428167819977e-03,8.911611884832382202e-02,-2.018388919532299042e-02,-1.689119823276996613e-02
-2.950687520205974579e-02,1.065013557672500610e-02,8.739142119884490967e-02,3.944388125091791153e-03,-4.348529875278472900e-02,-2.163850516080856323e-02,-5.858065560460090637e-02,9.967758320271968842e-03,7.739007472991943359e-02,-6.266830489039421082e-03,5.624864995479583740e-02,6.361347436904907227e-02,-9.686705470085144043e-02,5.223549902439117432e-02,2.340098842978477478e-02,1.006483882665634155e-01,-6.476537138223648071e-02,-1.895227469503879547e-02,-9.935417026281356812e-02,8.769816905260086060e-02,-7.966110110282897949e-02,-4.219948500394821167e-02,-8.581618219614028931e-02,-1.913568936288356781e-02,1.673784293234348297e-02,-1.710728928446769714e-02,3.371337056159973145e-02,3.641223162412643433e-02,1.518878992646932602e-02,-9.931208193302154541e-02,7.664894219487905502e-03,-8.791589736938476562e-02,-3.472881391644477844e-02,-3.796910122036933899e-02,-7.974172383546829224e-02,-6.416050344705581665e-02,3.216122975572943687e-03,-3.397786756977438927e-03,3.572624176740646362e-02,6.155300419777631760e-03,7.919470220804214478e-02,4.853761196136474609e-02,5.836448166519403458e-03,-9.541615843772888184e-02,1.898892782628536224e-02,5.230115726590156555e-02,1.388430595397949219e-02,1.899509504437446594e-02,-3.334788978099822998e-02,5.712232738733291626e-02,2.822258323431015015e-02,-2.450168132781982422e-03,-5.552034825086593628e-02,1.462794560939073563e-02,1.708667725324630737e-02,1.079426705837249756e-02,-5.854566022753715515e-02,-9.128571301698684692e-02,-3.598328307271003723e-02,-7.511741667985916138e-02,-8.923838287591934204e-02,8.791432529687881470e-02,-3.668468073010444641e-02,-7.903917878866195679e-02,1.697808131575584412e-02,3.136559575796127319e-02,8.261785656213760376e-02,-7.202152162790298462e-02,9.533573687076568604e-02,-3.009775839745998383e-02,-2.788802422583103180e-02,9.993360191583633423e-02,-2.376499958336353302e-02,-5.607564933598041534e-03,7.734650373458862305e-02,-4.618554189801216125e-02,-6.757156550884246826e-02,-1.799191907048225403e-02,-4.467912018299102783e-02,9.845250099897384644e-02,3.623292595148086548e-02,-2.813242189586162567e-02,-8.867856860160827637e-02,-8.695294708013534546e-02,-9.392261854372918606e-04,7.491538673639297485e-02,-1.828323118388652802e-02,6.418352574110031128e-02,1.340937521308660507e-02,-8.644953370094299316e-02,-9.602322429418563843e-02,7.056312263011932373e-02,8.695857226848602295e-02,-9.860672801733016968e-02,-9.573100507259368896e-02,5.850632488727569580e-02,8.764827251434326172e-02,-3.029148653149604797e-02,-6.308384984731674194e-02,-3.488866239786148071e-02
-1.321313064545392990e-02,-6.335140764713287354e-02,-5.345280468463897705e-02,2.254456095397472382e-02,2.734218724071979523e-03,4.719200357794761658e-02,-6.206427514553070068e-02,1.166728511452674866e-02,-8.582892268896102905e-02,3.478972613811492920e-02,-3.677922487258911133e-02,-9.091429412364959717e-02,7.314201444387435913e-02,-9.190785884857177734e-02,8.363866060972213745e-02,-7.966560125350952148e-02,4.025961458683013916e-02,2.549709565937519073e-02,7.272215094417333603e-03,-7.195542007684707642e-02,9.165050089359283447e-02,-4.720776528120040894e-02,6.469824910163879395e-02,5.621177330613136292e-02,-9.969816356897354126e-02,4.713029041886329651e-02,-7.320734672248363495e-03,1.039784550666809082e-01,-4.735070839524269104e-02,-5.642298981547355652e-02,6.390546262264251709e-02,1.742486841976642609e-02,6.495393812656402588e-02,-3.497501090168952942e-02,-7.687058299779891968e-02,-9.051872789859771729e-02,4.372505098581314087e-02,6.935892999172210693e-02,-4.023344069719314575e-02,-9.463124722242355347e-02,2.248282171785831451e-02,-1.028356887400150299e-02,6.653344631195068359e-02,3.531919792294502258e-02,6.137739494442939758e-02,4.317192360758781433e-02,-1.024514362215995789e-01,5.972945690155029297e-02,7.251814007759094238e-02,-4.918371792882680893e-03,4.147335886955261230e-02,-9.148095548152923584e-02,-5.797334387898445129e-02,-4.039524495601654053e-02,-5.246546491980552673e-02,5.232967436313629150e-02,9.336172789335250854e-02,1.004957631230354309e-01,4.951272159814834595e-02,-6.539528071880340576e-02,2.711767144501209259e-02,7.846693694591522217e-02,6.198675930500030518e-02,-6.866084039211273193e-02,-6.858535110950469971e-02,-5.100382026284933090e-03,8.430171757936477661e-02,-1.009806022047996521e-01,-4.722310230135917664e-02,8.608664572238922119e-02,-3.664046898484230042e-02,2.928447164595127106e-02,9.650810062885284424e-02,-8.331974968314170837e-03,-8.037324994802474976e-02,4.965465981513261795e-03,4.605386406183242798e-02,-8.575092256069183350e-02,-8.611372113227844238e-02,-5.467132106423377991e-02,3.580987453460693359e-02,-6.119271274656057358e-03,-3.629912808537483215e-02,2.793875709176063538e-02,2.407197374850511551e-03,3.274917369708418846e-03,4.682783782482147217e-02,-4.649716615676879883e-02,-8.125550299882888794e-02,7.258245721459388733e-03,8.627907186746597290e-02,8.532185852527618408e-02,6.175258755683898926e-02,-2.492026612162590027e-02,-7.898047566413879395e-02,7.071673870086669922e-02,3.349072532728314400e-03,-9.501447528600692749e-02,3.841989859938621521e-02,6.171804293990135193e-02
-8.121697604656219482e-02,2.280128188431262970e-02,-5.093060061335563660e-02,-4.181218519806861877e-02,5.021382123231887817e-02,2.766973571851849556e-03,9.647958725690841675e-02,-4.286050796508789062e-02,-8.899012207984924316e-02,1.043266616761684418e-02,-4.305266961455345154e-02,-5.513619631528854370e-02,-4.587060585618019104e-02,7.999264448881149292e-02,9.385137259960174561e-02,-8.826860226690769196e-03,-7.856382429599761963e-02,-8.316452056169509888e-02,-4.934613779187202454e-02,-2.167916297912597656e-02,-2.918680943548679352e-02,9.129164367914199829e-02,4.028729721903800964e-02,8.313401043415069580e-02,5.930032581090927124e-02,-4.811712540686130524e-03,1.284437179565429688e-01,-3.483119606971740723e-02,9.732209891080856323e-02,-6.948345899581909180e-02,6.121733412146568298e-02,3.414175286889076233e-02,3.743119910359382629e-02,2.388814464211463928e-02,-5.981045216321945190e-02,1.021081805229187012e-01,5.887328088283538818e-02,-6.674496084451675415e-02,4.250438138842582703e-02,2.383858896791934967e-03,-5.084336176514625549e-02,-3.242253884673118591e-02,-8.677261322736740112e-02,-7.818781770765781403e-03,7.321572303771972656e-02,9.253414720296859741e-02,2.877900749444961548e-02,-3.125173971056938171e-02,-5.851722881197929382e-02,4.232546687126159668e-02,-3.234055265784263611e-02,4.092313349246978760e-02,-4.929387569427490234e-02,7.737908512353897095e-02,8.803011476993560791e-02,-7.621296495199203491e-02,-7.360234856605529785e-02,4.464758932590484619e-02,-5.080364271998405457e-02,-6.358233839273452759e-02,-2.027700841426849365e-02,1.360603421926498413e-02,-1.986237615346908569e-02,-4.968632757663726807e-02,6.190044805407524109e-02,8.111739903688430786e-02,2.016905136406421661e-02,-6.263909488916397095e-02,-7.644470781087875366e-02,-5.146819632500410080e-03,-9.252282977104187012e-02,2.935201674699783325e-02,1.718333363533020020e-02,-1.429584994912147522e-02,6.196988001465797424e-02,-7.005314528942108154e-02,-6.148056685924530029e-02,-2.020437968894839287e-03,-2.292287768796086311e-03,-4.056373983621597290e-02,-2.003256790339946747e-02,-3.185771033167839050e-02,7.109765708446502686e-02,-7.498440891504287720e-02,7.992369681596755981e-02,-4.702237620949745178e-02,2.254878170788288116e-02,-1.655200496315956116e-02,-6.938438117504119873e-02,3.146675974130630493e-02,6.210325285792350769e-02,-4.641172941774129868e-03,5.169527232646942139e-02,7.423607259988784790e-02,-7.724042236804962158e-02,-7.286862283945083618e-02,1.190069317817687988e-02,8.916278183460235596e-02,-9.053212590515613556e-03,-3.747550025582313538e-02
-1.022593602538108826e-01,-2.530538849532604218e-02,-8.239190280437469482e-02,1.301465183496475220e-01,1.756499148905277252e-02,1.476697809994220734e-02,3.002267703413963318e-02,7.766252011060714722e-02,-3.631223738193511963e-02,1.496755480766296387e-01,8.709841221570968628e-02,-2.505661733448505402e-02,-2.524572052061557770e-02,-2.491321228444576263e-02,1.945174648426473141e-03,-1.721697673201560974e-02,7.269896566867828369e-02,-2.242826297879219055e-02,1.275157630443572998e-01,-1.574065536260604858e-02,1.279952377080917358e-01,1.537776887416839600e-01,1.057277098298072815e-01,9.085649996995925903e-02,-7.446807622909545898e-02,-3.241734951734542847e-02,1.786940246820449829e-01,3.038297779858112335e-02,2.766170725226402283e-02,9.512094408273696899e-02,1.515292841941118240e-02,1.748717948794364929e-02,-2.274207770824432373e-02,1.913306675851345062e-02,2.954023191705346107e-03,1.462377756834030151e-01,-2.222964540123939514e-02,-4.612112790346145630e-02,1.775383055210113525e-01,1.546441912651062012e-01,6.396394968032836914e-02,2.649151906371116638e-02,-7.158506661653518677e-02,9.463471174240112305e-02,7.990761846303939819e-02,7.132595032453536987e-02,3.476424515247344971e-02,-9.461875259876251221e-02,-4.380322620272636414e-02,-5.832212790846824646e-02,-7.968261837959289551e-02,-3.506328538060188293e-02,6.866973638534545898e-02,5.215997993946075439e-02,5.832406505942344666e-02,3.540054708719253540e-02,-4.523200914263725281e-02,-1.570367068052291870e-02,2.193543501198291779e-02,-8.720614761114120483e-02,1.223921477794647217e-01,4.541832208633422852e-02,8.499015122652053833e-02,-6.948401778936386108e-02,6.092245876789093018e-02,5.433757603168487549e-02,1.140471315011382103e-03,-8.281747251749038696e-02,2.101367153227329254e-02,2.326919697225093842e-02,9.345885366201400757e-02,1.023622676730155945e-01,1.857201382517814636e-02,5.678196623921394348e-02,-2.803608402609825134e-02,-6.940125674009323120e-02,1.376423090696334839e-01,1.093649417161941528e-01,-2.279628679389134049e-04,-3.392039239406585693e-02,9.167827665805816650e-02,3.934832662343978882e-02,-1.007979288697242737e-01,-3.552332147955894470e-02,1.773700676858425140e-02,9.071350842714309692e-02,1.735236644744873047e-01,-6.263799220323562622e-02,-7.344957441091537476e-02,-7.996707409620285034e-02,1.501611918210983276e-01,1.179403141140937805e-01,6.722268462181091309e-02,8.595667034387588501e-02,-1.429836153984069824e-01,-9.950003772974014282e-02,1.265960484743118286e-01,8.546082675457000732e-02,2.261797152459621429e-02,3.362490236759185791e-02
6.274595856666564941e-02,-5.559168383479118347e-02,6.141775846481323242e-02,-7.155402749776840210e-02,-9.535087645053863525e-02,-2.615221776068210602e-02,1.935935392975807190e-02,7.574776560068130493e-02,2.204000391066074371e-02,3.942231833934783936e-02,-1.462824642658233643e-02,9.060591459274291992e-02,9.099121391773223877e-02,2.371503785252571106e-02,-7.969655841588973999e-02,2.025971375405788422e-02,9.892062097787857056e-02,-4.731186106801033020e-02,-8.756568282842636108e-02,-7.434159517288208008e-02,-6.737805902957916260e-02,-1.370115019381046295e-02,-3.111307136714458466e-02,-8.726088702678680420e-02,-3.304030047729611397e-03,9.825477749109268188e-02,6.256268359720706940e-03,-5.224489793181419373e-02,4.931592196226119995e-02,2.736723423004150391e-02,-2.031521871685981750e-02,5.250488966703414917e-02,7.425673305988311768e-02,8.056682534515857697e-03,6.809696555137634277e-02,1.552051603794097900e-01,1.000014543533325195e-01,-2.847954630851745605e-02,1.168265789747238159e-01,1.334848068654537201e-02,1.145255635492503643e-03,-5.899631604552268982e-02,-4.569674655795097351e-02,-6.283246725797653198e-02,-9.205413050949573517e-03,5.776695534586906433e-02,6.851382553577423096e-02,-7.130416482686996460e-02,-6.189786829054355621e-03,-8.623898029327392578e-02,3.271376714110374451e-02,-9.507393836975097656e-02,3.137583285570144653e-02,2.497787587344646454e-02,2.471866086125373840e-02,-8.233477920293807983e-02,-4.878139123320579529e-02,-3.016935475170612335e-02,-4.059986025094985962e-02,-9.654381871223449707e-02,1.072609350085258484e-01,-4.317470639944076538e-02,-8.136196434497833252e-02,-5.133582651615142822e-02,5.523773655295372009e-02,-5.518816411495208740e-02,4.701532050967216492e-02,-8.473056554794311523e-02,-2.900342084467411041e-02,-9.456469863653182983e-02,-9.556604921817779541e-02,4.768360033631324768e-02,8.065856993198394775e-02,2.745997719466686249e-02,7.095185574144124985e-03,-1.651805266737937927e-02,-4.035269469022750854e-02,1.365666389465332031e-01,1.917317137122154236e-02,-7.895588874816894531e-02,7.544472813606262207e-02,1.839517243206501007e-02,3.798929508775472641e-03,7.579284254461526871e-03,9.944044053554534912e-02,7.410137355327606201e-02,9.949719905853271484e-02,-4.210602119565010071e-02,-3.632086142897605896e-02,-1.027222946286201477e-01,1.867202855646610260e-02,-3.873819112777709961e-02,-9.598737210035324097e-02,5.540230125188827515e-02,9.317752718925476074e-02,2.268065139651298523e-02,1.069401875138282776e-01,-4.819521307945251465e-02,1.914288848638534546e-03,7.351373136043548584e-02
-5.561895295977592468e-02,-2.156019210815429688e-02,-8.823628723621368408e-02,-4.178277403116226196e-02,-1.065041963011026382e-02,-3.754847124218940735e-02,-1.650460995733737946e-02,5.466146767139434814e-02,-2.902339585125446320e-02,-5.714470148086547852e-02,-9.824389219284057617e-02,6.593718379735946655e-02,-8.221107535064220428e-03,-1.567767560482025146e-02,-7.038986682891845703e-02,-3.399031236767768860e-02,-8.784972876310348511e-02,6.905762106180191040e-02,1.225564721971750259e-02,-4.591368511319160461e-02,4.068019986152648926e-02,-9.028273075819015503e-02,-7.290194928646087646e-02,4.539921134710311890e-02,5.840657278895378113e-02,2.914222516119480133e-02,-9.388821199536323547e-03,7.680881023406982422e-02,-7.661189138889312744e-02,7.180691510438919067e-02,-3.816360607743263245e-02,1.396995782852172852e-02,-7.003874331712722778e-02,-4.152973741292953491e-02,6.436012685298919678e-02,4.487545415759086609e-02,-4.425152763724327087e-02,-7.086526602506637573e-02,-7.999837398529052734e-02,9.223628044128417969e-02,-4.590916633605957031e-02,-6.580796558409929276e-03,1.227921247482299805e-02,7.185100764036178589e-02,8.142717927694320679e-02,-7.201116532087326050e-03,-5.439045280218124390e-02,-3.174446895718574524e-02,-7.207394391298294067e-02,2.973377518355846405e-02,3.424191381782293320e-03,-2.532979846000671387e-02,-8.139436691999435425e-02,3.856610273942351341e-03,6.622811406850814819e-02,9.336495772004127502e-03,-9.519594162702560425e-02,3.893506526947021484e-02,-4.722396284341812134e-02,-1.118127163499593735e-02,-4.340649768710136414e-02,-7.266461104154586792e-02,6.511667370796203613e-02,-7.172030210494995117e-02,-3.497233986854553223e-02,9.518595039844512939e-02,2.254061773419380188e-02,7.860016822814941406e-02,7.898835837841033936e-02,6.229090690612792969e-02,-2.525942027568817139e-02,-7.019356638193130493e-02,1.806326210498809814e-02,-5.330337956547737122e-02,7.911031693220138550e-02,9.442883729934692383e-02,9.434577822685241699e-02,-8.876558393239974976e-02,-2.485901303589344025e-02,3.283496573567390442e-02,9.299235790967941284e-02,-6.077842786908149719e-02,-4.948842525482177734e-02,-3.894078545272350311e-03,9.034360945224761963e-02,6.393410265445709229e-02,6.787189841270446777e-02,-8.234415948390960693e-02,2.021185122430324554e-02,8.223843760788440704e-03,6.901238858699798584e-02,8.790111541748046875e-02,-3.986233472824096680e-02,-3.315549343824386597e-02,-1.323895435780286789e-02,8.579337969422340393e-03,-1.819228008389472961e-02,-7.150901108980178833e-02,-9.060043841600418091e-02,-7.062461972236633301e-02
-7.654482126235961914e-02,-6.912747770547866821e-02,-6.054750829935073853e-02,5.584761872887611389e-02,-6.494790315628051758e-02,-3.219844540581107140e-03,-3.608086332678794861e-02,-9.524238854646682739e-02,-4.846781492233276367e-02,2.895154291763901711e-03,1.721262349747121334e-03,-9.196031093597412109e-02,8.155702054500579834e-02,-4.612000286579132080e-02,-3.830390423536300659e-02,-4.219225049018859863e-02,5.576412752270698547e-02,-9.627356380224227905e-02,-9.264384955167770386e-02,8.606212586164474487e-02,-6.488943099975585938e-02,8.472196012735366821e-02,-7.012014091014862061e-02,-5.918878689408302307e-02,-4.384342581033706665e-02,-6.822352111339569092e-02,6.175831332802772522e-02,-7.605915516614913940e-02,-2.224503830075263977e-02,-7.157023251056671143e-02,6.375721096992492676e-02,4.646828398108482361e-02,-8.794347941875457764e-02,-1.732012070715427399e-02,-3.912703320384025574e-02,-9.880304336547851562e-02,-4.298051074147224426e-02,-4.074110090732574463e-02,1.581815257668495178e-02,3.436807543039321899e-02,-9.363681077957153320e-02,-6.181938946247100830e-02,5.574531108140945435e-02,-5.194751545786857605e-02,-8.706488460302352905e-02,6.653680652379989624e-02,8.463090658187866211e-02,-1.073544006794691086e-02,3.682624921202659607e-02,-4.600108414888381958e-02,5.654847249388694763e-02,4.802720621228218079e-02,-2.005727775394916534e-02,3.235839679837226868e-02,1.923791877925395966e-02,3.710408881306648254e-02,9.966843761503696442e-03,-4.609822481870651245e-02,-1.483518444001674652e-02,-1.386517845094203949e-02,9.795541316270828247e-02,-4.443873837590217590e-02,-6.920453161001205444e-02,2.477018721401691437e-02,-7.109529525041580200e-02,-4.507931880652904510e-03,-2.972698071971535683e-03,-2.610529772937297821e-02,-7.465700805187225342e-02,2.495791949331760406e-02,3.603383898735046387e-03,9.845024347305297852e-02,6.422462314367294312e-02,2.191139012575149536e-02,-2.027941495180130005e-02,-4.903660342097282410e-02,9.444910287857055664e-02,-9.933406859636306763e-02,1.029045414179563522e-02,6.964065134525299072e-02,1.697087287902832031e-02,4.319791123270988464e-02,-4.165859147906303406e-02,2.528992854058742523e-02,8.857394754886627197e-02,-7.482288032770156860e-02,-5.480819940567016602e-02,7.273059338331222534e-02,9.640135103836655617e-04,7.743310183286666870e-02,-9.302864968776702881e-02,-4.265389218926429749e-02,8.272549510002136230e-02,4.232403263449668884e-02,-1.982251182198524475e-02,7.657014578580856323e-02,-1.017314940690994263e-01,2.826659381389617920e-02,1.134726777672767639e-02,7.175947725772857666e-02
1.418107468634843826e-02,4.537128284573554993e-02,3.029516711831092834e-02,-6.199580617249011993e-03,1.372573059052228928e-02,-4.622569307684898376e-02,7.933069765567779541e-02,-3.861363977193832397e-02,1.782915368676185608e-02,1.131000071763992310e-01,6.307294219732284546e-02,-5.249359644949436188e-03,7.354873418807983398e-02,9.820795804262161255e-02,-5.360409244894981384e-02,5.093776807188987732e-02,1.595981977880001068e-02,1.154898628592491150e-01,1.846680790185928345e-02,-5.595393851399421692e-02,7.492906413972377777e-03,5.952478386461734772e-03,9.664939343929290771e-02,-5.557990446686744690e-02,-4.506034776568412781e-02,-1.033080555498600006e-02,3.520655632019042969e-02,-5.472831428050994873e-02,1.165946759283542633e-02,1.109454184770584106e-01,-2.839107997715473175e-02,9.551589190959930420e-02,8.893063664436340332e-02,6.367850303649902344e-02,-6.592690199613571167e-02,1.055594533681869507e-01,7.180975377559661865e-02,-3.937681019306182861e-02,1.911476626992225647e-02,3.817896940745413303e-04,2.528936974704265594e-02,4.506915062665939331e-02,-2.077486552298069000e-02,-3.608444705605506897e-02,2.661653608083724976e-02,-4.965588077902793884e-02,-9.770307689905166626e-02,-7.129932940006256104e-02,-1.517047919332981110e-02,8.204572647809982300e-02,2.205257490277290344e-02,-3.338914364576339722e-02,1.225622463971376419e-02,-9.440554305911064148e-03,-9.113116562366485596e-02,-8.078140765428543091e-02,8.741339296102523804e-02,-8.764789998531341553e-02,1.951293647289276123e-02,6.325557082891464233e-02,6.711177527904510498e-02,-7.462280243635177612e-02,-7.077676057815551758e-02,6.117055565118789673e-02,4.129338078200817108e-03,-6.028161570429801941e-02,-9.448668360710144043e-02,-6.350025534629821777e-02,-2.100350568071007729e-03,6.163033097982406616e-02,3.565009683370590210e-02,-5.353721976280212402e-02,3.015508316457271576e-02,-3.016432002186775208e-02,-3.915694355964660645e-02,-3.636012226343154907e-02,1.908706314861774445e-02,9.674436599016189575e-02,9.194441139698028564e-03,2.168259769678115845e-02,2.045018784701824188e-02,-7.652745395898818970e-02,-3.031780011951923370e-02,4.091338813304901123e-02,-3.894554078578948975e-02,1.871569268405437469e-02,9.251841902732849121e-02,-6.755046546459197998e-02,9.646813385188579559e-03,5.538415163755416870e-02,7.199345529079437256e-02,-1.092637702822685242e-02,-2.905528806149959564e-02,-5.450679361820220947e-02,-6.987783312797546387e-02,4.294424131512641907e-02,-2.080203033983707428e-02,2.951444312930107117e-02,3.940521180629730225e-02,6.101126223802566528e-02
-1.121757365763187408e-02,7.381296157836914062e-02,7.257858663797378540e-02,-8.475563675165176392e-02,2.730331942439079285e-02,4.032767191529273987e-02,-6.375849246978759766e-02,5.362185183912515640e-03,2.722139284014701843e-02,-1.450704969465732574e-02,5.501672625541687012e-02,1.094709411263465881e-01,6.275274604558944702e-02,-7.175000011920928955e-02,8.054497092962265015e-02,7.406824827194213867e-02,4.393685236573219299e-02,9.531853348016738892e-02,-3.283493220806121826e-02,-7.446379214525222778e-02,7.215944677591323853e-02,3.061481751501560211e-02,4.815469682216644287e-02,-9.255399927496910095e-03,-7.589883357286453247e-02,3.116624616086483002e-02,7.659945636987686157e-02,5.585556849837303162e-02,8.137920498847961426e-02,-4.266583919525146484e-02,-3.814600780606269836e-02,-5.845884606242179871e-02,-8.296309411525726318e-02,3.659651800990104675e-02,9.427898377180099487e-02,-6.776954978704452515e-03,-4.731778521090745926e-03,1.006102096289396286e-02,9.913344867527484894e-03,-3.899384662508964539e-02,4.565978050231933594e-02,9.266856312751770020e-02,6.555821746587753296e-02,-8.604063093662261963e-02,-3.020030073821544647e-02,6.800212711095809937e-02,-4.073031619191169739e-02,-8.722098171710968018e-02,3.325259778648614883e-03,8.281396329402923584e-02,-9.342410415410995483e-02,-2.456616237759590149e-02,3.104871371760964394e-03,6.556312739849090576e-02,7.169228047132492065e-02,-6.444438546895980835e-02,-3.694380819797515869e-02,7.485128194093704224e-02,1.755355484783649445e-02,1.394470632076263428e-01,7.609067112207412720e-02,-3.291800990700721741e-02,-4.224175214767456055e-02,9.531343728303909302e-02,-8.710393309593200684e-02,-7.301386445760726929e-02,7.217160612344741821e-02,-5.011012777686119080e-02,-4.938646033406257629e-02,-6.136057153344154358e-02,-7.282715290784835815e-03,3.169171139597892761e-02,7.191025465726852417e-02,4.749077372252941132e-03,-5.318431183695793152e-03,4.258036613464355469e-03,6.840240210294723511e-02,1.104884371161460876e-01,-1.086393296718597412e-01,-2.108314074575901031e-03,4.333254694938659668e-02,1.082503125071525574e-01,6.986074149608612061e-02,6.868482381105422974e-02,3.992924094200134277e-02,4.157861694693565369e-02,3.973105177283287048e-02,6.095375120639801025e-02,5.523957312107086182e-02,-9.853418916463851929e-02,-1.224993076175451279e-02,3.453383222222328186e-02,8.619283325970172882e-03,-3.651995677500963211e-03,-5.487569421529769897e-02,-5.461415648460388184e-02,-4.343818500638008118e-02,-2.592260017991065979e-03,-9.762724488973617554e-02,-4.924811050295829773e-02
5.687070265412330627e-02,-8.346696197986602783e-02,6.729692220687866211e-02,6.047144904732704163e-02,5.645600706338882446e-02,1.713013648986816406e-01,5.481048300862312317e-02,1.727215200662612915e-01,-2.844110690057277679e-02,-2.814973331987857819e-02,-4.987115785479545593e-02,-1.726166345179080963e-02,-6.625110656023025513e-02,4.506624862551689148e-02,3.375201299786567688e-02,3.074225224554538727e-02,-2.198239089921116829e-03,1.258350163698196411e-02,5.401840806007385254e-02,4.652353003621101379e-02,4.581585526466369629e-02,1.904563754796981812e-01,-1.430159527808427811e-02,1.175206378102302551e-01,-6.174034997820854187e-02,7.314594695344567299e-04,1.131074726581573486e-01,-1.051884442567825317e-01,7.328954339027404785e-02,-2.136304415762424469e-02,1.188866910524666309e-03,1.116019207984209061e-02,8.467496186494827271e-02,-9.341612458229064941e-02,4.458912089467048645e-02,-2.679861150681972504e-02,-3.317957371473312378e-02,-2.911296673119068146e-02,-2.060868218541145325e-02,-7.447423040866851807e-02,-1.785147469490766525e-03,8.780053257942199707e-02,3.649854287505149841e-02,-4.537144675850868225e-02,1.033107750117778778e-02,-1.722337491810321808e-02,-5.772254988551139832e-02,-8.795597404241561890e-02,1.609436050057411194e-02,-4.948139190673828125e-02,-3.100356087088584900e-02,-4.551547393202781677e-02,-9.737449884414672852e-02,-6.444764137268066406e-02,1.999302394688129425e-02,-7.954388856887817383e-02,-3.487516194581985474e-02,7.926375418901443481e-02,-1.200817376375198364e-01,-1.981421262025833130e-01,-8.406751602888107300e-02,-8.567070215940475464e-02,4.787295684218406677e-02,2.049756981432437897e-02,3.623797371983528137e-02,7.371888309717178345e-02,4.376939311623573303e-02,2.341388352215290070e-02,1.507372688502073288e-02,-1.058482974767684937e-01,-3.109216690063476562e-02,-4.046807065606117249e-02,1.688356697559356689e-02,6.281225383281707764e-02,3.153868764638900757e-02,-5.943705886602401733e-02,5.410027876496315002e-02,-4.817618057131767273e-02,1.376501098275184631e-02,8.481008000671863556e-03,-6.050006300210952759e-02,-4.285772889852523804e-02,1.292746048420667648e-02,1.454323064535856247e-02,2.579479478299617767e-02,-1.368317008018493652e-01,-1.419402938336133957e-02,1.220347136259078979e-01,2.361560240387916565e-03,1.401558965444564819e-01,-6.015660241246223450e-02,-3.767200559377670288e-02,1.643290556967258453e-02,9.583889693021774292e-02,-1.070493906736373901e-01,-7.079580798745155334e-03,7.519039511680603027e-02,3.480590879917144775e-02,1.012503951787948608e-01,2.175942622125148773e-02
7.236701250076293945e-02,-4.925296176224946976e-03,-6.596834212541580200e-02,-2.698303200304508209e-02,-8.192037791013717651e-02,5.778684839606285095e-02,-3.776739165186882019e-02,-7.771962881088256836e-02,-8.071021735668182373e-02,-3.022051416337490082e-02,-6.181991845369338989e-02,2.897060709074139595e-03,8.847150206565856934e-02,-1.257966551929712296e-02,6.138630583882331848e-02,-8.123612962663173676e-03,-8.129585534334182739e-02,5.783563107252120972e-02,2.580929361283779144e-02,1.280155871063470840e-02,1.152389794588088989e-01,-8.973423391580581665e-02,-4.616073891520500183e-02,5.131954327225685120e-03,-3.815718740224838257e-02,3.608759865164756775e-02,6.457516551017761230e-02,-8.549220114946365356e-02,-5.482467636466026306e-02,1.372308433055877686e-01,6.738002877682447433e-03,1.051303651183843613e-02,8.294275403022766113e-02,-7.626253366470336914e-02,-3.888884186744689941e-02,1.613744944334030151e-01,-1.526068616658449173e-02,9.247296303510665894e-02,1.437637805938720703e-01,1.007333844900131226e-01,-9.733624011278152466e-02,9.490784257650375366e-03,9.502597153186798096e-02,6.499091535806655884e-02,8.373362943530082703e-03,5.879413336515426636e-03,-7.687982171773910522e-02,-4.381040483713150024e-02,-1.349730137735605240e-02,-3.905366361141204834e-02,7.293295860290527344e-02,-5.601735413074493408e-02,5.702802538871765137e-02,-4.736907780170440674e-02,-6.504858285188674927e-02,-7.400438189506530762e-03,2.116867527365684509e-02,-6.277544796466827393e-02,4.957747459411621094e-02,-3.019543923437595367e-02,-4.919417202472686768e-02,2.685424871742725372e-02,5.775215849280357361e-02,6.204508617520332336e-02,1.035057678818702698e-01,1.081899739801883698e-02,-6.175479292869567871e-02,9.883832186460494995e-02,-7.069987058639526367e-02,-2.457942068576812744e-02,-6.351340562105178833e-02,7.001537084579467773e-02,8.912094682455062866e-02,6.341268122196197510e-02,8.064396679401397705e-02,3.275097161531448364e-02,3.774515166878700256e-02,-2.169013023376464844e-03,3.155129775404930115e-02,1.039579138159751892e-01,-3.719143569469451904e-02,9.084583073854446411e-02,5.052501708269119263e-02,2.875667624175548553e-02,-7.175727188587188721e-02,3.427141904830932617e-02,-1.384708331897854805e-03,-6.200341880321502686e-02,-1.268889382481575012e-02,-5.790299922227859497e-02,4.281980171799659729e-02,-6.037868186831474304e-02,-6.336917728185653687e-02,-4.825059697031974792e-02,-3.985215723514556885e-02,-8.809605985879898071e-02,5.073448643088340759e-02,-2.360888570547103882e-02,8.114380389451980591e-02,3.514424338936805725e-02
9.450202924199402332e-04,-1.028333324939012527e-02,-8.753184229135513306e-03,-5.321463197469711304e-02,1.923466846346855164e-02,8.995752781629562378e-02,6.725280731916427612e-02,5.643530935049057007e-02,8.089276403188705444e-02,4.857435449957847595e-02,-2.823859453201293945e-02,-6.523538380861282349e-02,-6.301911920309066772e-02,4.686859250068664551e-02,-3.691386803984642029e-02,-6.130936741828918457e-02,3.559551760554313660e-02,8.953989297151565552e-02,8.814073354005813599e-02,-5.168864130973815918e-02,-6.209768354892730713e-02,2.120731212198734283e-02,2.924965322017669678e-02,4.130360856652259827e-02,-5.261223390698432922e-02,1.073871552944183350e-01,-1.051267236471176147e-01,5.405226349830627441e-02,-5.235795304179191589e-02,1.862948015332221985e-02,-5.442759394645690918e-02,-8.239218592643737793e-02,8.996959775686264038e-02,6.814485788345336914e-02,4.519458860158920288e-02,3.933420032262802124e-02,5.260865762829780579e-02,-7.152244448661804199e-02,3.798934444785118103e-02,2.731029316782951355e-02,8.856698125600814819e-02,-6.800443679094314575e-02,4.604687914252281189e-02,2.497670240700244904e-02,9.501987695693969727e-02,-1.076604798436164856e-02,8.125411719083786011e-02,8.620639890432357788e-02,-2.588281175121665001e-03,1.364399492740631104e-02,8.492846041917800903e-02,4.108968377113342285e-02,8.456399291753768921e-02,-7.022400200366973877e-02,1.810123398900032043e-02,7.219511270523071289e-02,4.013101011514663696e-02,7.315082848072052002e-02,2.359155192971229553e-02,6.898720562458038330e-02,-2.412078157067298889e-02,2.321340329945087433e-02,2.124457620084285736e-02,8.292736858129501343e-02,-6.911683827638626099e-02,-1.085937917232513428e-01,-1.557074394077062607e-02,-9.296012669801712036e-02,7.311772555112838745e-02,-6.210115924477577209e-02,8.004835993051528931e-02,-6.439904123544692993e-02,6.596116721630096436e-02,-1.018870435655117035e-02,4.693327471613883972e-02,-1.653585582971572876e-02,4.720123857259750366e-02,1.909480243921279907e-02,3.294384106993675232e-02,-9.512062370777130127e-02,-8.035563677549362183e-02,1.106934528797864914e-02,8.022321015596389771e-02,-5.066161975264549255e-02,7.750970311462879181e-03,-5.668425559997558594e-02,2.164176292717456818e-02,7.953302562236785889e-02,1.115843467414379120e-02,9.038028120994567871e-02,3.985405713319778442e-02,-7.487597316503524780e-02,6.408362835645675659e-02,9.044228494167327881e-02,9.971588850021362305e-02,9.039574861526489258e-02,9.275890886783599854e-03,2.766597457230091095e-02,-3.663944080471992493e-02,3.024772554636001587e-02
