1.635126769542694092e-02,-3.443992137908935547e-02,1.187140420079231262e-01,5.660481378436088562e-02,-4.490313306450843811e-02,5.948488041758537292e-02,5.845403671264648438e-02,-7.221542298793792725e-03,-2.285812050104141235e-02,2.170591428875923157e-02,-4.140029475092887878e-02,-8.079277724027633667e-02,3.715245053172111511e-02,-1.843973994255065918e-02,-7.660441845655441284e-02,-3.239859268069267273e-02,3.232217580080032349e-02,4.317067936062812805e-02,6.132263690233230591e-02,5.744240060448646545e-02,1.416951268911361694e-01,-8.457221835851669312e-02,5.278575047850608826e-02,-1.853913627564907074e-02,-3.043593280017375946e-02,6.925863772630691528e-02,1.247684881091117859e-01,-8.824012428522109985e-02,5.978028103709220886e-02,-5.103799514472484589e-03,-6.852969527244567871e-02,7.441258057951927185e-03,7.124522328376770020e-02,7.683174312114715576e-02,1.252272129058837891e-01,7.930915802717208862e-02,-1.361524313688278198e-02,2.947839349508285522e-02,-7.693720608949661255e-02,-9.563452005386352539e-02,8.262797258794307709e-03,-7.949569821357727051e-02,1.439978331327438354e-01,-5.579025298357009888e-02,-8.886761218309402466e-02,-2.293390966951847076e-02,2.843641489744186401e-02,1.875500939786434174e-02,9.459251910448074341e-02,-2.365312352776527405e-02
-3.890822455286979675e-02,-1.212644949555397034e-01,-8.539377897977828979e-02,2.931771427392959595e-02,-2.309438027441501617e-02,-5.778096616268157959e-02,9.335806220769882202e-02,4.208149760961532593e-02,-5.824296548962593079e-02,-2.001480013132095337e-02,4.788516834378242493e-02,4.384123533964157104e-02,5.805752589367330074e-04,7.569412142038345337e-02,-3.117286413908004761e-02,-3.409611433744430542e-02,-5.297076329588890076e-02,-5.054721608757972717e-02,6.842429190874099731e-02,-2.200736291706562042e-02,-3.243343962822109461e-04,1.881514675915241241e-02,-2.178666554391384125e-02,-1.437635999172925949e-02,-2.888741903007030487e-02,1.796279475092887878e-02,-1.955625414848327637e-02,3.997660428285598755e-02,8.606693707406520844e-03,4.246142506599426270e-02,2.456557191908359528e-02,-1.186169870197772980e-02,5.086202174425125122e-02,8.679655939340591431e-02,4.205464944243431091e-02,1.840560138225555420e-02,6.072019413113594055e-02,4.500341415405273438e-02,-5.136722233146429062e-03,7.996664196252822876e-02,9.608301520347595215e-02,-8.470540493726730347e-02,-7.677607983350753784e-02,-4.770566243678331375e-03,7.591194659471511841e-02,5.118747241795063019e-03,3.543538739904761314e-03,5.060420557856559753e-02,5.578316003084182739e-02,1.163701191544532776e-01
9.222179651260375977e-04,7.273799926042556763e-02,4.982006549835205078e-02,7.549332827329635620e-02,-5.256756395101547241e-02,3.050770610570907593e-02,-6.387511640787124634e-02,-2.001656591892242432e-02,-4.966288059949874878e-02,-2.420087903738021851e-02,-2.732464671134948730e-02,-8.419358730316162109e-02,-2.708660624921321869e-02,-6.121549010276794434e-02,3.929346427321434021e-02,-1.666267216205596924e-02,-4.268733318895101547e-03,-3.980684652924537659e-02,-8.122006431221961975e-03,6.961200386285781860e-02,7.077110558748245239e-02,-2.115018106997013092e-02,-1.009221076965332031e-01,7.172857969999313354e-02,-5.912230163812637329e-02,1.429905369877815247e-02,-8.627539873123168945e-02,-1.675263419747352600e-02,-9.441599249839782715e-04,4.177289456129074097e-02,-7.206537574529647827e-02,5.891600251197814941e-02,-3.881160542368888855e-02,-3.879975527524948120e-03,-1.803929172456264496e-02,8.662081509828567505e-02,4.405459761619567871e-02,9.368935972452163696e-02,6.931759417057037354e-02,6.189168244600296021e-02,-8.215105533599853516e-02,2.388155274093151093e-02,-4.458434414118528366e-03,1.749404892325401306e-02,7.794351130723953247e-02,3.685202449560165405e-02,7.592239975929260254e-02,4.852985963225364685e-02,2.367816120386123657e-02,-4.977230355143547058e-02
4.123982787132263184e-02,5.670182406902313232e-02,-5.792228505015373230e-02,-1.742347329854965210e-02,2.587818168103694916e-02,-3.080569952726364136e-02,-1.805545017123222351e-02,-9.888403862714767456e-02,6.532813608646392822e-02,6.729868054389953613e-02,-7.874342054128646851e-02,6.762260198593139648e-02,7.601708918809890747e-02,-1.669827662408351898e-02,-5.376403033733367920e-02,-2.047174796462059021e-02,-4.008547961711883545e-02,-2.753533655777573586e-03,-8.908531814813613892e-02,7.713016867637634277e-02,-5.348543170839548111e-03,-9.969349205493927002e-02,3.416967019438743591e-02,-4.025762155652046204e-02,-6.168346479535102844e-02,-2.220644429326057434e-02,-1.134500652551651001e-01,9.952712804079055786e-02,-7.629889994859695435e-02,3.864344954490661621e-02,-8.713603019714355469e-02,-1.653605885803699493e-02,-3.792707622051239014e-02,7.323503959923982620e-03,-3.013670258224010468e-02,-3.952128067612648010e-02,-2.349221520125865936e-02,-1.941044814884662628e-02,1.598250237293541431e-03,1.303473860025405884e-02,-8.268344402313232422e-02,-1.690774783492088318e-02,-3.174411132931709290e-02,2.675236389040946960e-02,9.854377806186676025e-02,-1.102428734302520752e-01,1.235022768378257751e-01,1.201733499765396118e-01,-5.066432058811187744e-03,6.081686541438102722e-02
-9.450293332338333130e-02,3.842479363083839417e-02,1.352423802018165588e-02,-3.465861827135086060e-02,8.853215724229812622e-02,-3.984756022691726685e-02,9.338112920522689819e-02,-8.802630752325057983e-02,5.294174700975418091e-02,-1.204600743949413300e-02,-3.745350288227200508e-03,-2.988080307841300964e-02,5.458731949329376221e-02,-3.966555371880531311e-02,-9.012120217084884644e-02,8.655388653278350830e-02,-1.005072072148323059e-01,9.660241007804870605e-02,8.810247480869293213e-02,-7.436431944370269775e-02,1.922555081546306610e-02,4.289441183209419250e-02,9.996161609888076782e-02,-6.713415682315826416e-02,2.733414061367511749e-02,-7.159805297851562500e-02,7.291955500841140747e-02,8.088240027427673340e-02,1.887772232294082642e-02,1.050241738557815552e-01,-2.500342577695846558e-02,5.166232213377952576e-02,-4.282200708985328674e-02,5.399456620216369629e-02,8.001797646284103394e-02,2.248847484588623047e-02,7.412016391754150391e-02,1.366049796342849731e-02,-2.288980968296527863e-02,-4.612133651971817017e-02,1.693335324525833130e-01,3.219940140843391418e-02,1.360096931457519531e-01,9.427510201930999756e-02,-1.549837365746498108e-02,4.897171258926391602e-02,2.365781366825103760e-02,8.446156978607177734e-02,-3.858114406466484070e-02,2.965442603453993797e-03
-5.791928153485059738e-03,-4.598321393132209778e-02,-9.366231970489025116e-03,9.512935578823089600e-02,7.152775675058364868e-02,9.195018559694290161e-02,3.914605081081390381e-02,-4.901620373129844666e-02,-6.113924831151962280e-02,-2.867181785404682159e-02,1.088798232376575470e-02,3.063348866999149323e-02,6.224442273378372192e-02,3.869128227233886719e-02,6.486302614212036133e-02,8.031447976827621460e-02,9.429307281970977783e-02,9.297428280115127563e-02,-8.817927539348602295e-02,5.473557859659194946e-02,9.287992119789123535e-02,7.006115466356277466e-02,-5.321239307522773743e-02,6.517192721366882324e-02,-3.939691558480262756e-02,9.750018268823623657e-02,4.179118201136589050e-02,-4.445496574044227600e-02,3.919985517859458923e-02,5.274943262338638306e-02,1.249459921382367611e-03,2.106424793601036072e-02,-5.223691090941429138e-02,-5.739532411098480225e-02,-1.005646735429763794e-01,6.873206049203872681e-02,-5.842556431889533997e-02,-8.151867985725402832e-02,-6.521455943584442139e-02,-3.383497893810272217e-02,-8.967564254999160767e-02,1.006957218050956726e-01,-7.263448089361190796e-02,3.813140839338302612e-02,-5.077716894447803497e-03,-3.469370678067207336e-02,3.103766404092311859e-02,-5.421764776110649109e-02,-7.792009413242340088e-02,6.110395118594169617e-02
1.003853753209114075e-01,7.282730191946029663e-02,3.781885281205177307e-02,-3.896768391132354736e-02,1.242090761661529541e-01,-6.287420541048049927e-02,5.508197471499443054e-02,2.929223328828811646e-02,9.136609733104705811e-04,-7.335524260997772217e-02,-5.227880552411079407e-02,3.882262483239173889e-02,1.323588043451309204e-01,7.849390059709548950e-02,-1.534829754382371902e-02,5.365584790706634521e-02,-2.264507580548524857e-03,8.913967013359069824e-02,-9.641886502504348755e-02,9.424580261111259460e-03,1.500605698674917221e-02,5.742291361093521118e-02,1.004153713583946228e-01,1.069764718413352966e-01,-3.345070034265518188e-02,1.544486917555332184e-02,-2.059984207153320312e-02,9.805566817522048950e-02,-8.812233060598373413e-02,-7.881614379584789276e-03,-5.797966569662094116e-02,1.422319654375314713e-02,9.783917665481567383e-02,2.166163409128785133e-03,-5.888840928673744202e-02,-4.261039942502975464e-02,-7.454282604157924652e-03,2.254098799312487245e-04,1.194029599428176880e-01,-7.385446131229400635e-02,-8.894333988428115845e-02,-1.801891066133975983e-02,7.224924117326736450e-02,9.274414181709289551e-02,7.585583627223968506e-02,-2.221898920834064484e-02,-2.036318741738796234e-02,-2.399695105850696564e-02,-8.893939107656478882e-02,5.125419050455093384e-02
3.831425681710243225e-02,2.450269088149070740e-02,1.069509387016296387e-01,5.086264759302139282e-02,-4.647606983780860901e-02,2.983658201992511749e-02,8.568606525659561157e-02,-1.298826932907104492e-02,-2.595692127943038940e-02,-3.705639764666557312e-02,5.289994180202484131e-03,9.496171772480010986e-02,-4.945019260048866272e-02,1.043856963515281677e-01,4.400842264294624329e-02,-2.186839096248149872e-02,6.194540858268737793e-02,8.794039487838745117e-02,2.413550205528736115e-02,6.121142953634262085e-02,8.342290669679641724e-02,3.871763125061988831e-02,-8.494883030652999878e-02,-7.387600094079971313e-02,8.537966758012771606e-02,6.635840982198715210e-02,6.029871851205825806e-02,1.873327605426311493e-02,-4.499375075101852417e-02,7.657592743635177612e-02,-1.603799127042293549e-02,3.699695691466331482e-02,1.021842099726200104e-02,-4.799987003207206726e-02,9.204318374395370483e-02,-8.990234136581420898e-02,-8.290800265967845917e-03,-9.815540164709091187e-03,-7.982093095779418945e-02,-7.824622094631195068e-02,1.053167060017585754e-01,-6.426002085208892822e-02,4.675241187214851379e-02,4.104499891400337219e-02,1.068874895572662354e-01,-3.065149113535881042e-02,4.836478456854820251e-02,6.478086113929748535e-02,-8.091344684362411499e-02,2.148115634918212891e-02
7.906993851065635681e-03,1.009590700268745422e-01,-9.096784144639968872e-02,-3.679056465625762939e-02,1.753450930118560791e-02,3.686288371682167053e-02,-9.856235980987548828e-02,-7.133705914020538330e-02,8.346319943666458130e-02,-1.764844357967376709e-02,8.177062869071960449e-02,1.079356595873832703e-01,-6.959334760904312134e-02,4.340185597538948059e-02,8.305549621582031250e-02,-4.085913300514221191e-02,6.551259756088256836e-02,5.666047334671020508e-02,8.661540597677230835e-02,-8.028437383472919464e-03,-9.198591858148574829e-02,4.853852465748786926e-02,-6.321465969085693359e-02,-1.556425448507070541e-02,2.293748781085014343e-02,-7.495778147131204605e-03,-3.154323995113372803e-02,-1.701608672738075256e-02,-2.569612860679626465e-02,-8.141630887985229492e-02,3.433384001255035400e-03,-5.514476913958787918e-03,-2.587397955358028412e-02,2.078344346955418587e-03,1.027391757816076279e-02,-4.530552029609680176e-02,7.291363179683685303e-02,5.647725891321897507e-03,3.618933260440826416e-02,4.116899520158767700e-02,-2.777674421668052673e-02,1.019723415374755859e-01,-9.347982704639434814e-02,-4.554322361946105957e-02,-1.090668980032205582e-02,-1.330043841153383255e-02,5.769470706582069397e-02,2.771180495619773865e-02,-1.804716885089874268e-02,8.592084050178527832e-02
-4.630832001566886902e-02,3.670561313629150391e-02,-6.568833440542221069e-02,-9.592255204916000366e-02,-9.389138966798782349e-02,-2.172904089093208313e-02,1.025418937206268311e-01,-1.447285711765289307e-02,-3.482728451490402222e-02,-3.038234310224652290e-03,2.623988129198551178e-02,-4.245806857943534851e-02,1.873296685516834259e-02,7.926733791828155518e-02,-4.512438608799129725e-04,-8.388823270797729492e-02,-2.591903135180473328e-02,3.247925266623497009e-02,8.327654004096984863e-02,6.910657393746078014e-04,1.086402758955955505e-01,5.060146003961563110e-02,-8.450565487146377563e-02,-7.538009434938430786e-02,3.095351718366146088e-02,-5.393486097455024719e-02,4.131112620234489441e-02,4.891844931989908218e-03,7.673948258161544800e-02,-3.617967665195465088e-02,-3.320775926113128662e-02,9.225321561098098755e-02,-4.653913900256156921e-02,-9.685610234737396240e-02,-7.882162928581237793e-02,2.720738388597965240e-02,8.969739079475402832e-02,7.990484684705734253e-02,-9.466546587646007538e-03,-7.927715778350830078e-03,4.941206797957420349e-02,5.941210314631462097e-02,-4.733652248978614807e-02,-5.455187708139419556e-02,4.247367754578590393e-02,-7.529830932617187500e-02,1.854295842349529266e-03,-8.609838783740997314e-02,7.538119703531265259e-02,5.309277772903442383e-02
8.428618311882019043e-02,-5.267802253365516663e-02,-3.858040273189544678e-02,-8.749832212924957275e-02,4.136680439114570618e-02,-8.784753084182739258e-02,1.088314428925514221e-01,-6.784662604331970215e-02,4.418033733963966370e-02,-3.543379902839660645e-02,-9.979804605245590210e-02,-6.732577085494995117e-02,1.229691691696643829e-02,-4.452704265713691711e-02,-4.917800799012184143e-02,-9.532355517148971558e-02,-4.505070298910140991e-02,7.837143540382385254e-02,-1.937013305723667145e-02,-2.381739392876625061e-02,1.165923662483692169e-02,-9.431710839271545410e-02,-6.192896887660026550e-02,-8.002105355262756348e-02,5.433529242873191833e-02,-9.978222101926803589e-02,1.556679904460906982e-01,3.414228186011314392e-02,5.653044208884239197e-02,2.701549418270587921e-02,3.385435789823532104e-02,-7.883830368518829346e-02,8.083356916904449463e-02,2.492172829806804657e-02,3.779541328549385071e-02,8.051247149705886841e-02,-7.065288722515106201e-02,-1.147719174623489380e-01,-5.467769503593444824e-02,-7.364841550588607788e-02,1.651980280876159668e-01,-9.751967154443264008e-03,1.225994601845741272e-01,-1.710028946399688721e-02,-9.256958030164241791e-03,-3.139555081725120544e-02,-9.383431822061538696e-02,-6.430721282958984375e-02,3.562421351671218872e-02,-4.039832204580307007e-02
1.061582099646329880e-02,3.551268950104713440e-02,5.150699242949485779e-02,-2.298102900385856628e-02,8.389358222484588623e-02,9.713625907897949219e-02,-7.001855969429016113e-02,2.544827014207839966e-02,-3.166745230555534363e-02,-6.864777207374572754e-02,2.331263199448585510e-02,2.611844800412654877e-02,7.334090024232864380e-02,9.145497530698776245e-02,-6.336656957864761353e-02,8.359857648611068726e-02,7.600017637014389038e-02,-1.310509396716952324e-03,-6.457782350480556488e-03,5.401871353387832642e-02,-5.169548094272613525e-02,2.275200374424457550e-02,-3.042152337729930878e-02,-9.592209756374359131e-02,3.015609271824359894e-02,1.824657246470451355e-02,1.570178009569644928e-02,7.990227639675140381e-02,7.832749187946319580e-02,6.171915307641029358e-02,5.988464504480361938e-02,-4.707576707005500793e-02,-2.938900329172611237e-02,-8.380076289176940918e-02,-1.326680779457092285e-01,9.781971573829650879e-02,1.767544262111186981e-02,-6.854012608528137207e-02,9.064015746116638184e-02,-3.371751308441162109e-02,-1.071900725364685059e-01,5.398882925510406494e-02,-5.207809433341026306e-02,8.850929886102676392e-02,-2.515547536313533783e-02,4.210452362895011902e-02,-4.302198812365531921e-02,5.881589278578758240e-02,-7.395637035369873047e-02,-9.823969751596450806e-02
-2.738235145807266235e-02,-7.960593700408935547e-02,-9.004142135381698608e-02,6.261024624109268188e-02,-3.038580901920795441e-02,1.515610609203577042e-02,-8.376312442123889923e-03,-9.995517879724502563e-02,2.002973668277263641e-02,-7.219329476356506348e-03,-5.348551273345947266e-02,4.156734421849250793e-02,-8.031003177165985107e-02,1.023574173450469971e-01,-7.810480147600173950e-02,-6.391261518001556396e-02,-3.279445320367813110e-02,4.097167402505874634e-02,1.457583159208297729e-03,4.441989585757255554e-03,7.543259859085083008e-02,-2.094494551420211792e-02,-8.090246468782424927e-02,6.011021882295608521e-02,-3.535735979676246643e-02,3.947857022285461426e-02,4.596035927534103394e-02,4.563413187861442566e-02,9.716586023569107056e-02,-9.156651049852371216e-02,3.785497695207595825e-02,8.124081790447235107e-02,-5.579056218266487122e-03,8.284349925816059113e-03,-8.103813976049423218e-02,-1.186381280422210693e-02,-9.433639049530029297e-02,6.843739002943038940e-02,-3.563633188605308533e-02,4.131462424993515015e-02,-2.385611273348331451e-02,-7.720877230167388916e-02,-3.189224516972899437e-03,1.331970188766717911e-02,-2.420057915151119232e-02,-2.327630482614040375e-02,4.443220328539609909e-03,5.021956935524940491e-02,-7.676669210195541382e-02,1.088894829154014587e-01
-7.015636563301086426e-02,5.557719245553016663e-02,9.201497584581375122e-02,8.790303021669387817e-02,-8.475354313850402832e-02,-6.366021186113357544e-02,-1.055655628442764282e-02,2.827019244432449341e-02,2.162851206958293915e-02,-1.852191984653472900e-03,-9.142579138278961182e-02,1.187481265515089035e-02,1.926586590707302094e-02,-9.074021875858306885e-02,-4.030521586537361145e-02,-2.394822612404823303e-02,-6.633357703685760498e-02,3.499617427587509155e-02,-3.289257362484931946e-02,-5.347884446382522583e-02,-1.913268491625785828e-02,5.949306115508079529e-02,9.828388690948486328e-03,-4.904453083872795105e-02,-9.914080053567886353e-02,2.590380609035491943e-02,8.521480858325958252e-02,8.404109627008438110e-02,-5.144981294870376587e-02,2.749616466462612152e-02,6.962168961763381958e-02,8.462689816951751709e-03,5.921075865626335144e-02,-9.513950347900390625e-02,2.059506252408027649e-02,-3.405953571200370789e-02,7.496862858533859253e-02,-6.868333369493484497e-02,-6.147950142621994019e-02,7.098387926816940308e-02,-2.815920161083340645e-03,8.893907815217971802e-02,8.087997138500213623e-02,5.432483181357383728e-02,3.810132667422294617e-02,3.207394108176231384e-02,6.903450191020965576e-02,8.991235494613647461e-02,-6.720392405986785889e-02,-8.440178632736206055e-02
5.225662887096405029e-02,4.792221635580062866e-02,7.876279950141906738e-02,-2.038242993876338005e-03,6.871400028467178345e-02,8.529023081064224243e-02,-6.029118224978446960e-02,6.640761345624923706e-02,5.176484584808349609e-02,-7.659341394901275635e-02,6.582437455654144287e-02,-8.607106655836105347e-02,-1.266535557806491852e-02,-6.091698538511991501e-03,6.165313348174095154e-02,-5.118383467197418213e-02,3.934132307767868042e-02,4.662556946277618408e-02,-8.540983498096466064e-02,-6.134610623121261597e-02,2.133072353899478912e-03,-1.017451211810112000e-01,3.476718068122863770e-02,1.977323368191719055e-02,-1.725452579557895660e-02,3.194616362452507019e-02,-3.888224437832832336e-02,-6.043370068073272705e-02,-3.861254826188087463e-02,-1.689744368195533752e-02,6.892930716276168823e-02,3.852231893688440323e-03,9.895099326968193054e-03,-5.566296726465225220e-02,-5.180932953953742981e-02,1.070725768804550171e-01,1.488863397389650345e-02,-9.017209522426128387e-03,1.054392382502555847e-01,1.498158276081085205e-02,-5.400190129876136780e-02,-3.838676214218139648e-02,-9.149643778800964355e-02,-3.666155785322189331e-02,-1.328124105930328369e-02,-3.094590269029140472e-02,-5.040755495429039001e-02,-3.930984437465667725e-02,3.566152602434158325e-02,4.202711209654808044e-02
1.022013425827026367e-01,1.023134440183639526e-01,3.022790327668190002e-02,2.286227792501449585e-02,-9.012823551893234253e-02,-5.446221679449081421e-02,-8.534277975559234619e-02,5.878526717424392700e-02,3.115664608776569366e-02,-1.386976335197687149e-02,-3.649099543690681458e-02,-7.650128751993179321e-02,-1.871703006327152252e-02,-1.664400659501552582e-02,-6.240370124578475952e-02,7.831486314535140991e-02,7.634171098470687866e-02,-2.904585748910903931e-02,-8.370896428823471069e-02,6.787880789488554001e-03,2.661571605131030083e-03,3.744864603504538536e-03,6.956542376428842545e-03,4.741163866128772497e-05,4.694975540041923523e-02,-9.406554512679576874e-03,-4.998221527785062790e-03,7.297485321760177612e-02,7.562950998544692993e-02,2.406437695026397705e-02,-2.563952468335628510e-02,-7.804646342992782593e-02,4.147106781601905823e-02,4.634983465075492859e-02,-3.178577125072479248e-02,5.434237793087959290e-02,7.203266769647598267e-02,-5.904051288962364197e-02,4.771667346358299255e-02,-1.276192814111709595e-02,-5.924297496676445007e-02,6.286682188510894775e-02,-3.784824535250663757e-02,2.481256425380706787e-02,3.749305754899978638e-02,-6.521158665418624878e-02,6.536989659070968628e-02,7.067825645208358765e-02,4.503024369478225708e-02,8.871006779372692108e-03
-2.968628704547882080e-02,-6.404793821275234222e-03,-5.873342603445053101e-02,9.826341643929481506e-03,7.220946252346038818e-02,8.978258073329925537e-02,1.031049862504005432e-01,6.097870320081710815e-02,2.163962274789810181e-02,9.549533575773239136e-02,1.767603307962417603e-02,1.820012368261814117e-02,5.844712257385253906e-02,-8.769631385803222656e-02,8.775950223207473755e-02,-4.831254109740257263e-02,-5.370410531759262085e-02,7.058981060981750488e-02,7.535217702388763428e-02,9.214580059051513672e-02,-2.129355259239673615e-02,8.420945703983306885e-02,-4.220275953412055969e-02,7.760237157344818115e-02,-3.674549981951713562e-02,-3.291518986225128174e-02,5.696323886513710022e-02,8.791025727987289429e-02,-6.447184085845947266e-02,-1.958541199564933777e-02,-9.758256375789642334e-03,4.839502274990081787e-03,5.448984354734420776e-02,-3.124298900365829468e-02,9.847978502511978149e-02,7.881426066160202026e-02,-5.030139908194541931e-02,7.901789993047714233e-02,9.677878767251968384e-02,2.575501054525375366e-02,-3.760774806141853333e-02,-4.921876359730958939e-03,-1.639435999095439911e-02,-4.351037740707397461e-02,4.293189942836761475e-02,3.515442088246345520e-02,4.384812898933887482e-03,-4.183571413159370422e-02,3.792203962802886963e-03,9.164074063301086426e-02
2.176878787577152252e-02,-2.179499529302120209e-02,6.856027990579605103e-02,8.719666860997676849e-03,-9.695377945899963379e-02,9.545566141605377197e-02,-1.018220279365777969e-02,-2.461455762386322021e-02,2.235582470893859863e-02,-5.276491865515708923e-02,-7.057068403810262680e-03,5.220239050686359406e-03,-4.342595057096332312e-04,6.901927292346954346e-02,1.131039187312126160e-01,2.309319563210010529e-02,-2.654608152806758881e-02,-6.100142002105712891e-02,-9.986965358257293701e-02,5.866587162017822266e-03,1.775986887514591217e-02,3.667842829599976540e-03,2.746198698878288269e-02,5.659295991063117981e-02,-5.136897787451744080e-02,-6.301874667406082153e-02,6.976789981126785278e-02,-5.919420719146728516e-02,-4.550609737634658813e-02,5.467090290039777756e-03,7.141768187284469604e-02,-6.776444613933563232e-02,2.492182515561580658e-02,8.722866326570510864e-02,-9.548103809356689453e-02,-3.486602380871772766e-02,2.125836350023746490e-02,3.849748894572257996e-02,2.545595914125442505e-02,8.604624122381210327e-02,-9.266779571771621704e-02,-3.324344009160995483e-02,9.744232892990112305e-02,5.742382258176803589e-02,-4.128974676132202148e-02,3.595776855945587158e-02,1.085550338029861450e-01,-9.240956604480743408e-02,-3.229165077209472656e-02,-3.923464938998222351e-02
-9.536335617303848267e-02,7.266492396593093872e-02,-5.390267074108123779e-02,6.457740813493728638e-02,-3.491795435547828674e-02,6.605952978134155273e-02,7.811170071363449097e-02,-8.765555918216705322e-02,-9.316742420196533203e-02,6.317648291587829590e-02,4.930618032813072205e-02,1.041398104280233383e-02,4.199434071779251099e-02,-4.748310521245002747e-02,-3.029507026076316833e-02,6.418954115360975266e-03,2.491889707744121552e-02,-5.413681734353303909e-03,1.606571860611438751e-02,-8.170343190431594849e-02,-6.495381891727447510e-02,8.153956383466720581e-02,-2.214615978300571442e-02,-8.196626603603363037e-02,9.658917784690856934e-02,-4.545192699879407883e-03,-9.775283187627792358e-02,-3.628893941640853882e-02,7.454585283994674683e-02,7.861357182264328003e-02,2.018957398831844330e-03,3.504386916756629944e-02,3.172865137457847595e-03,-3.094653226435184479e-02,-6.692433357238769531e-02,-6.869733333587646484e-02,5.534444935619831085e-03,1.273818034678697586e-02,-5.979336798191070557e-02,1.158729940652847290e-02,4.477236792445182800e-02,1.146312728524208069e-01,-6.341813132166862488e-04,-4.164114594459533691e-02,-3.656546026468276978e-02,8.955302834510803223e-02,-7.504908740520477295e-02,9.554465115070343018e-02,2.045328915119171143e-02,-4.505366552621126175e-03
-1.051795706152915955e-01,-1.570877246558666229e-02,2.485661581158638000e-02,3.431805968284606934e-02,-9.496616572141647339e-02,-7.937975972890853882e-02,2.022824622690677643e-02,-1.219098269939422607e-02,-9.896918386220932007e-02,7.468035817146301270e-02,7.223615050315856934e-02,2.021669782698154449e-02,3.418916091322898865e-02,6.835017353296279907e-02,-8.713556826114654541e-02,5.264775827527046204e-02,7.647138088941574097e-02,-1.158424559980630875e-02,2.302766405045986176e-02,-7.850131392478942871e-02,1.087197959423065186e-01,7.685783319175243378e-03,-1.711908355355262756e-02,-2.973794471472501755e-03,4.417930543422698975e-02,1.296853087842464447e-02,8.498698472976684570e-02,-9.779579704627394676e-04,-7.908049970865249634e-02,-7.661438733339309692e-02,7.783044129610061646e-04,-9.025727212429046631e-02,-5.677196010947227478e-02,1.544189825654029846e-02,1.337399631738662720e-01,-6.975945830345153809e-02,9.884277358651161194e-03,3.606845438480377197e-02,-5.584656819701194763e-02,3.498303145170211792e-02,1.150499656796455383e-01,1.450272928923368454e-02,3.040242195129394531e-02,8.969870954751968384e-02,1.099677681922912598e-01,8.857619762420654297e-02,-8.210018277168273926e-02,-6.492035835981369019e-02,8.249536901712417603e-02,-5.089658498764038086e-02
1.126064267009496689e-02,9.913778305053710938e-02,-4.705433547496795654e-02,-2.581376768648624420e-02,-9.560908377170562744e-02,7.885308563709259033e-02,-3.351740911602973938e-02,-2.596426010131835938e-02,-5.147420614957809448e-02,-8.823451399803161621e-02,5.546526610851287842e-02,4.956135060638189316e-03,5.308428034186363220e-02,4.773244261741638184e-02,-1.062750350683927536e-02,3.906944394111633301e-02,-1.956643909215927124e-02,-7.318176329135894775e-02,-5.882345139980316162e-02,2.522981539368629456e-02,-3.818009421229362488e-02,-8.889564871788024902e-02,5.940246582031250000e-02,4.941343516111373901e-02,6.483478099107742310e-02,-5.385150760412216187e-02,3.657258674502372742e-02,8.413899689912796021e-02,9.194849431514739990e-02,-5.738621577620506287e-02,9.647117555141448975e-02,2.522392570972442627e-02,5.511163920164108276e-02,2.469153888523578644e-02,2.304627746343612671e-02,-7.049758732318878174e-02,-7.998853921890258789e-02,1.176209226250648499e-01,9.984020888805389404e-02,4.195414483547210693e-03,-5.084234103560447693e-02,-7.895322144031524658e-02,9.601848572492599487e-02,-1.004391983151435852e-01,6.874028593301773071e-02,9.182236343622207642e-02,3.827269375324249268e-02,-1.918503269553184509e-02,-3.747805953025817871e-03,5.191063135862350464e-02
9.262770414352416992e-02,-1.329818218946456909e-01,-8.142982423305511475e-02,-3.582805767655372620e-02,1.191179454326629639e-01,4.492288455367088318e-02,4.148790985345840454e-02,9.828334301710128784e-02,-3.479337692260742188e-02,3.453444316983222961e-02,-4.540972039103507996e-02,2.292205020785331726e-02,7.821343094110488892e-02,6.563255190849304199e-02,5.949327722191810608e-02,3.537846356630325317e-02,1.044434774667024612e-02,-6.919118575751781464e-03,9.845298714935779572e-03,4.921856895089149475e-02,-5.345357209444046021e-02,-6.394390948116779327e-03,-2.457205951213836670e-02,-6.721600890159606934e-02,-1.742523349821567535e-02,-2.032705349847674370e-03,-3.931746631860733032e-02,2.507655136287212372e-02,-6.386041641235351562e-02,-4.762056097388267517e-02,-9.370985627174377441e-02,-7.550254929810762405e-03,8.853184431791305542e-02,-6.422838568687438965e-02,-7.818058878183364868e-02,4.869314283132553101e-02,-2.951944060623645782e-02,-1.733023114502429962e-02,6.379365921020507812e-02,-9.276987612247467041e-02,9.386295452713966370e-03,-6.080020219087600708e-02,6.608179211616516113e-02,-3.553580865263938904e-02,1.100247502326965332e-01,6.324060261249542236e-02,8.364717662334442139e-02,1.210930272936820984e-01,5.540113896131515503e-02,9.006320685148239136e-02
-4.005530383437871933e-03,6.551545113325119019e-02,-2.376896142959594727e-02,-3.401859104633331299e-02,-3.149576717987656593e-03,8.939328789710998535e-02,-8.780414611101150513e-02,-3.572207689285278320e-02,-1.583286374807357788e-02,-2.352563291788101196e-02,-1.210848521441221237e-02,-1.579946465790271759e-02,5.405977368354797363e-02,7.491751760244369507e-02,3.243580460548400879e-02,3.588326647877693176e-02,6.667150557041168213e-02,5.254926159977912903e-02,3.555581718683242798e-02,3.983055357821285725e-04,3.097871132194995880e-02,-6.052391231060028076e-02,-1.771342754364013672e-02,-4.128355532884597778e-02,5.390760302543640137e-02,4.479059949517250061e-03,6.202314794063568115e-02,6.954531185328960419e-03,3.455353528261184692e-02,6.319775432348251343e-02,2.035930752754211426e-03,-1.298219710588455200e-02,3.237223625183105469e-02,-8.406338840723037720e-02,4.094275832176208496e-02,-8.481299132108688354e-02,3.901344910264015198e-02,6.086316332221031189e-02,-6.483731418848037720e-02,2.893706411123275757e-02,-3.238198161125183105e-02,-9.514627978205680847e-03,-3.104718029499053955e-02,-1.249161455780267715e-02,-5.380370467901229858e-02,9.155545383691787720e-02,6.260122358798980713e-02,-7.137560844421386719e-02,9.346688538789749146e-02,5.560841411352157593e-02
-3.789575770497322083e-02,8.190207928419113159e-02,9.670629166066646576e-03,-1.950466074049472809e-02,1.021267324686050415e-01,-7.665029913187026978e-02,8.706329017877578735e-02,-3.640557825565338135e-02,-1.314672641456127167e-02,3.046317584812641144e-02,-9.648744948208332062e-03,4.542667046189308167e-02,-9.071645885705947876e-02,7.490622997283935547e-02,4.787933081388473511e-02,-5.115172639489173889e-02,7.135459035634994507e-02,7.149922847747802734e-02,-9.520427882671356201e-02,8.822384476661682129e-02,5.339816957712173462e-02,5.465574935078620911e-02,-5.851448327302932739e-02,-9.550777077674865723e-02,-6.872387975454330444e-02,5.273884534835815430e-02,7.044949568808078766e-03,-5.317197646945714951e-03,-8.123511075973510742e-02,5.544891208410263062e-02,-7.258032262325286865e-02,-3.499650955200195312e-02,5.176043882966041565e-02,8.661403506994247437e-02,-1.041155830025672913e-01,-4.812378063797950745e-02,-4.787992313504219055e-02,2.970030531287193298e-02,6.153457239270210266e-02,-2.309505641460418701e-02,5.012169852852821350e-02,4.125866293907165527e-02,8.999539166688919067e-02,-7.553108781576156616e-02,-7.343524694442749023e-02,6.569045037031173706e-02,1.660122163593769073e-02,5.194230750203132629e-02,4.774624854326248169e-02,3.208516910672187805e-02
-6.664322316646575928e-02,-9.804048575460910797e-03,3.653542324900627136e-02,-1.165847107768058777e-01,3.815926238894462585e-02,-7.405522465705871582e-02,1.042188107967376709e-01,-9.267427772283554077e-02,-6.011313945055007935e-02,-5.495561659336090088e-02,8.893806487321853638e-02,1.021282300353050232e-01,6.493911147117614746e-02,2.395712025463581085e-02,3.252530703321099281e-03,2.088946849107742310e-02,-4.882831126451492310e-03,6.420735269784927368e-03,-3.734223544597625732e-02,-7.902932912111282349e-02,-6.491398066282272339e-02,5.760575458407402039e-02,7.746151089668273926e-02,4.180987179279327393e-02,7.631938904523849487e-02,-4.007397592067718506e-02,-8.163069188594818115e-02,-4.296179488301277161e-02,7.516413182020187378e-02,5.049771815538406372e-02,-5.482752621173858643e-02,7.017786055803298950e-02,1.377151347696781158e-02,-7.524736970663070679e-02,-3.863509744405746460e-02,-4.777295887470245361e-02,3.048363886773586273e-02,4.052049294114112854e-02,5.609696730971336365e-02,-2.486541867256164551e-03,6.799710541963577271e-02,5.896897241473197937e-02,1.330127101391553879e-02,-5.132706835865974426e-02,1.104495972394943237e-01,-9.057370573282241821e-02,-3.782799839973449707e-02,-4.207084700465202332e-02,9.174106270074844360e-02,5.979358684271574020e-03
-8.832236379384994507e-02,-2.931464836001396179e-02,-1.492350827902555466e-02,8.007652312517166138e-02,-6.728429347276687622e-02,4.277308005839586258e-03,1.449172794818878174e-01,-1.567511260509490967e-02,-6.941525638103485107e-02,6.784285604953765869e-02,-5.923260375857353210e-02,-1.713822223246097565e-02,3.653401508927345276e-02,-5.861517786979675293e-02,-7.476600259542465210e-02,7.171582430601119995e-02,-7.186432927846908569e-02,-2.539881877601146698e-02,1.124766990542411804e-01,-8.031797409057617188e-02,-2.474522776901721954e-02,-5.188001692295074463e-02,-3.408353030681610107e-02,5.498781055212020874e-02,-3.034890256822109222e-02,4.421449452638626099e-02,1.012391895055770874e-01,-7.554636150598526001e-02,4.816942662000656128e-02,2.688958682119846344e-02,3.092535305768251419e-03,-6.238794326782226562e-02,7.439614832401275635e-02,-3.516227006912231445e-04,1.098335385322570801e-01,-3.811110928654670715e-02,3.152807801961898804e-02,-3.487418219447135925e-02,-1.468358747661113739e-02,-1.019217073917388916e-03,1.135791279375553131e-02,8.798457682132720947e-03,8.604698628187179565e-02,3.969828039407730103e-02,-2.871416276320815086e-03,5.902606993913650513e-02,-9.980241954326629639e-02,2.517186477780342102e-02,9.173064678907394409e-02,4.682542756199836731e-02
-2.278894744813442230e-02,8.492260426282882690e-02,-5.916652828454971313e-02,9.052962809801101685e-02,9.883599728345870972e-02,3.528920933604240417e-02,-7.359696179628372192e-02,-9.853146970272064209e-03,8.111099153757095337e-02,-9.441524744033813477e-02,1.347240619361400604e-02,1.408127322793006897e-02,1.976121962070465088e-02,-1.028844639658927917e-01,1.811082474887371063e-02,4.439170286059379578e-02,2.280250377953052521e-02,6.994628161191940308e-02,-5.835858359932899475e-02,1.252850890159606934e-01,4.173094779253005981e-02,-5.348895862698554993e-02,8.237288147211074829e-02,5.241933837532997131e-02,2.102560130879282951e-03,-6.936220079660415649e-02,1.090080291032791138e-02,4.485598206520080566e-02,-4.006116092205047607e-02,4.564871639013290405e-02,-6.280813366174697876e-02,-7.409595698118209839e-02,7.973706722259521484e-02,-3.529760241508483887e-02,5.342618003487586975e-02,4.084037616848945618e-02,-4.762004315853118896e-02,-3.654913231730461121e-02,-2.346534165553748608e-05,-9.703775495290756226e-02,-4.851635918021202087e-02,9.165099263191223145e-02,4.824852570891380310e-02,-4.942273348569869995e-02,-2.824325114488601685e-02,-9.067175537347793579e-02,1.314407885074615479e-01,6.974643468856811523e-02,-8.345836400985717773e-02,7.813981175422668457e-02
2.607687376439571381e-02,7.036022096872329712e-02,-6.019590049982070923e-02,7.315677404403686523e-02,9.166250377893447876e-02,-1.904996298253536224e-02,8.554942160844802856e-02,4.104710370302200317e-02,2.758769318461418152e-02,-9.947529993951320648e-03,-7.072391919791698456e-03,-1.896558701992034912e-02,-2.709187008440494537e-02,1.481890492141246796e-02,8.700532466173171997e-02,6.069084256887435913e-02,-7.106857746839523315e-02,-7.409569621086120605e-02,3.004259429872035980e-02,-1.050532422959804535e-02,6.936355680227279663e-02,6.140676513314247131e-02,-5.642358679324388504e-03,-9.154508262872695923e-02,-4.979125410318374634e-02,1.552216708660125732e-02,1.402565985918045044e-01,-1.772060617804527283e-02,6.638707220554351807e-02,3.285585343837738037e-02,-3.260884806513786316e-02,-7.809879723936319351e-03,8.421348035335540771e-02,1.832251437008380890e-03,1.479825936257839203e-02,5.034433212131261826e-03,-2.389112301170825958e-02,-1.445124298334121704e-02,3.515274822711944580e-02,4.758559912443161011e-02,5.196663551032543182e-03,2.628416754305362701e-02,-4.832102917134761810e-03,-7.021625060588121414e-04,-2.679977379739284515e-02,7.378423213958740234e-02,4.411340504884719849e-02,7.557772845029830933e-02,-4.533454775810241699e-03,7.579821348190307617e-02
-6.128305196762084961e-02,-2.470792084932327271e-02,-8.566883951425552368e-02,-9.163227677345275879e-02,-5.166507139801979065e-02,5.854001268744468689e-02,8.362786471843719482e-02,3.644270449876785278e-02,-8.630892634391784668e-02,9.433513134717941284e-02,-7.092492282390594482e-02,4.821019992232322693e-02,-2.124444209039211273e-02,8.626276999711990356e-02,-6.770544499158859253e-02,9.282553941011428833e-02,9.107004851102828979e-02,2.136068232357501984e-02,4.675568640232086182e-02,4.626055061817169189e-02,-5.711035057902336121e-02,7.281695306301116943e-02,6.453060358762741089e-02,4.916171729564666748e-02,1.013881415128707886e-01,1.114250067621469498e-02,3.988068085163831711e-03,-1.937891915440559387e-02,5.683458596467971802e-02,9.595263004302978516e-02,6.156873703002929688e-02,-5.588955059647560120e-02,6.679280847311019897e-02,-5.031734704971313477e-02,8.504940569400787354e-02,7.387407869100570679e-02,2.246956340968608856e-02,-2.756709605455398560e-02,2.308401465415954590e-02,-4.223523288965225220e-02,5.832231417298316956e-02,-1.617900468409061432e-02,1.103194579482078552e-01,9.743285924196243286e-02,9.184809029102325439e-02,8.327041752636432648e-03,-7.134281098842620850e-02,-8.772864937782287598e-02,9.370679408311843872e-02,-2.950619161128997803e-02
6.138348206877708435e-02,9.314295649528503418e-02,3.701367601752281189e-02,-8.852171897888183594e-02,-1.519820746034383774e-02,7.413703203201293945e-02,-6.547223031520843506e-02,6.999998539686203003e-02,7.856916636228561401e-02,-6.589122861623764038e-02,-6.304264068603515625e-02,-5.041103344410657883e-03,-6.558271497488021851e-02,3.356080502271652222e-02,-1.830237172544002533e-02,7.799009978771209717e-02,3.104937635362148285e-02,-3.082780912518501282e-02,7.239774335175752640e-03,3.017779812216758728e-02,-6.197359785437583923e-02,7.860966026782989502e-02,-7.166447490453720093e-02,-6.069776788353919983e-02,-7.971902191638946533e-02,-8.308760821819305420e-02,-2.031310275197029114e-02,-9.378086775541305542e-02,6.616245210170745850e-02,2.937449887394905090e-02,3.531537950038909912e-03,-6.789888441562652588e-02,6.039656698703765869e-02,1.967145502567291260e-02,7.664854079484939575e-02,5.553517490625381470e-03,8.277691900730133057e-03,-5.369745939970016479e-02,-6.244228407740592957e-02,5.724235624074935913e-02,-8.447601646184921265e-02,8.721002936363220215e-02,-1.057894062250852585e-02,-8.977717161178588867e-02,8.501467108726501465e-02,-4.533855244517326355e-02,-6.360810250043869019e-02,-6.133493408560752869e-02,-3.903584554791450500e-02,5.146456509828567505e-02
5.396714061498641968e-02,7.718417048454284668e-02,9.079290181398391724e-02,-9.454754739999771118e-02,9.748668223619461060e-02,-5.290697142481803894e-02,4.345603287220001221e-02,-4.069955274462699890e-02,9.108057618141174316e-02,8.606556057929992676e-02,8.246045559644699097e-02,-4.673240333795547485e-02,7.649272680282592773e-02,3.495866805315017700e-02,8.642483502626419067e-02,-5.182898044586181641e-02,-7.339145243167877197e-02,-1.897689513862133026e-02,-9.284329414367675781e-02,4.234395921230316162e-02,-4.704222083091735840e-03,-9.162963926792144775e-02,-3.273771703243255615e-02,-7.583943754434585571e-02,1.825892366468906403e-02,-3.728475049138069153e-02,-3.193814307451248169e-03,4.786171391606330872e-02,2.432206086814403534e-02,-9.254361689090728760e-02,3.523302078247070312e-02,-3.099541179835796356e-02,-9.484145790338516235e-02,2.477653324604034424e-02,3.520239144563674927e-02,-2.710150368511676788e-02,1.999682001769542694e-02,-8.539827913045883179e-02,-4.068878665566444397e-02,4.742696881294250488e-03,-2.641231194138526917e-02,5.238164588809013367e-02,1.977219246327877045e-03,-3.265025839209556580e-02,-8.559457957744598389e-02,-7.945623248815536499e-02,-4.573964327573776245e-02,-6.329105794429779053e-02,2.805057913064956665e-02,-9.369236975908279419e-02
-9.915084391832351685e-02,-4.437063634395599365e-02,-3.423168510198593140e-02,-5.680337920784950256e-02,-6.946553289890289307e-02,6.988348439335823059e-03,1.103879511356353760e-01,8.641220629215240479e-03,-8.991648256778717041e-02,-2.144138328731060028e-02,-9.491006284952163696e-02,-3.330506756901741028e-02,-8.349890261888504028e-02,4.333037510514259338e-02,-2.703148685395717621e-02,-6.586755160242319107e-03,9.366492182016372681e-02,2.688686549663543701e-02,1.934012398123741150e-02,-4.094604402780532837e-02,-4.435450956225395203e-02,8.670822530984878540e-02,1.357048749923706055e-02,8.582176268100738525e-02,4.156430810689926147e-02,-5.839417874813079834e-02,-8.679756865603849292e-05,-5.864959210157394409e-02,7.122323662042617798e-02,4.555443674325942993e-02,5.841735377907752991e-02,-7.492925971746444702e-02,3.350835666060447693e-02,-8.272080123424530029e-02,6.283429451286792755e-03,-2.696853317320346832e-02,-2.580873109400272369e-02,5.463741719722747803e-02,9.293007105588912964e-02,7.033193856477737427e-02,-3.976670652627944946e-02,-5.480973981320858002e-03,4.995262250304222107e-02,-4.371098242700099945e-03,2.204088307917118073e-02,4.130766540765762329e-02,9.063088335096836090e-03,7.602721452713012695e-02,-4.191790893673896790e-02,-8.494443446397781372e-02
-6.751026958227157593e-02,-7.460176199674606323e-02,8.251046389341354370e-02,6.837231665849685669e-02,8.655492216348648071e-03,9.687984734773635864e-02,8.034417778253555298e-02,-1.812805235385894775e-02,-6.605654489248991013e-04,2.262430079281330109e-02,9.057033807039260864e-02,-9.433357417583465576e-02,-7.468505203723907471e-02,-3.575440123677253723e-02,5.738591402769088745e-02,6.130690500140190125e-02,-5.068384110927581787e-03,4.560627415776252747e-02,-4.190088436007499695e-02,2.185968309640884399e-02,9.072625637054443359e-02,-1.258024666458368301e-02,-7.419258356094360352e-02,5.832256004214286804e-02,-5.747302621603012085e-02,5.204106494784355164e-02,-3.461107984185218811e-02,1.747344247996807098e-02,-7.253496441990137100e-04,-4.564173892140388489e-02,-9.863588958978652954e-02,-5.872983112931251526e-02,-9.164916723966598511e-02,2.344017662107944489e-02,4.458789713680744171e-03,9.807028621435165405e-02,8.858723193407058716e-02,2.372484840452671051e-02,1.252617388963699341e-01,7.123165577650070190e-02,-3.637989237904548645e-02,7.876613177359104156e-03,8.101638406515121460e-02,-9.796006232500076294e-02,2.309900941327214241e-03,7.265606522560119629e-02,7.061408460140228271e-02,4.104980826377868652e-02,6.813424080610275269e-02,-9.033579379320144653e-02
-4.511763900518417358e-02,-1.184918917715549469e-02,4.903128370642662048e-03,3.920778632164001465e-02,6.866890192031860352e-02,7.259882986545562744e-02,-2.140438556671142578e-02,5.329618602991104126e-02,-7.650080323219299316e-02,-4.448702186346054077e-02,3.590349853038787842e-02,-3.183969482779502869e-02,-2.071590349078178406e-02,1.789457513950765133e-03,7.226300239562988281e-02,-5.899953097105026245e-02,6.332982331514358521e-02,8.760593831539154053e-02,-5.873844772577285767e-02,-1.743756793439388275e-02,-4.128939472138881683e-03,2.023448236286640167e-02,5.218504928052425385e-03,4.305206611752510071e-02,9.123606979846954346e-02,8.691669255495071411e-02,5.077116191387176514e-02,-7.510221749544143677e-02,7.164286822080612183e-02,1.156453192234039307e-01,-4.831229150295257568e-02,1.263905433006584644e-03,7.289680838584899902e-02,4.185453057289123535e-02,7.761774212121963501e-02,9.617611020803451538e-02,-6.963391602039337158e-02,-7.853659242391586304e-02,1.201163753867149353e-01,-8.031912147998809814e-02,3.770072385668754578e-02,-2.163400314748287201e-02,-1.015763431787490845e-01,5.038157850503921509e-02,4.802524670958518982e-02,-9.114570915699005127e-02,-6.718618422746658325e-02,-1.157392282038927078e-02,8.772123605012893677e-02,7.671885937452316284e-02
2.789113111793994904e-02,-2.945896703749895096e-03,7.248034235090017319e-03,-3.894647955894470215e-02,8.774552494287490845e-02,-7.670000195503234863e-02,-2.900740504264831543e-02,3.421277552843093872e-02,3.152652829885482788e-02,8.683041483163833618e-02,4.234930872917175293e-02,9.028384089469909668e-02,1.251299679279327393e-01,1.289826259016990662e-02,-8.921749889850616455e-03,1.253398358821868896e-01,5.635536462068557739e-02,-2.420029602944850922e-02,5.018925294280052185e-02,4.201134294271469116e-02,-4.469949752092361450e-02,-4.722305014729499817e-02,7.496172934770584106e-02,3.581679612398147583e-02,-7.403886318206787109e-02,3.274834901094436646e-02,-8.505034446716308594e-02,-1.649686694145202637e-02,2.223329059779644012e-02,3.599900752305984497e-02,7.401109486818313599e-02,-8.513367921113967896e-02,-6.391586363315582275e-02,3.781135380268096924e-02,1.096266508102416992e-02,4.399366676807403564e-02,4.496522620320320129e-02,6.549899280071258545e-02,4.046127572655677795e-02,-7.671000063419342041e-02,5.982132628560066223e-02,1.046361550688743591e-01,-7.739873602986335754e-03,-6.774807721376419067e-02,3.922175243496894836e-02,-9.314256720244884491e-03,8.770147711038589478e-02,1.229537203907966614e-01,7.767742127180099487e-02,4.153091460466384888e-03
-1.818580180406570435e-02,5.385530740022659302e-02,-9.072583168745040894e-02,-4.419393092393875122e-02,-4.413903877139091492e-02,-4.189897328615188599e-02,-1.257585734128952026e-02,2.309739589691162109e-03,-9.996969252824783325e-03,6.468076258897781372e-03,2.557105943560600281e-02,-6.711643934249877930e-02,6.675677746534347534e-02,8.610674738883972168e-02,-7.330649346113204956e-02,1.081215664744377136e-01,7.571063935756683350e-02,-2.420170977711677551e-02,6.071118637919425964e-02,8.917935192584991455e-02,-9.439469873905181885e-02,4.056983441114425659e-02,4.342370107769966125e-02,-4.158980771899223328e-02,-8.447663486003875732e-02,3.643291071057319641e-02,2.985574863851070404e-02,6.505890190601348877e-02,-4.183948040008544922e-03,-1.001336053013801575e-01,-8.446266502141952515e-02,5.956255644559860229e-02,6.454921513795852661e-02,7.458312809467315674e-02,-4.972990974783897400e-02,8.199754357337951660e-02,-3.644399344921112061e-02,-7.132103294134140015e-02,2.131696604192256927e-02,2.770213037729263306e-02,7.567235082387924194e-02,-7.610416412353515625e-02,4.551167413592338562e-02,-4.336638748645782471e-02,-3.338813409209251404e-02,8.794349431991577148e-02,-1.584526337683200836e-02,-7.637822628021240234e-02,4.714984446763992310e-02,-8.969891071319580078e-02
3.959633782505989075e-02,-9.130591899156570435e-02,-5.556301400065422058e-02,5.877683870494365692e-03,3.565922006964683533e-02,-2.439119108021259308e-02,-6.291582249104976654e-03,-6.537840515375137329e-02,-8.277826756238937378e-02,1.151443179696798325e-02,-4.719442129135131836e-02,2.027257904410362244e-02,-5.110177211463451385e-03,4.737579822540283203e-02,-4.903149232268333435e-02,-1.231997087597846985e-02,4.550273343920707703e-02,-7.457777112722396851e-02,3.933578357100486755e-02,-6.764536350965499878e-02,8.134949207305908203e-02,-4.586204513907432556e-02,-6.442520022392272949e-02,-7.253757864236831665e-02,-5.302919074892997742e-02,4.259104607626795769e-04,9.412350133061408997e-03,1.259239856153726578e-02,-7.089211046695709229e-02,-6.266774982213973999e-02,-5.623707920312881470e-02,5.062923952937126160e-02,-8.899862295947968960e-04,7.809845358133316040e-02,-3.477581217885017395e-02,-6.440478563308715820e-02,-4.814924672245979309e-02,8.392390608787536621e-02,2.657585591077804565e-02,-4.669841751456260681e-02,9.827617555856704712e-02,-4.781338199973106384e-02,-3.113822266459465027e-02,9.826806187629699707e-02,4.175028204917907715e-02,-3.665586560964584351e-02,1.344841253012418747e-02,8.590210229158401489e-02,-5.764664337038993835e-02,9.655353426933288574e-02
7.212889939546585083e-02,9.784051775932312012e-02,-4.334782809019088745e-02,2.385284565389156342e-02,8.189731836318969727e-02,-3.204613551497459412e-02,-8.273736387491226196e-02,-8.787572383880615234e-03,5.140843335539102554e-03,-7.136833667755126953e-02,7.128972560167312622e-02,-8.301622420549392700e-02,-5.401022732257843018e-02,-7.341914623975753784e-02,4.252357035875320435e-02,2.815750986337661743e-02,1.029173061251640320e-01,6.312351673841476440e-02,9.174243360757827759e-02,9.947902709245681763e-02,-5.334863439202308655e-02,-2.993455715477466583e-02,-7.659496366977691650e-02,-9.104543179273605347e-02,-1.482441276311874390e-02,1.048723384737968445e-01,7.526370137929916382e-02,-7.732174545526504517e-02,1.741540431976318359e-02,-5.484894849359989166e-03,-6.309232115745544434e-02,8.174850046634674072e-02,-3.550607338547706604e-02,-3.494085976853966713e-03,-7.916406542062759399e-02,7.666238397359848022e-02,-8.427720516920089722e-02,6.649733334779739380e-02,-1.869432628154754639e-02,-4.526226595044136047e-02,1.847301423549652100e-02,-2.541429363191127777e-03,-8.294089883565902710e-02,6.908061355352401733e-02,-5.144063010811805725e-02,-8.644179999828338623e-02,1.297587603330612183e-01,-1.367951929569244385e-01,-3.545992076396942139e-02,-7.918606698513031006e-02
8.022939413785934448e-02,-7.605513185262680054e-02,5.914309248328208923e-02,-1.119087561964988708e-01,4.653464257717132568e-02,-5.326247215270996094e-02,8.874239400029182434e-03,-7.801546901464462280e-02,-7.901930809020996094e-02,5.337814614176750183e-02,4.807146638631820679e-02,-2.995284460484981537e-02,1.012486591935157776e-01,-1.718910411000251770e-02,-3.715799376368522644e-02,-5.619959533214569092e-02,-1.938305795192718506e-03,3.705357015132904053e-02,2.128965221345424652e-02,-8.352106437087059021e-03,4.962466284632682800e-02,-7.097349502146244049e-03,4.409614577889442444e-02,7.681486010551452637e-02,-4.137892648577690125e-02,-9.375065565109252930e-02,9.002033621072769165e-02,2.998320385813713074e-02,-2.659979043528437614e-03,-2.255680412054061890e-02,1.773291826248168945e-02,2.535038441419601440e-02,1.450541603844612837e-04,-3.001670353114604950e-02,5.462676659226417542e-02,-1.249498501420021057e-02,-8.904005587100982666e-02,-6.199451629072427750e-03,-7.824165374040603638e-02,-9.010255336761474609e-03,1.203946918249130249e-01,6.901285797357559204e-02,5.262162163853645325e-02,1.168957203626632690e-01,1.198702864348888397e-02,4.172571748495101929e-02,8.190360665321350098e-02,1.723549328744411469e-02,-9.447813034057617188e-02,-1.311745401471853256e-02
-7.712686806917190552e-02,-7.697679847478866577e-02,4.298010841012001038e-02,7.970538735389709473e-02,-3.022404201328754425e-02,-9.529390186071395874e-02,8.269482851028442383e-02,-6.744575500488281250e-02,-2.077360264956951141e-02,9.406589716672897339e-02,-4.348235204815864563e-02,-3.791653737425804138e-02,1.201401576399803162e-01,1.191101036965847015e-02,1.524517219513654709e-02,4.261695593595504761e-02,1.035039871931076050e-01,4.353586956858634949e-02,7.670606672763824463e-02,1.058966442942619324e-01,-3.697762638330459595e-02,4.734610021114349365e-02,-6.948363035917282104e-02,3.557937592267990112e-02,-4.429607093334197998e-02,1.106730476021766663e-01,1.687241531908512115e-02,-6.596218794584274292e-02,-4.419510066509246826e-02,-7.931032031774520874e-02,-6.553599238395690918e-02,8.864842355251312256e-02,-8.148101717233657837e-02,9.070201963186264038e-02,5.633436515927314758e-02,1.084762290120124817e-01,-9.284521639347076416e-02,5.972498562186956406e-03,-4.268931597471237183e-02,2.474184334278106689e-02,-5.402368679642677307e-02,9.321519173681735992e-03,-1.157883256673812866e-01,-3.278161585330963135e-02,3.299704939126968384e-02,-1.047724708914756775e-01,1.154026612639427185e-01,8.420670032501220703e-02,1.731656491756439209e-03,1.735432632267475128e-02
8.725231140851974487e-02,1.355250030755996704e-01,-4.553376510739326477e-02,5.866326019167900085e-02,-6.200675293803215027e-02,-8.980351500213146210e-03,8.328225463628768921e-02,7.595158368349075317e-02,3.901393339037895203e-02,-2.492029964923858643e-02,-7.321982085704803467e-02,-5.436010658740997314e-02,-6.466348422691226006e-04,1.397555321455001831e-02,1.959178037941455841e-02,-7.781057804822921753e-02,8.026664704084396362e-02,2.876828424632549286e-02,5.617191269993782043e-02,7.395247370004653931e-02,-9.699317812919616699e-02,-4.963074997067451477e-02,-9.061321616172790527e-02,2.151733078062534332e-02,-9.792120009660720825e-02,3.865236416459083557e-02,3.841318935155868530e-02,-6.960412114858627319e-02,-1.208733767271041870e-02,1.421819999814033508e-02,4.541229456663131714e-02,4.053621739149093628e-02,1.480966527014970779e-02,-1.379217370413243771e-03,7.663483172655105591e-02,4.147385433316230774e-02,3.138454630970954895e-02,7.487346976995468140e-02,6.229460239410400391e-02,-1.210908591747283936e-02,1.243661739863455296e-03,-4.141321778297424316e-02,5.414502322673797607e-02,-8.344457298517227173e-02,3.506311029195785522e-02,6.762257311493158340e-03,-6.648828834295272827e-02,-1.039143055677413940e-01,2.540556341409683228e-02,5.118251312524080276e-03
-6.326480954885482788e-02,3.273260593414306641e-02,5.977851524949073792e-02,1.674029161222279072e-03,-7.184482365846633911e-02,8.431155234575271606e-02,2.037595212459564209e-02,-6.020262837409973145e-03,2.268759161233901978e-02,-6.889394670724868774e-02,-3.174295276403427124e-02,-9.393545240163803101e-02,5.943447723984718323e-02,-7.157243788242340088e-02,-3.420116379857063293e-02,-6.846036016941070557e-02,-7.507836818695068359e-02,-4.616153985261917114e-02,2.459201961755752563e-02,6.987672299146652222e-02,-4.649624973535537720e-02,-5.603386461734771729e-02,-7.469168305397033691e-02,-2.062256447970867157e-02,-9.304274618625640869e-02,-5.025179311633110046e-02,1.315307244658470154e-02,2.409866824746131897e-02,2.851862460374832153e-02,-5.069040134549140930e-02,5.189948156476020813e-02,-4.771727696061134338e-02,4.155249893665313721e-02,4.525802284479141235e-02,-1.748401485383510590e-02,-4.025960713624954224e-02,-3.415123373270034790e-02,6.498351693153381348e-02,-4.434535279870033264e-02,-1.337796449661254883e-02,-1.353590923827141523e-04,-7.945964485406875610e-02,8.722669631242752075e-02,6.816760450601577759e-02,-8.979792147874832153e-02,1.575283939018845558e-03,-9.616255015134811401e-02,-1.534441579133272171e-02,-4.942145571112632751e-02,4.905804060399532318e-03
-3.802914917469024658e-02,-8.274166285991668701e-02,-1.460401713848114014e-02,-7.256336510181427002e-02,3.078814409673213959e-02,6.056919228285551071e-03,9.715637564659118652e-02,1.525197923183441162e-02,-5.211431905627250671e-02,-4.238587617874145508e-02,-8.220065385103225708e-02,7.706711068749427795e-03,-1.840076036751270294e-02,9.902525693178176880e-02,8.396732620894908905e-03,1.748249121010303497e-02,-3.769868984818458557e-02,7.170416414737701416e-02,-4.199874028563499451e-02,1.013356596231460571e-01,-6.687465310096740723e-02,5.287837237119674683e-02,4.485783725976943970e-02,-4.435764625668525696e-02,-4.635916650295257568e-02,-5.537950992584228516e-02,-1.813309639692306519e-02,7.271404564380645752e-02,-9.137816727161407471e-02,4.589033871889114380e-02,4.913606494665145874e-02,-6.656376272439956665e-02,6.953684985637664795e-02,-3.516428917646408081e-02,-3.008194826543331146e-02,-7.161606848239898682e-02,-2.120773494243621826e-02,5.679452419281005859e-02,-2.571843937039375305e-02,9.549855440855026245e-02,-7.552621513605117798e-02,-4.733163490891456604e-02,-8.648516982793807983e-02,4.852920398116111755e-02,4.997446015477180481e-02,1.375094172544777393e-03,1.556347869336605072e-02,1.099908128380775452e-01,3.232253342866897583e-02,-8.206114172935485840e-02
-7.843621075153350830e-02,3.531782701611518860e-02,4.185018688440322876e-02,-7.173193246126174927e-02,5.530308932065963745e-02,7.454593479633331299e-02,2.713345550000667572e-02,-1.723184436559677124e-02,-3.609073907136917114e-02,-9.263639152050018311e-02,-3.654754906892776489e-02,6.819137930870056152e-02,9.275654703378677368e-02,9.168995916843414307e-02,6.095656752586364746e-02,-4.934215918183326721e-02,7.174830138683319092e-02,-8.268774300813674927e-02,-8.574752137064933777e-03,-2.089084871113300323e-02,2.039903029799461365e-02,6.826778501272201538e-02,-1.905620843172073364e-02,-6.043556705117225647e-02,-6.526812165975570679e-02,3.998939320445060730e-02,7.955356501042842865e-03,1.522599533200263977e-02,3.053493238985538483e-02,-2.328867465257644653e-02,6.512438505887985229e-02,-6.043086946010589600e-02,2.380938641726970673e-02,1.990179531276226044e-02,-2.449087100103497505e-03,-3.817507997155189514e-02,-6.835781503468751907e-03,1.585453748703002930e-02,1.691302284598350525e-02,7.770475000143051147e-02,-5.561885237693786621e-02,-8.472784608602523804e-02,6.668708287179470062e-03,3.401166200637817383e-02,7.343073934316635132e-02,1.870243065059185028e-02,5.350193008780479431e-02,4.180964082479476929e-02,-5.799344927072525024e-02,2.922865375876426697e-02
-9.289233386516571045e-02,-2.432148158550262451e-02,-5.997291579842567444e-02,-3.713152930140495300e-02,3.329535201191902161e-02,3.493601828813552856e-02,-4.311270639300346375e-02,3.628135472536087036e-02,-4.720370471477508545e-02,-8.545873314142227173e-02,-4.842704534530639648e-02,-3.115715458989143372e-03,3.315570205450057983e-02,6.469568610191345215e-02,1.943674520589411259e-03,9.179853647947311401e-02,4.901979491114616394e-02,7.049418520182371140e-03,-9.680216200649738312e-03,8.049068972468376160e-03,-7.117945700883865356e-02,6.117146089673042297e-02,-4.251341894268989563e-02,2.604294754564762115e-02,6.564336270093917847e-02,1.683494821190834045e-02,5.422322824597358704e-02,-1.236069761216640472e-02,-2.428418584167957306e-02,8.004313707351684570e-02,7.397761940956115723e-02,4.082524776458740234e-02,-6.094496324658393860e-02,1.927120052278041840e-02,4.743703082203865051e-02,-3.899541124701499939e-02,-7.814247906208038330e-02,6.480104476213455200e-02,3.720527142286300659e-02,-9.146501868963241577e-02,-8.801338821649551392e-02,-4.598587378859519958e-02,-8.966530114412307739e-02,4.195713251829147339e-02,-3.993793856352567673e-03,9.729229658842086792e-02,-8.160568028688430786e-02,8.547347038984298706e-02,7.374704629182815552e-02,-2.716028317809104919e-02
9.950786083936691284e-02,-6.089110299944877625e-02,1.034204754978418350e-02,7.431217283010482788e-02,3.430562093853950500e-02,-4.375310614705085754e-02,8.714853227138519287e-02,-4.197535663843154907e-02,1.276385691016912460e-02,-2.514444664120674133e-02,-4.233513027429580688e-02,5.521669983863830566e-02,-1.870862580835819244e-02,7.145833969116210938e-02,9.621414355933666229e-03,-4.141920711845159531e-03,-3.587508201599121094e-02,5.244429782032966614e-02,7.627353537827730179e-03,-4.731647297739982605e-02,5.087079480290412903e-02,2.261798083782196045e-02,-5.885998532176017761e-02,-6.509290635585784912e-02,7.557164132595062256e-02,8.847478032112121582e-02,-5.920356512069702148e-02,8.326146006584167480e-02,3.891926258802413940e-02,2.910851314663887024e-02,8.763400837779045105e-03,-4.594616591930389404e-02,-5.581380426883697510e-02,7.492621988058090210e-02,-9.717263281345367432e-02,6.729982327669858932e-03,5.112212896347045898e-02,3.950252011418342590e-02,6.504258513450622559e-02,2.416287362575531006e-02,-7.736863940954208374e-02,9.988380596041679382e-03,-2.186388894915580750e-02,-1.582923345267772675e-02,5.236423760652542114e-02,-8.788307011127471924e-02,-9.086126089096069336e-02,-4.192007705569267273e-02,3.142452985048294067e-02,7.991445064544677734e-02
-6.072983518242835999e-02,-9.153192490339279175e-02,-8.068040758371353149e-02,-9.323808364570140839e-03,9.191506356000900269e-02,-9.439910948276519775e-02,-5.347503721714019775e-02,-1.280622184276580811e-02,-7.355428487062454224e-02,-2.253899909555912018e-02,-4.504052177071571350e-02,3.088689595460891724e-02,-3.719864785671234131e-02,-4.516627267003059387e-02,6.962531059980392456e-02,8.629293739795684814e-02,4.140803962945938110e-02,-4.698208719491958618e-02,-9.498842805624008179e-02,-6.158728152513504028e-02,4.345295950770378113e-02,5.104557424783706665e-02,6.479398161172866821e-02,9.838915430009365082e-03,1.501320395618677139e-02,-1.853414997458457947e-02,5.348498001694679260e-02,-9.456413239240646362e-02,-7.119245827198028564e-02,-7.938697934150695801e-02,-7.004517316818237305e-02,-1.604099571704864502e-02,-3.112645074725151062e-02,-1.412361860275268555e-02,-3.900542482733726501e-02,6.436669081449508667e-02,-4.392801970243453979e-02,-7.819167524576187134e-02,-8.381321281194686890e-02,-8.101673424243927002e-02,9.603492915630340576e-02,1.216347608715295792e-02,-2.003162167966365814e-02,4.862035810947418213e-02,-3.051643259823322296e-02,-6.448470056056976318e-02,-7.134344428777694702e-02,3.896323218941688538e-02,3.450474888086318970e-02,4.753059521317481995e-02
-5.192397162318229675e-02,1.736779138445854187e-02,4.367871955037117004e-02,4.392671585083007812e-02,7.668437063694000244e-02,7.061970978975296021e-02,-9.101283550262451172e-02,6.285529583692550659e-02,-2.543290844187140465e-03,-6.064514070749282837e-02,-9.541701525449752808e-02,2.962583862245082855e-02,-6.054937466979026794e-02,-4.956669360399246216e-02,-6.239276751875877380e-02,8.139429613947868347e-03,-1.995264738798141479e-02,-1.483896095305681229e-02,4.332713037729263306e-02,5.301690474152565002e-02,6.285297125577926636e-02,5.057457089424133301e-02,-6.057244911789894104e-02,1.639688573777675629e-02,-1.622825488448143005e-02,9.914696216583251953e-02,-1.001737639307975769e-01,3.334492817521095276e-02,-8.995106071233749390e-02,-3.633699193596839905e-02,-3.210773319005966187e-02,6.594886630773544312e-02,9.601999074220657349e-02,-1.546322181820869446e-02,-5.393729358911514282e-02,4.509749636054039001e-02,9.750368446111679077e-02,-2.589938603341579437e-02,7.288562599569559097e-03,6.312806159257888794e-02,3.099834360182285309e-02,3.163161873817443848e-02,-5.567982047796249390e-02,7.763750106096267700e-02,-3.731160983443260193e-02,-3.448018571361899376e-03,-6.676366180181503296e-02,1.144270822405815125e-01,-5.695896223187446594e-02,-4.206121712923049927e-02
-9.378944523632526398e-03,-1.361909229308366776e-02,6.070664152503013611e-02,9.425777196884155273e-02,4.486487805843353271e-02,4.159925505518913269e-02,-2.643328905105590820e-02,-5.506954342126846313e-02,5.484956130385398865e-02,-8.119967579841613770e-02,6.327986717224121094e-02,-2.087231259793043137e-03,-1.210953760892152786e-02,-5.030191317200660706e-02,-1.717277616262435913e-02,9.937195479869842529e-02,1.233789231628179550e-02,-9.179822355508804321e-02,-6.786495447158813477e-02,7.170737534761428833e-02,-1.013476997613906860e-01,-6.826408952474594116e-02,2.833531051874160767e-02,-1.943649910390377045e-02,-8.170244097709655762e-02,2.964801713824272156e-02,5.736644193530082703e-02,1.052152067422866821e-01,-2.355673722922801971e-02,-1.509130932390689850e-02,-1.632992178201675415e-02,-3.355435654520988464e-02,-5.464014410972595215e-02,-5.138844996690750122e-02,3.740430250763893127e-02,1.055144965648651123e-01,4.922618344426155090e-02,1.038066893815994263e-01,9.974310547113418579e-02,-3.140556812286376953e-02,-1.165101956576108932e-02,-3.275652974843978882e-02,-9.177703410387039185e-02,-3.642844781279563904e-02,-9.874960035085678101e-02,8.651973307132720947e-02,1.186790913343429565e-01,1.098013818264007568e-01,-6.105431541800498962e-02,3.100745007395744324e-02
3.668661043047904968e-02,8.985051512718200684e-02,-8.065602928400039673e-02,1.864185743033885956e-02,2.723068185150623322e-02,6.871384382247924805e-02,7.052318006753921509e-02,7.207594066858291626e-02,-4.087237268686294556e-02,9.260102361440658569e-02,-6.732557713985443115e-02,6.812104489654302597e-03,-5.258087813854217529e-02,3.929864615201950073e-02,8.946883678436279297e-02,-5.992980673909187317e-02,-7.530081272125244141e-02,-7.149060070514678955e-02,-9.824976325035095215e-02,-5.522475112229585648e-03,-5.580973997712135315e-02,4.048635438084602356e-02,7.199145108461380005e-02,-7.054504007101058960e-02,-1.529882848262786865e-02,1.090408489108085632e-01,-2.726692706346511841e-02,7.787352055311203003e-02,9.902764111757278442e-02,-9.737851360114291310e-05,-2.406433224678039551e-03,-1.294884551316499710e-02,-5.504629015922546387e-02,-8.312906324863433838e-02,6.097475066781044006e-02,1.227662265300750732e-01,3.609989583492279053e-02,6.136771664023399353e-02,6.317703425884246826e-02,-9.276103228330612183e-02,7.420766353607177734e-02,-2.757091261446475983e-02,-5.723315849900245667e-02,1.292235590517520905e-02,5.127748474478721619e-02,2.634997479617595673e-03,4.468452185392379761e-03,4.374717175960540771e-02,-1.996298134326934814e-02,-9.245499968528747559e-03
8.537354005966335535e-05,5.399915948510169983e-02,-9.070897847414016724e-02,-7.123052328824996948e-02,-4.785221070051193237e-03,-3.994261100888252258e-02,3.025634400546550751e-02,2.803433686494827271e-02,1.650810241699218750e-02,-4.447845742106437683e-02,4.451752454042434692e-02,-7.531738281250000000e-02,-1.619671471416950226e-02,-2.770991623401641846e-02,-2.353519201278686523e-02,-6.795406341552734375e-02,8.370643854141235352e-02,-1.089585945010185242e-02,-4.383146017789840698e-02,-9.906409680843353271e-02,3.224172070622444153e-02,-8.989005535840988159e-02,9.248246997594833374e-02,-5.240714177489280701e-02,-3.744250908493995667e-02,-7.613518089056015015e-02,-6.099927052855491638e-02,-7.271530479192733765e-02,-4.802309349179267883e-02,8.296931535005569458e-02,-1.265345979481935501e-02,-4.210375621914863586e-02,-7.980809547007083893e-03,-5.318991094827651978e-02,5.311957746744155884e-02,-6.845080107450485229e-02,9.576976299285888672e-05,5.504694581031799316e-02,-8.914087712764739990e-02,7.491033524274826050e-02,1.118448451161384583e-01,-3.459350764751434326e-02,-4.258100688457489014e-02,-2.750251069664955139e-02,7.612020522356033325e-02,4.883881658315658569e-02,7.589194923639297485e-02,7.991797477006912231e-02,-4.003417491912841797e-02,-9.862406551837921143e-02
-5.900812894105911255e-02,-5.639349296689033508e-02,4.401469137519598007e-03,3.378681465983390808e-02,5.450574308633804321e-02,-5.768519267439842224e-02,-6.948669254779815674e-02,1.015472412109375000e-02,2.201813831925392151e-02,6.566435098648071289e-02,-6.187947466969490051e-02,8.378061652183532715e-02,-1.440603169612586498e-03,7.000084221363067627e-02,-6.903578341007232666e-02,2.354179508984088898e-03,7.736454904079437256e-02,7.652939110994338989e-02,-8.900277316570281982e-02,-2.633956493809819221e-03,7.175949215888977051e-02,-2.405625395476818085e-02,5.686989799141883850e-02,1.975649222731590271e-02,3.553770855069160461e-02,-8.862761408090591431e-02,-4.540314525365829468e-02,9.434954077005386353e-02,-5.561087280511856079e-02,4.661958292126655579e-02,-6.381279975175857544e-02,7.087810896337032318e-03,-3.158949688076972961e-02,5.493080709129571915e-03,4.822571948170661926e-02,5.717802420258522034e-02,5.975774303078651428e-02,-2.538677770644426346e-03,2.773745171725749969e-02,7.218051701784133911e-02,8.441126346588134766e-02,2.409084234386682510e-03,-2.803800255060195923e-02,7.107595354318618774e-02,7.104243617504835129e-03,7.626994699239730835e-02,4.718088358640670776e-02,4.876928031444549561e-02,6.937750428915023804e-02,-8.861800655722618103e-03
-3.571449965238571167e-02,7.477678358554840088e-02,-3.852311149239540100e-02,9.849339723587036133e-02,2.008371986448764801e-02,1.451520472764968872e-01,-8.666095882654190063e-02,-4.715081676840782166e-02,-5.031657963991165161e-02,-3.256111964583396912e-02,-6.254319846630096436e-02,7.852026820182800293e-02,2.665694616734981537e-02,-4.431815445423126221e-02,8.226591348648071289e-02,4.353099316358566284e-02,7.329550385475158691e-02,-8.497497066855430603e-03,2.502993866801261902e-02,1.625207066535949707e-01,2.055028080940246582e-02,-4.338901489973068237e-02,3.736141696572303772e-02,3.040511347353458405e-02,-5.864675156772136688e-03,5.998105928301811218e-02,-1.316776126623153687e-01,1.063384562730789185e-01,9.109387546777725220e-02,-1.168844029307365417e-01,-2.069032192230224609e-02,1.383824832737445831e-02,-1.866406761109828949e-02,6.580054014921188354e-02,-1.933003589510917664e-02,4.289871454238891602e-02,-2.694165334105491638e-02,1.399808973073959351e-01,6.761913001537322998e-02,-3.808898851275444031e-02,-3.439546003937721252e-02,-3.280408307909965515e-02,-5.052809044718742371e-02,-3.896594420075416565e-02,2.961740083992481232e-02,-5.712096765637397766e-02,1.729827225208282471e-01,3.513180417940020561e-03,-1.226681470870971680e-02,-9.057459980249404907e-02
6.768091768026351929e-02,-3.277815133333206177e-02,3.957852313760668039e-04,-1.039786115288734436e-01,2.465033717453479767e-02,-7.060614228248596191e-02,3.567988425493240356e-02,-3.892966732382774353e-02,2.266868390142917633e-02,-6.013615429401397705e-02,-9.915556758642196655e-02,-6.866147369146347046e-02,-6.013962253928184509e-02,-3.671378269791603088e-02,8.652747422456741333e-02,3.752147406339645386e-02,-6.940430402755737305e-02,5.562717095017433167e-02,1.143500208854675293e-01,1.544137112796306610e-02,1.463152170181274414e-01,-6.292361766099929810e-02,-7.087980955839157104e-02,-1.234782207757234573e-02,7.984563708305358887e-02,1.237824745476245880e-02,1.805912256240844727e-01,6.484840810298919678e-02,-7.828880101442337036e-02,-3.902717307209968567e-02,9.374150633811950684e-02,7.123874500393867493e-03,4.404489323496818542e-02,-4.247169569134712219e-02,1.156009659171104431e-01,-9.465161710977554321e-02,3.823949396610260010e-02,-8.776021003723144531e-02,3.785059228539466858e-02,8.899753540754318237e-02,1.506958305835723877e-01,8.642902970314025879e-02,-3.751352056860923767e-02,-1.098651438951492310e-02,6.796131283044815063e-02,1.023367792367935181e-01,-3.801338002085685730e-02,8.911421149969100952e-02,-2.869381010532379150e-02,4.208576306700706482e-02
6.632295902818441391e-03,1.166166365146636963e-01,4.820515215396881104e-02,3.936899825930595398e-03,-9.618709236383438110e-02,-2.988047339022159576e-02,5.321839358657598495e-03,-3.497562557458877563e-02,-7.360913604497909546e-02,-2.048611640930175781e-04,9.145750850439071655e-02,7.654395699501037598e-02,-6.023317947983741760e-02,3.868324309587478638e-02,-1.923625357449054718e-02,8.398621529340744019e-02,-4.444923996925354004e-02,-2.663508243858814240e-02,-7.103393971920013428e-02,1.190293878316879272e-01,-2.765427157282829285e-02,-4.724616184830665588e-02,-1.050205305218696594e-01,1.705998554825782776e-02,9.836442768573760986e-02,-4.945438355207443237e-02,4.390602186322212219e-02,-5.751231312751770020e-02,8.259690552949905396e-02,-5.279616639018058777e-02,-1.035903394222259521e-02,2.294410020112991333e-02,-6.472194939851760864e-02,-9.076192229986190796e-02,-1.031669825315475464e-01,1.071448698639869690e-01,-7.800466567277908325e-02,1.161780804395675659e-01,4.447707440704107285e-03,-3.173206001520156860e-02,5.539773497730493546e-03,-2.047268673777580261e-02,2.421675994992256165e-02,9.478413313627243042e-02,1.734396256506443024e-02,1.939151622354984283e-02,1.036542505025863647e-01,-2.069008303806185722e-03,-9.266733378171920776e-02,-8.076389878988265991e-02
9.841008484363555908e-02,-3.960152622312307358e-03,2.401961944997310638e-02,-6.955619901418685913e-02,-6.180785968899726868e-02,8.082269132137298584e-02,-4.689797759056091309e-02,4.159306734800338745e-02,8.862750977277755737e-02,-8.602579683065414429e-02,-5.601713806390762329e-02,-9.737264364957809448e-02,-5.028361827135086060e-02,-2.442349493503570557e-02,5.574080348014831543e-02,8.349155634641647339e-02,-6.959410849958658218e-03,-5.358515307307243347e-02,-2.731003798544406891e-02,4.175372421741485596e-02,-6.100685521960258484e-02,-5.293346941471099854e-02,5.253343284130096436e-02,4.151394218206405640e-02,-1.425238698720932007e-02,-8.772480487823486328e-02,-1.013991460204124451e-01,8.125695586204528809e-02,5.150062590837478638e-02,-2.830932661890983582e-02,-5.178925022482872009e-02,2.547252736985683441e-02,2.947324514389038086e-02,2.086916752159595490e-02,3.585823997855186462e-02,-6.129092536866664886e-03,3.941290453076362610e-02,1.074614748358726501e-01,9.836880117654800415e-02,6.672627478837966919e-02,-1.579225808382034302e-02,7.334193587303161621e-02,1.864603906869888306e-02,-1.005551517009735107e-01,5.030280910432338715e-03,5.035394057631492615e-02,8.017751574516296387e-02,-6.539466232061386108e-02,-5.427376180887222290e-02,-6.354598701000213623e-02
1.002701669931411743e-01,9.095699340105056763e-02,-1.029994264245033264e-01,1.547019481658935547e-01,6.164551526308059692e-02,5.588540062308311462e-02,7.318237423896789551e-02,9.913600981235504150e-03,1.621900312602519989e-02,-6.789282709360122681e-02,-4.788207262754440308e-02,5.041118338704109192e-02,-4.192400351166725159e-02,-6.909112632274627686e-02,1.241800636053085327e-01,1.050617396831512451e-01,-4.882891848683357239e-02,-6.789590418338775635e-02,-1.912915334105491638e-02,6.849464774131774902e-02,2.039611898362636566e-02,9.278022497892379761e-02,1.051949057728052139e-02,-2.438029274344444275e-02,4.690979607403278351e-03,1.374315619468688965e-01,-2.599759027361869812e-02,1.100028902292251587e-01,-4.756502062082290649e-02,7.250755280256271362e-02,-6.410717964172363281e-02,-8.900094032287597656e-02,-3.233386948704719543e-02,6.474156677722930908e-02,3.933718800544738770e-02,7.984669506549835205e-02,-6.378871202468872070e-02,4.057487472891807556e-03,1.270657777786254883e-01,6.599808484315872192e-02,-5.033629387617111206e-02,1.121508181095123291e-01,8.572968654334545135e-03,8.610688149929046631e-03,-1.652964204549789429e-02,-1.683526672422885895e-02,8.303222805261611938e-02,4.565956816077232361e-02,-4.843872785568237305e-02,5.335891153663396835e-03
4.519516229629516602e-02,1.392852701246738434e-02,1.119261011481285095e-01,4.020665772259235382e-03,-2.498102374374866486e-03,-8.856534957885742188e-02,4.038495535496622324e-04,3.914190083742141724e-02,2.123940922319889069e-02,2.353702113032341003e-02,1.541344914585351944e-03,1.879959553480148315e-02,-8.755512535572052002e-02,3.736377879977226257e-02,-1.945237815380096436e-02,-3.001048043370246887e-02,-1.132508739829063416e-03,-3.313940018415451050e-02,-9.440314024686813354e-04,-3.532525151968002319e-02,-1.571923866868019104e-02,-5.485976114869117737e-02,7.292104512453079224e-02,4.089295119047164917e-02,1.659533736528828740e-04,-9.636866301298141479e-02,3.608988970518112183e-02,7.145620882511138916e-02,1.548077166080474854e-02,-7.386410236358642578e-02,7.690653949975967407e-02,2.929901890456676483e-02,4.846705496311187744e-02,3.401159076020121574e-03,-6.142903119325637817e-02,-7.211755961179733276e-02,3.971046954393386841e-02,-1.254145894199609756e-02,9.551076591014862061e-02,-4.456984996795654297e-02,9.498260915279388428e-02,-7.246076129376888275e-03,-3.700272366404533386e-02,7.741022855043411255e-02,4.233549535274505615e-02,8.184381574392318726e-02,3.335847333073616028e-02,-7.346224039793014526e-02,-9.283722937107086182e-02,-8.779282867908477783e-02
2.816172130405902863e-02,5.712429061532020569e-02,6.552977859973907471e-02,-5.213956162333488464e-02,4.235797375440597534e-02,-8.654063940048217773e-02,-8.665730245411396027e-03,-2.999168634414672852e-02,7.911568880081176758e-02,-4.507389292120933533e-02,-8.130078762769699097e-02,6.153749674558639526e-02,-1.434905454516410828e-02,7.162708789110183716e-02,4.294142127037048340e-02,-2.464871481060981750e-02,6.782903522253036499e-02,1.899225264787673950e-02,3.363610431551933289e-02,8.133368939161300659e-02,-3.605542704463005066e-02,9.213905781507492065e-02,6.474065780639648438e-02,-9.202022105455398560e-02,3.397721052169799805e-02,4.206745699048042297e-02,5.024895444512367249e-02,7.874772697687149048e-02,1.641587167978286743e-02,2.150423079729080200e-02,-3.788343071937561035e-02,-2.684460021555423737e-02,1.188778434880077839e-03,6.873536854982376099e-02,8.256477117538452148e-02,7.871276140213012695e-02,3.737501800060272217e-02,-6.499260663986206055e-02,1.042463108897209167e-01,-9.598405659198760986e-02,-1.317649334669113159e-02,-8.209867775440216064e-02,3.138958290219306946e-02,4.856069013476371765e-02,-1.402280200272798538e-02,8.019398897886276245e-02,-1.389379799365997314e-02,2.611990831792354584e-02,-3.972456604242324829e-02,9.491397440433502197e-02
7.226338982582092285e-02,-3.045476786792278290e-02,8.792185038328170776e-02,9.269362688064575195e-02,7.173056155443191528e-02,1.008723676204681396e-02,-3.272129222750663757e-02,4.724923521280288696e-02,-4.445355385541915894e-02,4.897382110357284546e-03,-7.760588824748992920e-02,-6.786508858203887939e-02,-3.173907846212387085e-02,-5.941329896450042725e-02,9.616892784833908081e-02,-8.072737604379653931e-02,5.363719910383224487e-02,-6.450838409364223480e-03,5.471937358379364014e-03,-3.084545023739337921e-02,6.156172230839729309e-02,-1.478823553770780563e-02,-2.011114731431007385e-03,-1.736261619953438640e-04,4.999928176403045654e-02,-9.907431900501251221e-02,-4.640336707234382629e-02,1.010279282927513123e-01,-8.766876161098480225e-02,1.720800250768661499e-02,-7.021632045507431030e-02,7.630547881126403809e-02,9.536254405975341797e-02,-1.344376802444458008e-02,-1.018701773136854172e-02,6.727766245603561401e-02,-4.161890223622322083e-02,6.739035993814468384e-02,-8.055839687585830688e-02,-2.922548353672027588e-02,-3.624871000647544861e-02,1.375124137848615646e-02,1.129041537642478943e-01,3.383178263902664185e-02,-3.683877736330032349e-02,1.158058922737836838e-02,1.006514430046081543e-01,6.621036678552627563e-02,-8.346736431121826172e-03,7.828436791896820068e-04
7.514399290084838867e-02,6.268627196550369263e-02,2.887761406600475311e-02,3.313891589641571045e-02,6.884423643350601196e-02,8.286143839359283447e-02,5.297919269651174545e-03,-2.225293219089508057e-02,8.197425305843353271e-02,-4.176611825823783875e-02,2.240448258817195892e-02,-3.149660304188728333e-02,-7.013566792011260986e-03,5.495988205075263977e-02,7.093644887208938599e-02,-5.134284496307373047e-02,9.482298046350479126e-02,4.246871173381805420e-02,6.898443400859832764e-02,7.860921323299407959e-02,-5.601051077246665955e-02,3.262270241975784302e-02,-2.762998919934034348e-03,-2.772867307066917419e-02,2.829053811728954315e-02,9.221462905406951904e-02,-9.521380066871643066e-02,3.942837938666343689e-02,1.665370166301727295e-02,-1.093063689768314362e-02,6.587714701890945435e-02,-3.356943652033805847e-02,-2.303277701139450073e-02,8.804336190223693848e-02,-2.586858719587326050e-02,9.130793064832687378e-02,4.383166134357452393e-02,9.582345932722091675e-02,-2.701797522604465485e-02,-9.682372212409973145e-03,2.406380139291286469e-02,-5.040761828422546387e-02,-8.010572195053100586e-02,-1.435519754886627197e-02,6.983640044927597046e-02,-5.642874911427497864e-02,3.775878995656967163e-02,3.116991557180881500e-02,-3.107998520135879517e-02,4.366863518953323364e-03
9.157212451100349426e-03,1.334642432630062103e-02,7.880871742963790894e-02,8.084307610988616943e-02,4.471099376678466797e-02,6.301233917474746704e-02,-2.427659556269645691e-02,-8.153329044580459595e-02,-4.918868839740753174e-02,6.033010035753250122e-02,6.583107262849807739e-02,-3.906048834323883057e-03,-7.163715362548828125e-02,1.438148971647024155e-02,-3.533544391393661499e-02,7.309729699045419693e-03,6.000445038080215454e-02,3.453063964843750000e-02,9.026968479156494141e-02,1.853455603122711182e-02,5.557880178093910217e-02,4.018036276102066040e-02,8.473739027976989746e-02,-3.033381886780261993e-02,4.481120035052299500e-02,-6.036578118801116943e-02,6.700069457292556763e-02,8.171467483043670654e-02,5.881052464246749878e-02,-9.780062735080718994e-02,2.640805393457412720e-02,9.408747404813766479e-02,-6.926520168781280518e-02,-2.623505890369415283e-03,5.933265760540962219e-02,-5.037570744752883911e-02,7.784327957779169083e-03,3.558601438999176025e-02,-6.432536989450454712e-02,-5.031416565179824829e-02,-5.302808433771133423e-02,4.716851562261581421e-02,-7.928920537233352661e-02,7.999085634946823120e-02,-4.166126623749732971e-02,2.833305299282073975e-02,1.005739420652389526e-01,-3.393527865409851074e-02,-4.820794984698295593e-02,-9.520224481821060181e-02
3.389130905270576477e-02,-2.420341223478317261e-02,9.541571140289306641e-02,-2.781057916581630707e-02,-8.869913220405578613e-02,-4.657083004713058472e-02,4.470171034336090088e-02,-2.743321657180786133e-02,9.859193861484527588e-02,1.961879804730415344e-02,-1.472941413521766663e-02,3.315135091543197632e-02,6.385595351457595825e-02,-3.188391774892807007e-02,-3.084595315158367157e-02,9.863533079624176025e-02,-7.084087282419204712e-02,5.531187355518341064e-02,-5.202988907694816589e-02,2.739066071808338165e-02,-5.647157132625579834e-02,2.612458309158682823e-03,-6.303598731756210327e-02,-9.027314931154251099e-02,3.203640505671501160e-02,-7.622107118368148804e-02,2.471929788589477539e-02,-6.025485694408416748e-02,-4.389087855815887451e-02,5.549856647849082947e-02,-7.026299089193344116e-02,9.320568293333053589e-02,-3.837272897362709045e-02,7.791830226778984070e-03,8.832899481058120728e-02,2.591213770210742950e-02,8.532831817865371704e-02,8.650438487529754639e-02,-6.874604523181915283e-02,-7.209493964910507202e-02,1.117271780967712402e-01,7.603564113378524780e-02,-7.490643300116062164e-03,8.560294657945632935e-02,-8.417529612779617310e-02,7.709936052560806274e-02,-3.629244863986968994e-02,-1.046298816800117493e-02,-4.547805711627006531e-02,-6.691031903028488159e-02
-8.659282326698303223e-02,-5.342803522944450378e-02,-2.065771073102951050e-02,-4.991884157061576843e-02,-7.340973615646362305e-02,-3.058778308331966400e-02,4.532986786216497421e-03,-5.065125226974487305e-02,4.021503776311874390e-02,-9.534865617752075195e-02,-6.877529621124267578e-02,-2.276085503399372101e-02,2.141544781625270844e-02,9.287557750940322876e-02,4.096007347106933594e-02,-1.424566470086574554e-02,-9.945520758628845215e-02,-4.045166820287704468e-02,8.583245426416397095e-02,8.778085559606552124e-02,1.255970895290374756e-01,3.067509457468986511e-02,-8.101084083318710327e-02,4.502244666218757629e-02,-5.932227149605751038e-02,8.229011297225952148e-02,8.159734308719635010e-02,-5.886995419859886169e-02,-3.087592683732509613e-02,-5.055420473217964172e-02,-2.581677213311195374e-02,5.241867527365684509e-02,-1.619261503219604492e-02,4.319150000810623169e-02,6.273156497627496719e-03,-7.727819681167602539e-02,-5.345587432384490967e-02,3.495568409562110901e-02,5.351492017507553101e-02,-7.676126807928085327e-02,6.174184009432792664e-02,-7.948202081024646759e-03,2.756785415112972260e-02,-7.355895359069108963e-03,-8.049274235963821411e-02,8.790839463472366333e-02,9.841032326221466064e-02,-6.864285469055175781e-02,-2.853347361087799072e-02,6.799504160881042480e-02
4.317557613831013441e-04,-1.005722209811210632e-01,-3.189913555979728699e-02,8.260030299425125122e-02,6.676407158374786377e-02,-4.325406625866889954e-02,-1.583074405789375305e-02,5.580792576074600220e-02,6.360219419002532959e-02,4.676579311490058899e-02,-9.192148596048355103e-02,-8.657453581690788269e-03,8.556825667619705200e-02,7.272693514823913574e-02,-5.057912692427635193e-02,-1.103123463690280914e-02,-9.675513952970504761e-02,1.215952783823013306e-01,1.871179975569248199e-02,-5.958962440490722656e-02,8.363080024719238281e-02,8.043527603149414062e-02,-8.617105334997177124e-02,-1.173114869743585587e-02,-4.897803813219070435e-02,-7.246445864439010620e-02,6.761215627193450928e-02,-4.481061175465583801e-02,6.507272273302078247e-02,4.777800664305686951e-02,-8.011870086193084717e-02,-9.360321797430515289e-03,9.924371540546417236e-02,-4.463753104209899902e-02,1.918594911694526672e-02,2.492940984666347504e-02,2.353577502071857452e-02,2.384094335138797760e-02,7.967747747898101807e-02,5.636266618967056274e-02,3.655146807432174683e-02,-3.073110245168209076e-02,9.987024217844009399e-02,1.961507461965084076e-02,9.825760871171951294e-02,1.106802155845798552e-04,-6.543014198541641235e-02,7.086330652236938477e-02,-9.933085739612579346e-02,-1.905832439661026001e-02
1.748356968164443970e-02,1.339428275823593140e-01,8.766598068177700043e-03,8.114925771951675415e-02,1.815319433808326721e-02,-5.213369429111480713e-02,7.158693391829729080e-03,3.488025814294815063e-02,-5.385917797684669495e-02,-5.937084183096885681e-02,7.325286418199539185e-02,-5.799989029765129089e-02,8.111727982759475708e-02,-1.325872726738452911e-03,-3.380781039595603943e-02,1.921660639345645905e-02,1.042650490999221802e-01,8.120312541723251343e-02,5.054250359535217285e-02,1.022856682538986206e-01,-1.725741475820541382e-02,7.753290235996246338e-02,-5.292064324021339417e-02,-1.055331807583570480e-02,2.168784104287624359e-02,-2.353838644921779633e-02,-5.765439942479133606e-02,-4.302053898572921753e-02,-9.803076833486557007e-02,2.090146578848361969e-02,9.467699378728866577e-02,3.491586819291114807e-02,7.598058320581912994e-03,-8.215159177780151367e-02,-7.200552523136138916e-02,-4.559839144349098206e-02,7.047446817159652710e-02,5.448536947369575500e-02,1.912691514007747173e-03,7.355193048715591431e-02,8.845828473567962646e-02,-1.514655072242021561e-02,1.313568651676177979e-02,-5.733500421047210693e-02,7.314281165599822998e-02,-7.838528603315353394e-02,3.881172463297843933e-02,-6.026026606559753418e-02,-8.764043450355529785e-03,-2.989131398499011993e-02
6.531013548374176025e-02,-6.728330254554748535e-02,4.694254696369171143e-02,9.003008715808391571e-03,-2.277158945798873901e-02,9.200775995850563049e-03,8.128350973129272461e-02,-6.804090738296508789e-02,-9.050475805997848511e-02,2.935100346803665161e-02,4.578832909464836121e-02,-6.156393513083457947e-02,-2.151244506239891052e-02,-8.605124056339263916e-02,1.028965935111045837e-01,7.124315947294235229e-02,-8.809971064329147339e-02,-5.575282871723175049e-02,-1.007546298205852509e-02,1.092267557978630066e-01,-2.988997288048267365e-02,-7.393260300159454346e-02,8.659830689430236816e-02,1.283872779458761215e-02,4.044147580862045288e-02,7.789243757724761963e-02,3.021133504807949066e-02,1.029991656541824341e-01,-2.405895106494426727e-02,8.756829798221588135e-02,9.477294236421585083e-02,-5.338229611515998840e-02,3.747875615954399109e-02,-6.934652477502822876e-02,-9.992279857397079468e-02,6.128703430294990540e-02,4.038793966174125671e-02,6.632062792778015137e-02,6.737079471349716187e-02,-2.015725523233413696e-02,6.755760312080383301e-02,9.902001917362213135e-02,4.198078438639640808e-02,-8.108608424663543701e-02,-8.756989985704421997e-02,-7.440629880875349045e-03,-2.198736555874347687e-02,-1.030553504824638367e-01,-9.509050846099853516e-02,2.208947017788887024e-02
2.329458668828010559e-02,1.827757433056831360e-02,-5.930197983980178833e-02,7.789096236228942871e-02,1.958668604493141174e-02,8.594144135713577271e-02,-1.765654608607292175e-02,-3.973910957574844360e-02,8.027688413858413696e-02,9.820549190044403076e-02,7.945210486650466919e-02,1.483152061700820923e-02,8.406114578247070312e-02,8.546882309019565582e-03,-8.350090682506561279e-02,-1.096703205257654190e-02,7.576228678226470947e-02,-4.012618679553270340e-03,8.874105662107467651e-02,-1.414993871003389359e-02,1.039592607412487268e-04,-6.781734526157379150e-02,-6.153999641537666321e-02,2.979654446244239807e-02,6.666633486747741699e-02,3.973237425088882446e-02,-4.229899123311042786e-02,-7.273434847593307495e-02,3.644806891679763794e-02,3.693389147520065308e-02,2.917241677641868591e-02,-9.227968752384185791e-02,1.109057478606700897e-02,-6.025653705000877380e-02,-6.866391748189926147e-02,-8.815179020166397095e-02,4.917966574430465698e-02,-6.979719549417495728e-02,-3.722656518220901489e-02,7.078453898429870605e-03,6.821878254413604736e-02,5.458661541342735291e-02,-7.907772809267044067e-02,-7.360439747571945190e-02,8.657199144363403320e-02,-7.778035849332809448e-02,7.011527568101882935e-02,2.681358344852924347e-02,-4.537388682365417480e-03,-1.279532909393310547e-02
1.104301139712333679e-01,6.818875670433044434e-02,6.316429376602172852e-02,8.984373509883880615e-02,9.492639452219009399e-02,6.694878917187452316e-03,-8.288335986435413361e-03,6.128499656915664673e-02,7.512208819389343262e-02,8.662223070859909058e-02,4.868664219975471497e-02,-5.909272283315658569e-02,3.145433962345123291e-02,6.428013741970062256e-02,3.947704657912254333e-02,5.031991750001907349e-02,2.920025400817394257e-02,-6.787456572055816650e-02,-2.147256018361076713e-04,-6.806320697069168091e-02,-6.167302653193473816e-02,-4.607150796800851822e-03,4.212441295385360718e-02,1.051329225301742554e-01,-1.307185180485248566e-02,9.826713800430297852e-02,-1.059259921312332153e-01,-5.441715568304061890e-02,-7.395347207784652710e-02,7.797580957412719727e-02,9.830716997385025024e-02,1.519179530441761017e-02,7.184898108243942261e-02,6.292009726166725159e-03,2.269210293889045715e-02,-2.919686492532491684e-03,5.076844990253448486e-02,6.313954293727874756e-02,1.116217151284217834e-01,-9.306692332029342651e-02,-4.197541251778602600e-02,9.014051407575607300e-02,-7.357972115278244019e-02,-5.024647340178489685e-02,-1.379637513309717178e-02,-1.155090052634477615e-02,1.145446524024009705e-01,-6.599771231412887573e-02,-2.720864862203598022e-02,-9.000550210475921631e-02
5.013842880725860596e-02,1.480532735586166382e-01,5.613239482045173645e-02,-3.384834155440330505e-03,-7.990612089633941650e-02,1.134688034653663635e-01,1.438991725444793701e-02,-7.360540330410003662e-03,-8.505985885858535767e-02,-1.339479256421327591e-02,-7.896342873573303223e-02,-4.472793266177177429e-02,-6.360789388418197632e-02,-2.966106496751308441e-02,-3.382891416549682617e-02,-6.318129599094390869e-02,3.888325020670890808e-02,2.362301573157310486e-02,-3.476711735129356384e-02,1.742572709918022156e-02,5.331286694854497910e-03,-1.508300192654132843e-02,6.783083081245422363e-02,-7.539187371730804443e-02,-9.379659593105316162e-02,9.209319949150085449e-02,3.192316368222236633e-02,1.264569610357284546e-01,4.504561051726341248e-02,7.457663863897323608e-02,-4.559797700494527817e-03,-6.320392340421676636e-02,-1.003444846719503403e-02,1.066899509169161320e-03,-5.481072887778282166e-02,9.666033089160919189e-02,5.662975832819938660e-02,1.501966714859008789e-01,1.170755103230476379e-01,-6.229518726468086243e-02,6.709340959787368774e-02,2.742631919682025909e-02,6.804491579532623291e-02,8.190293610095977783e-02,-9.250535815954208374e-02,2.863472886383533478e-02,1.330046653747558594e-01,2.768013812601566315e-02,2.663636952638626099e-02,7.814259082078933716e-02
-1.960949040949344635e-02,-2.198177389800548553e-03,1.207984834909439087e-01,5.557488650083541870e-02,4.964556545019149780e-02,6.958962231874465942e-02,1.244429275393486023e-01,6.055644899606704712e-02,-2.638704329729080200e-02,5.203736200928688049e-02,-5.192651227116584778e-02,4.576110746711492538e-03,-8.355049788951873779e-02,-5.143558233976364136e-02,7.471924275159835815e-02,-9.903255105018615723e-02,-2.536962553858757019e-02,4.827374219894409180e-02,-5.165621638298034668e-02,-2.921317890286445618e-02,9.296214580535888672e-02,6.474064197391271591e-03,-6.798768043518066406e-02,5.833845958113670349e-02,4.356799647212028503e-03,-3.005663305521011353e-02,3.625753149390220642e-02,-1.118496656417846680e-01,-5.454133450984954834e-02,2.365494892001152039e-02,8.092631585896015167e-03,-4.564635455608367920e-02,3.318693116307258606e-02,-7.847213000059127808e-02,1.145506091415882111e-02,-3.444167599081993103e-02,4.251987487077713013e-02,4.929604008793830872e-02,-7.402012497186660767e-02,-1.425544172525405884e-02,1.719304174184799194e-01,4.361832886934280396e-02,4.026265814900398254e-02,2.648868598043918610e-02,8.462734520435333252e-02,1.028082072734832764e-01,-7.234542071819305420e-02,-8.253888785839080811e-02,-2.638703584671020508e-02,-8.340988308191299438e-02
2.714215032756328583e-02,4.254212975502014160e-02,4.183021932840347290e-02,1.096435040235519409e-01,2.802182361483573914e-02,4.801667481660842896e-02,-2.679007593542337418e-03,-6.607246398925781250e-02,-6.054241210222244263e-02,-4.322912916541099548e-02,-4.223522543907165527e-02,-6.012085825204849243e-02,3.065208718180656433e-02,-6.265385448932647705e-02,1.246275827288627625e-01,1.242515891790390015e-01,-5.720101669430732727e-02,-4.920805245637893677e-02,-9.579753130674362183e-02,6.089641153812408447e-02,7.580425124615430832e-03,-8.936194330453872681e-02,-6.666317582130432129e-02,9.021697938442230225e-02,-3.755639865994453430e-02,1.032307296991348267e-01,1.848485320806503296e-02,-4.390023276209831238e-02,-6.803297996520996094e-02,-1.722130551934242249e-02,-3.309693187475204468e-02,-5.075249075889587402e-02,3.789312019944190979e-02,-2.665377780795097351e-02,2.142691053450107574e-02,-2.377926744520664215e-02,1.890526735223829746e-03,4.546571895480155945e-02,9.597649425268173218e-02,-8.914650976657867432e-02,7.240017503499984741e-02,7.843476533889770508e-02,-9.955646842718124390e-02,4.105536267161369324e-02,9.441527724266052246e-02,5.948858335614204407e-02,1.152217984199523926e-01,6.504885852336883545e-02,3.145767003297805786e-02,-4.826813470572233200e-03
-3.273107111454010010e-02,-2.518529258668422699e-02,6.151765584945678711e-02,5.319935083389282227e-02,1.221562623977661133e-01,-4.355935007333755493e-02,-3.792579844594001770e-02,5.595552176237106323e-02,1.653704792261123657e-03,-3.819448873400688171e-02,7.699593901634216309e-02,-8.809182792901992798e-02,1.387555301189422607e-01,8.614590018987655640e-02,5.390070751309394836e-02,-4.985378682613372803e-02,9.369091689586639404e-02,-2.023680834099650383e-03,-4.010177031159400940e-02,-4.087836295366287231e-02,-7.231941074132919312e-02,-9.091103821992874146e-02,-8.552190661430358887e-02,-5.514708906412124634e-02,5.752548947930335999e-02,9.649252891540527344e-02,5.115195736289024353e-02,2.923275344073772430e-02,1.004539523273706436e-02,9.547595679759979248e-02,-1.602998562157154083e-02,-2.337635867297649384e-02,-3.523408994078636169e-02,-1.001254394650459290e-01,-6.797982379794120789e-03,-9.260225296020507812e-02,-5.435988306999206543e-02,8.991805464029312134e-02,1.057114303112030029e-01,-9.910511225461959839e-02,6.336949020624160767e-02,3.639118745923042297e-02,-7.420644164085388184e-02,-1.001211926341056824e-01,7.107215374708175659e-02,-8.353972434997558594e-02,-5.782726779580116272e-02,1.313328295946121216e-01,3.180439025163650513e-02,4.286960512399673462e-02
-6.945276632905006409e-03,-6.208872795104980469e-02,2.646161615848541260e-02,7.071918994188308716e-02,3.834867477416992188e-02,-5.876072216778993607e-03,-6.113542616367340088e-02,-6.521886587142944336e-02,8.326886594295501709e-02,-6.891424953937530518e-02,9.114859998226165771e-02,9.764859080314636230e-02,-6.680727005004882812e-02,4.358487576246261597e-02,-5.639857426285743713e-02,-3.755162656307220459e-02,-4.013296961784362793e-02,8.816281706094741821e-02,-2.335909195244312286e-02,-3.126290440559387207e-02,-6.402091681957244873e-02,-7.895634323358535767e-02,-6.770299375057220459e-02,7.572104781866073608e-02,-8.709740638732910156e-02,7.588879019021987915e-02,-2.542452141642570496e-02,-5.053301155567169189e-02,7.676035165786743164e-04,7.777354121208190918e-02,-2.857399173080921173e-02,7.080078870058059692e-02,2.547678723931312561e-02,-7.311191409826278687e-02,6.327039003372192383e-02,-8.177685737609863281e-02,7.502242177724838257e-02,-8.956863731145858765e-02,-1.439560018479824066e-02,-5.167424678802490234e-02,-4.187789559364318848e-02,6.379790604114532471e-02,1.066141575574874878e-01,-6.271973997354507446e-02,1.260841730982065201e-02,5.871257930994033813e-02,-2.050525322556495667e-02,3.575460985302925110e-02,-2.645276486873626709e-03,1.120906043797731400e-02
-6.869854032993316650e-02,1.006084680557250977e-01,4.926244914531707764e-02,-7.110865414142608643e-02,-2.603438869118690491e-02,6.858891993761062622e-02,5.607600789517164230e-03,-5.243282392621040344e-02,1.780114322900772095e-02,-9.337004274129867554e-02,-5.700991488993167877e-03,1.478444412350654602e-02,7.338244467973709106e-02,-9.053882211446762085e-02,1.169562898576259613e-02,-1.493486296385526657e-02,-5.086807534098625183e-02,9.406068176031112671e-02,-2.694306895136833191e-02,9.348100423812866211e-02,-7.294311374425888062e-02,-7.408647984266281128e-02,1.334325969219207764e-02,6.491076946258544922e-02,-7.515776902437210083e-02,7.524464279413223267e-02,-5.609657242894172668e-02,-4.267819598317146301e-02,6.332698464393615723e-02,-2.982489578425884247e-02,4.550056904554367065e-02,-2.485362812876701355e-02,3.840817883610725403e-02,-8.778490871191024780e-02,-2.107271552085876465e-02,6.973145902156829834e-02,3.430228307843208313e-02,1.082069128751754761e-01,9.366247802972793579e-02,-5.746231228113174438e-02,4.918212071061134338e-02,3.586465865373611450e-02,4.400252178311347961e-02,5.994265154004096985e-02,-3.578220307826995850e-02,4.976376891136169434e-02,7.600545138120651245e-02,4.545073490589857101e-03,-9.489916265010833740e-03,3.190105408430099487e-02
-4.136771708726882935e-02,-4.525741189718246460e-02,-8.303477615118026733e-02,4.651163704693317413e-03,7.269328087568283081e-02,-1.211772486567497253e-01,1.040450334548950195e-01,-4.842540249228477478e-02,4.118764773011207581e-02,2.959836460649967194e-02,-1.391837932169437408e-02,-5.927284061908721924e-02,1.191417053341865540e-01,-8.574450761079788208e-02,-1.001200526952743530e-01,-5.189898237586021423e-02,8.439988829195499420e-03,2.353554591536521912e-02,-6.730108708143234253e-02,-4.580774530768394470e-02,7.919318974018096924e-02,4.169350862503051758e-02,2.964150533080101013e-02,3.664572536945343018e-02,-1.141008641570806503e-02,2.800400927662849426e-02,-6.542897224426269531e-02,5.234656110405921936e-02,-8.162795752286911011e-02,1.067968830466270447e-01,-8.320996910333633423e-02,8.035039156675338745e-02,-7.223448902368545532e-02,-2.110795862972736359e-02,-5.399751663208007812e-02,7.510394603013992310e-02,-9.791935980319976807e-02,-2.197056077420711517e-02,6.951916962862014771e-02,1.375021785497665405e-02,-3.800787404179573059e-02,-7.983044534921646118e-02,4.756501689553260803e-02,1.756284199655056000e-02,7.094130851328372955e-03,1.935832947492599487e-02,9.169848263263702393e-02,6.051620841026306152e-02,7.113910466432571411e-02,4.178968816995620728e-02
3.643822669982910156e-02,6.456336379051208496e-02,-1.005866527557373047e-01,-1.014709994196891785e-01,9.056134521961212158e-02,-3.098861686885356903e-02,-9.077219665050506592e-02,-6.192575767636299133e-02,6.203357130289077759e-02,-8.928272128105163574e-02,7.165814936161041260e-02,-7.769399881362915039e-02,-4.589716717600822449e-02,-5.293504893779754639e-02,4.117361083626747131e-02,-6.901638954877853394e-02,9.195605665445327759e-02,9.772185981273651123e-02,-4.341399669647216797e-02,8.767152577638626099e-02,-4.376002401113510132e-02,7.830158621072769165e-02,-1.505610998719930649e-02,-1.466448232531547546e-02,4.015542566776275635e-02,9.363353997468948364e-02,-9.944809600710868835e-03,2.382888458669185638e-02,1.377001404762268066e-03,7.607631850987672806e-03,3.491786867380142212e-02,5.718272179365158081e-02,3.466921299695968628e-02,3.661321848630905151e-02,-5.396769940853118896e-02,9.286587126553058624e-03,-7.051318138837814331e-02,-3.221185132861137390e-02,3.494461253285408020e-02,-9.208770096302032471e-02,4.884151741862297058e-03,1.636654324829578400e-02,-7.421609479933977127e-03,7.153327111154794693e-03,3.375542536377906799e-02,4.150111600756645203e-02,-7.833891361951828003e-02,3.024280013050884008e-04,6.675327569246292114e-02,-8.909393846988677979e-02
6.381214410066604614e-02,-9.855652600526809692e-02,1.292001903057098389e-01,2.533205971121788025e-02,-7.492404431104660034e-02,-2.850187569856643677e-02,1.445063501596450806e-01,-5.851404741406440735e-02,-2.527839131653308868e-02,7.156053185462951660e-02,-2.751100249588489532e-02,8.558686077594757080e-02,-8.219459652900695801e-02,4.500802978873252869e-02,-9.019287675619125366e-02,-3.409651666879653931e-02,5.890501290559768677e-02,-1.345504447817802429e-02,2.325517311692237854e-02,-6.789726670831441879e-03,1.086581274867057800e-01,-3.453102428466081619e-03,-6.022782996296882629e-02,2.626451849937438965e-02,-2.375621907413005829e-02,1.336733251810073853e-02,1.558313518762588501e-01,-1.042064279317855835e-02,-4.565203934907913208e-02,-1.939450949430465698e-02,3.508894890546798706e-02,-9.877081960439682007e-02,1.031317338347434998e-01,-4.391173645853996277e-02,1.179665401577949524e-01,-7.454194873571395874e-02,3.774835169315338135e-02,-1.665082201361656189e-02,-3.312455490231513977e-02,4.069031029939651489e-02,1.662791669368743896e-01,-4.716024920344352722e-02,3.664974495768547058e-02,4.382003098726272583e-02,-1.674458966590464115e-03,8.028631657361984253e-02,-1.757679693400859833e-02,-7.958265952765941620e-03,-3.800879791378974915e-02,-1.398195512592792511e-02
